#mdl#2#3253
#rdr#4/0/0
10:u0:%x[0,0],
12:u-1:%x[-1,0],
12:u-2:%x[-2,0],
1:b,
#qrk#81
1:O,
15:B-cost_relative,
19:B-fromloc.city_name,
20:B-fromloc.state_code,
17:B-toloc.city_name,
22:B-depart_date.day_name,
27:B-depart_time.period_of_day,
27:B-depart_date.date_relative,
14:B-airline_name,
13:B-flight_time,
27:B-depart_time.time_relative,
18:B-depart_time.time,
12:B-flight_mod,
14:B-airline_code,
20:B-fromloc.state_name,
19:B-stoploc.city_name,
11:B-city_name,
24:B-depart_date.day_number,
24:B-depart_date.month_name,
9:B-connect,
12:B-round_trip,
24:B-depart_time.period_mod,
22:B-fromloc.airport_name,
13:B-flight_stop,
12:B-state_name,
15:B-aircraft_code,
18:B-toloc.state_name,
18:B-arrive_time.time,
12:B-class_type,
15:B-flight_number,
27:B-arrive_time.period_of_day,
16:B-transport_type,
14:B-airport_name,
8:B-return,
18:B-depart_date.year,
15:B-period_of_day,
15:B-time_relative,
6:B-time,
13:B-fare_amount,
24:B-arrive_date.month_name,
24:B-arrive_date.day_number,
6:B-meal,
27:B-arrive_time.time_relative,
18:B-meal_description,
12:B-state_code,
9:B-economy,
24:B-return_date.month_name,
24:B-return_date.day_number,
20:B-toloc.airport_name,
5:B-mod,
13:B-flight_days,
28:B-depart_date.today_relative,
18:B-restriction_code,
17:B-fare_basis_code,
27:B-arrive_date.date_relative,
22:B-arrive_date.day_name,
4:B-or,
11:B-meal_code,
24:B-arrive_time.start_time,
22:B-arrive_time.end_time,
22:B-fromloc.airport_code,
20:B-toloc.airport_code,
14:B-airport_code,
24:B-arrive_time.period_mod,
18:B-toloc.state_code,
24:B-depart_time.start_time,
22:B-depart_time.end_time,
16:B-today_relative,
28:B-arrive_date.today_relative,
10:B-day_name,
20:B-stoploc.state_code,
27:B-return_date.date_relative,
22:B-stoploc.airport_name,
22:B-return_date.day_name,
11:B-days_code,
12:B-month_name,
12:B-day_number,
20:B-toloc.country_name,
28:B-return_date.today_relative,
24:B-return_time.period_mod,
27:B-return_time.period_of_day,
#qrk#2837
6:u0:i'd,
8:u-1:_x-1,
8:u-2:_x-2,
1:b,
7:u0:like,
7:u-1:i'd,
8:u-2:_x-1,
5:u0:to,
8:u-1:like,
7:u-2:i'd,
7:u0:find,
6:u-1:to,
8:u-2:like,
6:u0:the,
8:u-1:find,
6:u-2:to,
11:u0:cheapest,
7:u-1:the,
8:u-2:find,
9:u0:flight,
12:u-1:cheapest,
7:u-2:the,
7:u0:from,
10:u-1:flight,
12:u-2:cheapest,
13:u0:washington,
8:u-1:from,
10:u-2:flight,
5:u0:dc,
14:u-1:washington,
8:u-2:from,
6:u-1:dc,
14:u-2:washington,
10:u0:atlanta,
6:u-2:dc,
6:u0:i'm,
12:u0:traveling,
7:u-1:i'm,
13:u-1:traveling,
7:u-2:i'm,
9:u0:dallas,
13:u-2:traveling,
10:u-1:dallas,
15:u0:philadelphia,
10:u-2:dallas,
4:u0:i,
7:u0:also,
5:u-1:i,
7:u0:need,
8:u-1:also,
5:u-2:i,
8:u-1:need,
8:u-2:also,
5:u0:go,
8:u-2:need,
6:u-1:go,
16:u0:san-francisco,
6:u-2:go,
5:u0:on,
17:u-1:san-francisco,
12:u0:wednesday,
6:u-1:on,
17:u-2:san-francisco,
10:u0:evening,
13:u-1:wednesday,
6:u-2:on,
11:u-1:evening,
13:u-2:wednesday,
11:u-2:evening,
8:u0:thank,
6:u0:you,
9:u-1:thank,
7:u-1:you,
9:u-2:thank,
7:u-2:you,
9:u0:travel,
7:u0:next,
10:u-1:travel,
8:u-1:next,
10:u-2:travel,
8:u-2:next,
6:u0:fly,
23:u0:continental-airlines,
7:u-1:fly,
10:u0:between,
24:u-1:continental-airlines,
7:u-2:fly,
9:u0:boston,
11:u-1:between,
24:u-2:continental-airlines,
6:u0:and,
10:u-1:boston,
11:u-2:between,
7:u-1:and,
10:u-2:boston,
9:u0:please,
7:u0:tell,
10:u-1:please,
5:u0:me,
8:u-1:tell,
10:u-2:please,
6:u-1:me,
8:u-2:tell,
10:u0:flights,
6:u-2:me,
11:u-1:flights,
11:u-2:flights,
16:u-1:philadelphia,
7:u-2:and,
11:u0:thursday,
16:u-2:philadelphia,
8:u0:would,
9:u-1:would,
9:u-2:would,
7:u0:fare,
8:u-1:fare,
8:u-2:fare,
11:u-1:atlanta,
11:u-2:atlanta,
4:u0:a,
5:u-1:a,
5:u-2:a,
7:u0:give,
8:u-1:give,
8:u-2:give,
15:u0:flight-times,
16:u-1:flight-times,
16:u-2:flight-times,
12:u0:baltimore,
5:u0:in,
13:u-1:baltimore,
6:u-1:in,
13:u-2:baltimore,
10:u0:morning,
6:u-2:in,
9:u0:before,
11:u-1:morning,
4:u0:8,
10:u-1:before,
11:u-2:morning,
24:u0:times-of-your-flights,
25:u-1:times-of-your-flights,
25:u-2:times-of-your-flights,
12:u0:8-o'clock,
10:u0:leaving,
11:u-1:leaving,
11:u-2:leaving,
7:u0:what,
8:u-1:what,
5:u0:do,
8:u-2:what,
6:u-1:do,
7:u0:have,
6:u-2:do,
8:u-1:have,
9:u0:denver,
8:u-2:have,
10:u-1:denver,
11:u0:arriving,
10:u-2:denver,
12:u-1:arriving,
12:u-2:arriving,
5:u0:is,
7:u0:your,
6:u-1:is,
7:u0:last,
8:u-1:your,
6:u-2:is,
8:u-1:last,
8:u-2:your,
8:u-2:last,
8:u0:there,
9:u-1:there,
9:u-2:there,
7:u0:does,
20:u0:american-airlines,
8:u-1:does,
21:u-1:american-airlines,
8:u-2:does,
21:u-2:american-airlines,
7:u0:time,
8:u-1:time,
11:u0:earliest,
8:u-2:time,
12:u-1:earliest,
12:u-2:earliest,
5:u0:of,
6:u-1:of,
6:u-2:of,
8:u0:could,
9:u-1:could,
9:u-2:could,
14:u0:information,
13:u0:concerning,
15:u-1:information,
14:u-1:concerning,
15:u-2:information,
14:u-2:concerning,
6:u0:one,
7:u-1:one,
7:u-2:one,
5:u0:as,
11:u0:possible,
6:u-1:as,
19:u0:american-airline,
20:u-1:american-airline,
20:u-2:american-airline,
16:u0:early-morning,
18:u0:times-of-flight,
17:u-1:early-morning,
6:u0:twa,
7:u-1:twa,
7:u-2:twa,
13:u0:fort-worth,
8:u0:texas,
14:u-1:fort-worth,
9:u-1:texas,
14:u-2:fort-worth,
9:u-2:texas,
13:u0:interested,
14:u-1:interested,
14:u-2:interested,
7:u0:that,
8:u-1:that,
7:u0:stop,
8:u-2:that,
8:u-1:stop,
8:u-2:stop,
13:u0:pittsburgh,
6:u0:for,
7:u-1:for,
7:u-2:for,
14:u-1:pittsburgh,
14:u-2:pittsburgh,
7:u0:want,
8:u-1:want,
8:u-2:want,
9:u0:monday,
11:u0:airlines,
12:u-1:airlines,
12:u-2:airlines,
9:u0:ground,
17:u0:transportation,
10:u-1:ground,
18:u-1:transportation,
10:u-2:ground,
18:u-2:transportation,
10:u0:airport,
11:u-1:airport,
11:u-2:airport,
11:u0:downtown,
10:u0:tuesday,
15:u0:twenty-first,
12:u0:repeating,
13:u-1:repeating,
13:u-2:repeating,
7:u0:10am,
8:u-1:10am,
10:u-2:before,
7:u0:type,
8:u-2:10am,
8:u-1:type,
11:u0:aircraft,
8:u-2:type,
12:u-1:aircraft,
7:u0:used,
12:u-2:aircraft,
9:u0:flying,
10:u-1:flying,
10:u-2:flying,
18:u0:united-airlines,
19:u-1:united-airlines,
19:u-2:united-airlines,
6:u0:all,
8:u0:right,
7:u-1:all,
9:u-1:right,
7:u-2:all,
9:u-2:right,
6:u0:let,
7:u-1:let,
7:u0:know,
7:u-2:let,
8:u-1:know,
8:u-2:know,
8:u0:using,
9:u-1:using,
9:u-2:using,
7:u0:they,
6:u0:use,
8:u-1:they,
7:u-1:use,
8:u-2:they,
8:u0:these,
7:u-2:use,
9:u-1:these,
9:u-2:these,
5:u0:10,
6:u-1:10,
6:u-2:10,
7:u0:well,
7:u0:i'll,
8:u-1:well,
6:u0:try,
8:u-1:i'll,
8:u-2:well,
7:u-1:try,
8:u-2:i'll,
7:u-2:try,
7:u0:kind,
8:u-1:kind,
8:u-2:kind,
8:u0:flies,
9:u-1:flies,
9:u-2:flies,
13:u0:10-o'clock,
14:u-1:10-o'clock,
14:u-2:10-o'clock,
12:u0:september,
12:u0:twentieth,
13:u-1:september,
13:u-1:twentieth,
13:u-2:september,
13:u-2:twentieth,
11:u0:stopover,
12:u-1:stopover,
12:u-2:stopover,
6:u0:are,
7:u-1:are,
7:u-2:are,
5:u0:an,
6:u-1:an,
6:u-2:an,
13:u0:connecting,
7:u0:wish,
8:u-1:wish,
8:u-2:wish,
10:u0:airline,
11:u-1:airline,
11:u-2:airline,
8:u0:plane,
9:u-1:plane,
9:u-2:plane,
10:u0:one-way,
11:u-1:one-way,
11:u-2:one-way,
12:u0:available,
5:u0:at,
13:u-1:available,
11:u0:noontime,
6:u-1:at,
13:u-2:available,
12:u-1:noontime,
6:u-2:at,
12:u-2:noontime,
9:u0:around,
10:u-1:around,
10:u-2:around,
17:u0:delta-airlines,
18:u-1:delta-airlines,
18:u-2:delta-airlines,
19:u0:eastern-airlines,
20:u-1:eastern-airlines,
20:u-2:eastern-airlines,
8:u0:early,
9:u-1:early,
6:u-2:as,
9:u-2:early,
12:u-1:possible,
12:u-2:possible,
6:u0:day,
7:u-1:day,
7:u-2:day,
7:u0:will,
9:u0:arrive,
8:u-1:will,
10:u-1:arrive,
8:u-2:will,
10:u-2:arrive,
17:u0:denver-airport,
18:u-1:denver-airport,
18:u-2:denver-airport,
12:u-1:downtown,
10:u0:nonstop,
11:u-1:nonstop,
11:u-2:nonstop,
9:u0:repeat,
10:u-1:repeat,
10:u-2:repeat,
13:u0:departures,
14:u-1:departures,
14:u-2:departures,
9:u0:august,
10:u-1:monday,
13:u0:nineteenth,
10:u-1:august,
10:u-2:monday,
14:u-1:nineteenth,
10:u-2:august,
14:u-2:nineteenth,
7:u0:rate,
8:u-1:rate,
8:u-2:rate,
6:u0:any,
7:u-1:any,
7:u-2:any,
9:u0:us-air,
10:u-1:us-air,
10:u-2:us-air,
8:u0:we're,
8:u0:going,
9:u-1:we're,
9:u-1:going,
9:u-2:we're,
9:u-2:going,
6:u0:819,
7:u-1:819,
7:u-2:819,
7:u0:take,
8:u-1:take,
8:u-2:take,
12:u0:9-o'clock,
13:u-1:9-o'clock,
13:u-2:9-o'clock,
6:u0:out,
7:u-1:out,
7:u-2:out,
5:u0:be,
10:u0:staying,
6:u-1:be,
11:u-1:staying,
6:u-2:be,
11:u-2:staying,
12:u-2:downtown,
6:u0:two,
8:u0:hours,
7:u-1:two,
9:u-1:hours,
7:u-2:two,
9:u-2:hours,
6:u0:can,
7:u-1:can,
7:u-2:can,
8:u0:about,
9:u-1:about,
9:u-2:about,
7:u0:city,
8:u-1:city,
8:u-2:city,
7:u0:very,
8:u-1:very,
8:u-2:very,
10:u0:working,
11:u-1:working,
11:u0:scenario,
11:u-2:working,
8:u0:three,
12:u-1:scenario,
9:u-1:three,
12:u-2:scenario,
9:u-2:three,
6:u0:727,
7:u-1:727,
7:u-2:727,
10:u0:georgia,
5:u0:am,
6:u-1:am,
6:u-2:am,
9:u0:number,
10:u-1:number,
10:u-2:number,
9:u0:return,
10:u-1:return,
10:u-2:return,
8:u0:bound,
9:u-1:bound,
9:u-2:bound,
9:u0:friday,
7:u0:this,
10:u-1:friday,
7:u0:week,
8:u-1:this,
10:u-2:friday,
8:u0:class,
10:u0:service,
9:u-1:class,
11:u-1:service,
9:u-2:class,
11:u-2:service,
13:u0:california,
14:u-1:california,
14:u-2:california,
15:u0:pennsylvania,
6:u0:get,
7:u-1:get,
7:u-2:get,
6:u0:yes,
7:u-1:yes,
7:u-2:yes,
8:u0:delta,
9:u-1:delta,
9:u-2:delta,
8:u0:225pm,
9:u-1:225pm,
9:u-2:225pm,
9:u0:1158pm,
10:u-1:1158pm,
10:u-2:1158pm,
12:u0:equipment,
13:u-1:equipment,
13:u-2:equipment,
8:u-1:used,
8:u-2:used,
10:u0:looking,
11:u-1:looking,
11:u-2:looking,
11:u0:stopping,
12:u-1:stopping,
12:u-2:stopping,
9:u0:ticket,
10:u-1:ticket,
10:u-2:ticket,
11:u0:colorado,
12:u-1:colorado,
12:u-2:colorado,
7:u0:with,
11:u-1:georgia,
8:u-1:with,
11:u-2:georgia,
8:u-2:with,
14:u0:coach-class,
7:u0:seat,
15:u-1:coach-class,
8:u-1:seat,
15:u-2:coach-class,
8:u-2:seat,
5:u0:or,
9:u0:lowest,
6:u-1:or,
10:u-1:lowest,
6:u-2:or,
10:u-2:lowest,
6:u0:buy,
7:u-1:buy,
7:u-2:buy,
12:u0:afternoon,
13:u-1:afternoon,
13:u-2:afternoon,
6:u0:230,
7:u-1:230,
7:u-2:230,
8:u0:324pm,
6:u0:324,
7:u-1:324,
7:u-2:324,
8:u0:110pm,
9:u-1:110pm,
9:u-2:110pm,
14:u0:seventeenth,
10:u0:oakland,
11:u0:american,
12:u-1:american,
6:u0:813,
12:u-2:american,
7:u-1:813,
7:u-2:813,
11:u-1:oakland,
11:u-2:oakland,
7:u0:goes,
11:u0:straight,
8:u-1:goes,
10:u0:through,
12:u-1:straight,
8:u-2:goes,
11:u-1:through,
12:u-2:straight,
11:u-2:through,
19:u0:without-stopping,
20:u-1:without-stopping,
10:u0:another,
20:u-2:without-stopping,
11:u-1:another,
5:u0:if,
6:u-1:if,
6:u-2:if,
10:u0:enroute,
11:u-1:enroute,
11:u-2:enroute,
5:u0:it,
6:u-1:it,
6:u-2:it,
6:u0:may,
7:u-1:may,
7:u-2:may,
7:u0:2153,
8:u-1:2153,
8:u-2:2153,
14:u0:first-class,
15:u-1:first-class,
15:u-2:first-class,
7:u0:list,
8:u-1:list,
8:u-2:list,
9:u0:making,
10:u-1:making,
10:u-2:making,
14:u0:continental,
15:u-1:continental,
15:u-2:continental,
8:u0:leave,
9:u-1:leave,
9:u-2:leave,
8:u0:after,
13:u0:12-o'clock,
9:u-1:after,
14:u-1:12-o'clock,
9:u-2:after,
14:u-2:12-o'clock,
8:u0:which,
9:u0:leaves,
9:u-1:which,
10:u-1:leaves,
9:u-2:which,
10:u-2:leaves,
9:u0:1220pm,
10:u-1:1220pm,
10:u-2:1220pm,
12:u0:5-o'clock,
13:u-1:5-o'clock,
13:u-2:5-o'clock,
14:u0:lowest-cost,
15:u-1:lowest-cost,
15:u-2:lowest-cost,
8:u0:645am,
9:u-1:645am,
9:u-2:645am,
11:u-1:tuesday,
11:u-2:tuesday,
6:u0:has,
7:u-1:has,
7:u-2:has,
6:u0:how,
7:u0:much,
7:u-1:how,
8:u-1:much,
7:u-2:how,
8:u-2:much,
13:u0:round-trip,
14:u-1:round-trip,
14:u-2:round-trip,
7:u0:long,
8:u-1:long,
8:u-2:long,
18:u0:atlanta-airport,
7:u0:into,
19:u-1:atlanta-airport,
8:u-1:into,
19:u-2:atlanta-airport,
8:u-2:into,
20:u0:airport-limousine,
21:u-1:airport-limousine,
21:u-2:airport-limousine,
7:u0:make,
8:u-1:make,
7:u0:trip,
8:u-2:make,
8:u-1:trip,
8:u-2:trip,
8:u0:again,
9:u-1:again,
9:u-2:again,
8:u0:fares,
9:u-1:fares,
9:u-2:fares,
15:u0:arrival-time,
16:u-1:arrival-time,
16:u-2:arrival-time,
8:u0:755am,
9:u-1:755am,
9:u-2:755am,
9:u0:latest,
10:u-1:latest,
10:u-2:latest,
6:u0:755,
7:u-1:755,
7:u-2:755,
11:u0:schedule,
12:u-1:schedule,
12:u-2:schedule,
6:u0:9pm,
7:u-1:9pm,
7:u-2:9pm,
15:u0:twenty-ninth,
11:u0:november,
15:u0:twenty-third,
12:u-1:november,
16:u-1:twenty-third,
12:u-2:november,
16:u-2:twenty-third,
7:u0:year,
7:u0:1991,
8:u-1:year,
8:u-2:this,
8:u-1:1991,
8:u-2:year,
8:u-2:1991,
7:u0:okay,
7:u0:just,
8:u-1:okay,
8:u-1:just,
8:u-2:okay,
8:u-2:just,
6:u0:8am,
8:u0:hello,
9:u-1:hello,
9:u-2:hello,
8:u0:let's,
6:u0:see,
9:u-1:let's,
7:u-1:see,
9:u-2:let's,
7:u-2:see,
16:u0:delta-airline,
17:u-1:delta-airline,
17:u-2:delta-airline,
8:u0:stops,
9:u-1:stops,
9:u-2:stops,
6:u0:way,
7:u-1:way,
7:u-2:way,
9:u0:united,
10:u-1:united,
10:u-2:united,
8:u0:815am,
5:u0:by,
17:u0:united-airline,
6:u-1:by,
18:u-1:united-airline,
18:u-2:united-airline,
5:u0:oh,
6:u-1:oh,
6:u-2:oh,
18:u0:eastern-airline,
19:u-1:eastern-airline,
19:u-2:eastern-airline,
7:u0:some,
8:u-1:some,
8:u-2:some,
6:u0:9am,
17:u0:dallas-airport,
18:u-1:dallas-airport,
18:u-2:dallas-airport,
15:u0:arrangements,
16:u-1:arrangements,
16:u-2:arrangements,
17:u0:boston-airport,
18:u-1:boston-airport,
18:u-2:boston-airport,
12:u0:departing,
13:u-1:departing,
13:u-2:departing,
10:u0:airfare,
11:u-1:airfare,
11:u-2:airfare,
14:u0:329-dollars,
15:u-1:329-dollars,
15:u-2:329-dollars,
7:u0:cost,
8:u-1:cost,
8:u-2:cost,
6:u0:air,
15:u0:restrictions,
7:u-1:air,
16:u-1:restrictions,
7:u-2:air,
16:u-2:restrictions,
14:u0:416-dollars,
7:u0:book,
8:u-1:book,
8:u-2:book,
8:u0:coach,
11:u0:discount,
9:u-1:coach,
12:u-1:discount,
9:u-2:coach,
10:u0:arrange,
11:u-1:arrange,
11:u-2:arrange,
7:u0:july,
10:u0:seventh,
8:u-1:july,
7:u0:sure,
8:u-1:sure,
8:u-2:sure,
12:u0:determine,
13:u-1:determine,
13:u-2:determine,
11:u-1:seventh,
8:u-2:july,
11:u-2:seventh,
7:u0:meal,
8:u0:being,
8:u-1:meal,
9:u0:served,
9:u-1:being,
8:u-2:meal,
7:u-1:8am,
7:u-2:8am,
7:u0:such,
8:u-1:such,
8:u-2:such,
8:u0:types,
9:u-1:types,
9:u-2:types,
7:u0:dc10,
11:u0:sometime,
12:u-1:sometime,
12:u-2:sometime,
9:u0:direct,
10:u-1:direct,
10:u-2:direct,
10:u0:12-noon,
10:u0:arrives,
11:u-1:arrives,
11:u-2:arrives,
17:u-2:early-morning,
16:u0:approximately,
6:u0:1pm,
17:u-1:approximately,
7:u0:many,
8:u-1:many,
8:u-2:many,
8:u0:where,
9:u-1:where,
9:u-2:where,
14:u0:dinner-meal,
6:u0:420,
7:u-1:420,
7:u-2:420,
4:u0:5,
5:u-1:5,
5:u-2:5,
5:u0:my,
8:u0:final,
6:u-1:my,
14:u0:destination,
9:u-1:final,
6:u-2:my,
15:u-1:destination,
9:u-2:final,
15:u-2:destination,
12:u0:originate,
13:u-1:originate,
13:u-2:originate,
23:u0:latest-time-possible,
24:u-1:latest-time-possible,
24:u-2:latest-time-possible,
12:u0:fifteenth,
9:u0:during,
12:u0:breakfast,
10:u-1:during,
6:u0:296,
9:u0:serves,
7:u-1:296,
10:u-1:serves,
7:u-2:296,
8:u0:first,
9:u-1:first,
9:u-2:first,
18:u0:early-afternoon,
9:u0:should,
10:u-1:should,
10:u-2:should,
8:u0:615pm,
8:u0:their,
9:u-1:their,
9:u-2:their,
25:u0:earliest-possible-time,
11:u0:question,
12:u-1:question,
12:u-2:question,
7:u0:live,
8:u-1:live,
8:u-2:live,
9:u0:trying,
10:u-1:trying,
10:u-2:trying,
13:u0:connection,
14:u-1:connection,
14:u-2:connection,
8:u0:those,
9:u-1:those,
12:u0:thirtieth,
13:u-1:thirtieth,
13:u-2:thirtieth,
7:u0:fine,
8:u-1:fine,
8:u-2:fine,
7:u0:help,
8:u-1:help,
8:u-2:help,
6:u0:now,
7:u-1:now,
7:u-2:now,
6:u0:747,
7:u-1:747,
7:u-2:747,
7:u0:able,
8:u-1:able,
6:u0:put,
8:u-2:able,
7:u-1:put,
7:u-2:put,
17:u0:twenty-seventh,
18:u-1:twenty-seventh,
18:u-2:twenty-seventh,
8:u0:night,
9:u-1:night,
9:u-2:night,
8:u0:630am,
9:u-1:630am,
9:u-2:630am,
6:u0:650,
8:u0:third,
8:u0:rates,
9:u-1:rates,
9:u-2:rates,
18:u0:least-expensive,
19:u-1:least-expensive,
19:u-2:least-expensive,
17:u0:city-of-boston,
18:u-1:city-of-boston,
18:u-2:city-of-boston,
9:u0:kindly,
10:u-1:kindly,
10:u-2:kindly,
9:u0:inform,
10:u-1:inform,
10:u-2:inform,
18:u0:12-o'clock-noon,
10:u0:eastern,
11:u-1:eastern,
6:u0:825,
11:u-2:eastern,
7:u-1:825,
7:u-2:825,
7:u0:when,
8:u-1:when,
8:u-2:when,
6:u0:555,
7:u-1:555,
7:u-2:555,
6:u0:6pm,
6:u0:5pm,
8:u0:sorry,
9:u-1:sorry,
9:u-2:sorry,
15:u0:thirty-first,
16:u-1:thirty-first,
16:u-2:thirty-first,
7:u0:then,
8:u-1:then,
8:u-2:then,
9:u0:fourth,
10:u-1:fourth,
10:u-2:fourth,
7:u0:plan,
8:u-1:plan,
8:u-2:plan,
11:u0:no-stops,
12:u-1:no-stops,
12:u-2:no-stops,
10:u0:economy,
11:u-1:economy,
11:u-2:economy,
12:u-1:thursday,
8:u0:fifth,
12:u-2:thursday,
9:u-1:fifth,
9:u-2:fifth,
16:u0:twenty-eighth,
10:u0:october,
11:u-1:october,
10:u0:twelfth,
10:u0:numbers,
10:u0:connect,
11:u-1:connect,
11:u-2:connect,
9:u0:cities,
9:u-2:those,
11:u0:planning,
12:u-1:planning,
12:u-2:planning,
6:u0:269,
7:u-1:269,
7:u-2:269,
6:u0:428,
7:u-1:428,
7:u-2:428,
8:u0:times,
9:u-1:times,
9:u-2:times,
8:u0:makes,
9:u-1:makes,
9:u-2:makes,
11:u0:one-stop,
12:u-1:one-stop,
12:u-2:one-stop,
8:u0:april,
9:u-1:april,
16:u-1:twenty-first,
9:u-2:april,
16:u-2:twenty-first,
12:u0:beginning,
13:u-1:beginning,
13:u-2:beginning,
15:u0:twenty-fifth,
16:u-1:twenty-fifth,
12:u0:returning,
16:u-2:twenty-fifth,
13:u-1:returning,
13:u-2:returning,
8:u0:sixth,
12:u0:7-o'clock,
13:u-1:7-o'clock,
13:u-2:7-o'clock,
13:u-1:fifteenth,
13:u-2:fifteenth,
10:u0:sixteen,
11:u-1:sixteen,
11:u-2:sixteen,
12:u0:seventeen,
13:u-1:seventeen,
13:u-2:seventeen,
9:u0:twenty,
10:u-1:twenty,
10:u-2:twenty,
13:u-1:8-o'clock,
13:u-2:8-o'clock,
7:u0:four,
8:u-1:four,
8:u-2:four,
7:u0:1039,
8:u-1:1039,
8:u-2:1039,
6:u0:257,
8:u0:great,
9:u-1:great,
9:u-2:great,
9:u0:depart,
10:u-1:depart,
10:u-2:depart,
9:u0:sounds,
10:u-1:sounds,
10:u-2:sounds,
13:u0:twenty-one,
14:u-1:twenty-one,
14:u-2:twenty-one,
8:u0:one's,
9:u-1:one's,
6:u0:too,
9:u-2:one's,
7:u-1:too,
7:u-2:too,
16:u0:twenty-second,
17:u-1:twenty-second,
17:u-2:twenty-second,
12:u0:nighttime,
12:u0:departure,
13:u-1:nighttime,
13:u-1:departure,
13:u-2:nighttime,
7:u0:show,
8:u-1:show,
8:u-2:show,
20:u0:dallas-fort-worth,
21:u-1:dallas-fort-worth,
30:u0:san-francisco-international,
21:u-2:dallas-fort-worth,
11:u0:arrivals,
12:u-1:arrivals,
12:u-2:arrivals,
7:u0:most,
8:u-1:most,
8:u-2:most,
14:u0:connections,
15:u-1:connections,
15:u-2:connections,
8:u0:tenth,
9:u-1:tenth,
11:u0:eleventh,
7:u0:june,
8:u-1:june,
8:u-2:june,
17:u0:business-class,
8:u0:daily,
9:u-1:daily,
9:u-2:daily,
20:u0:stapleton-airport,
21:u-1:stapleton-airport,
11:u0:tomorrow,
21:u-2:stapleton-airport,
12:u-1:tomorrow,
9:u0:thrift,
10:u-1:thrift,
10:u-2:thrift,
10:u0:explain,
14:u0:restriction,
11:u-1:explain,
7:u0:ap80,
15:u-1:restriction,
11:u-2:explain,
7:u0:code,
5:u0:qx,
8:u-1:code,
14:u0:represented,
15:u-1:represented,
15:u-2:represented,
11:u0:database,
6:u0:7pm,
7:u-1:7pm,
7:u-2:7pm,
6:u0:315,
5:u0:aa,
6:u0:459,
6:u-1:aa,
7:u-1:459,
6:u-2:aa,
6:u0:m80,
10:u-1:cities,
10:u-2:cities,
10:u0:besides,
11:u-1:besides,
11:u-2:besides,
10:u0:provide,
11:u-1:provide,
11:u-2:provide,
6:u0:jet,
7:u-1:jet,
7:u-2:jet,
7:u0:only,
8:u-1:only,
8:u-2:only,
8:u0:today,
5:u0:dl,
12:u0:different,
13:u-1:different,
10:u0:classes,
13:u-2:different,
11:u-1:classes,
11:u-2:classes,
4:u0:b,
5:u-1:b,
8:u-2:code,
7:u0:same,
5:u-2:b,
8:u-1:same,
8:u-2:same,
4:u0:c,
10:u0:booking,
11:u-1:booking,
11:u-2:booking,
5:u0:yn,
16:u0:no-later-than,
6:u0:2pm,
17:u-1:no-later-than,
7:u-1:2pm,
17:u-2:no-later-than,
7:u-2:2pm,
9:u0:what's,
10:u-1:what's,
10:u-2:what's,
7:u0:ap57,
8:u0:codes,
9:u0:belong,
9:u-1:codes,
10:u-1:belong,
9:u-2:codes,
16:u0:economy-class,
10:u-2:belong,
6:u0:via,
7:u-1:via,
10:u0:layover,
11:u-1:layover,
11:u-2:layover,
7:u0:more,
8:u-1:more,
18:u-1:business-class,
8:u-2:more,
7:u0:than,
18:u-2:business-class,
8:u-1:than,
8:u0:other,
8:u-2:than,
9:u-1:other,
17:u-1:economy-class,
17:u-2:economy-class,
17:u0:late-afternoon,
18:u-1:late-afternoon,
18:u-2:late-afternoon,
7:u-1:1pm,
7:u-2:1pm,
12:u0:3-o'clock,
13:u-1:3-o'clock,
13:u-2:3-o'clock,
11:u-1:12-noon,
11:u-2:12-noon,
10:u0:delta's,
11:u-1:delta's,
11:u-2:delta's,
13:u0:rental-car,
14:u-1:rental-car,
14:u-2:rental-car,
6:u0:far,
7:u-1:far,
7:u-2:far,
11:u0:saturday,
12:u-1:saturday,
7:u0:come,
8:u-1:come,
8:u-2:come,
11:u0:smallest,
10:u0:seating,
12:u-1:smallest,
11:u0:capacity,
11:u-1:seating,
12:u-2:smallest,
17:u0:most-expensive,
18:u-1:most-expensive,
10:u0:tickets,
18:u-2:most-expensive,
11:u-1:tickets,
11:u-2:tickets,
12:u0:atlanta's,
13:u-1:atlanta's,
7:u0:noon,
8:u-1:noon,
8:u-2:noon,
14:u0:originating,
15:u-1:originating,
15:u-2:originating,
8:u0:210pm,
9:u0:eighth,
8:u0:ninth,
9:u0:offers,
10:u-1:offers,
10:u-2:offers,
10:u0:heading,
11:u-1:heading,
11:u-2:heading,
6:u0:279,
7:u-1:279,
7:u-2:279,
9:u0:137338,
4:u0:3,
5:u-1:3,
5:u-2:3,
12:u0:1-o'clock,
9:u0:toward,
10:u-1:toward,
10:u-2:toward,
18:u0:oakland-airport,
7:u0:each,
8:u-1:each,
8:u-2:each,
4:u0:k,
12:u0:lufthansa,
13:u-1:lufthansa,
13:u-2:lufthansa,
15:u0:twenty-sixth,
16:u-1:twenty-sixth,
7:u0:name,
8:u-1:name,
8:u-2:name,
23:u0:philadelphia-airport,
24:u-1:philadelphia-airport,
24:u-2:philadelphia-airport,
4:u0:1,
5:u-1:1,
5:u-2:1,
4:u0:4,
5:u-1:4,
5:u-2:4,
17:u0:departure-time,
18:u-1:departure-time,
18:u-2:departure-time,
19:u-1:early-afternoon,
19:u-2:early-afternoon,
12:u0:limousine,
8:u0:total,
9:u-1:total,
9:u-2:total,
12:u-1:capacity,
11:u-2:seating,
12:u-2:capacity,
13:u0:advertises,
9:u0:having,
14:u-1:advertises,
10:u-1:having,
14:u-2:advertises,
10:u-2:having,
4:u0:f,
16:u0:logan-airport,
13:u-2:departure,
21:u0:pittsburgh-airport,
22:u-1:pittsburgh-airport,
22:u-2:pittsburgh-airport,
7:u0:town,
8:u0:kinds,
9:u-1:kinds,
9:u-2:kinds,
13:u-1:limousine,
42:u0:dallas-fort-worth-international-airport,
13:u-2:limousine,
43:u-1:dallas-fort-worth-international-airport,
43:u-2:dallas-fort-worth-international-airport,
8:u0:eight,
9:u0:within,
10:u-1:within,
23:u0:schedule-for-flights,
24:u-1:schedule-for-flights,
24:u-2:schedule-for-flights,
5:u0:s-,
12:u0:designate,
6:u-1:s-,
13:u-1:designate,
6:u-2:s-,
13:u-2:designate,
8:u0:takes,
9:u-1:takes,
8:u0:least,
9:u-2:takes,
9:u0:amount,
9:u-1:least,
10:u-1:amount,
9:u-2:least,
10:u-2:amount,
9:u0:planes,
10:u-1:planes,
10:u-2:planes,
10:u0:usa-air,
11:u-1:usa-air,
11:u-2:usa-air,
9:u0:prices,
10:u-1:prices,
10:u-2:prices,
10:u0:various,
12:u0:airplanes,
11:u-1:various,
13:u-1:airplanes,
11:u-2:various,
13:u-2:airplanes,
7:u0:uses,
6:u0:who,
7:u-1:who,
7:u-1:9am,
7:u-2:9am,
18:u0:time-of-arrival,
19:u-1:time-of-arrival,
19:u-2:time-of-arrival,
18:u0:departure-times,
19:u-1:departure-times,
19:u-2:departure-times,
6:u0:8pm,
20:u0:baltimore-airport,
12:u0:including,
13:u-1:including,
13:u-2:including,
8:u0:offer,
9:u-1:offer,
8:u-1:dc10,
9:u-2:offer,
8:u-2:dc10,
9:u0:eleven,
10:u-1:eleven,
10:u-2:eleven,
10:u0:any-day,
11:u-1:any-day,
11:u-2:any-day,
6:u0:352,
7:u-1:352,
7:u-2:352,
8:u0:price,
9:u-1:price,
9:u-2:price,
12:u0:operating,
13:u-1:operating,
10:u0:sundays,
13:u-2:operating,
11:u0:services,
12:u-1:services,
12:u-2:services,
15:u0:reservations,
16:u-1:reservations,
16:u-2:reservations,
7:u0:1765,
8:u-1:1765,
8:u-2:1765,
18:u0:flight-schedule,
19:u-1:flight-schedule,
19:u-2:flight-schedule,
6:u0:f28,
7:u-1:f28,
7:u-2:f28,
21:u0:air-taxi-operation,
22:u-1:air-taxi-operation,
37:u0:philadelphia-international-airport,
22:u-2:air-taxi-operation,
5:u0:pm,
6:u-1:pm,
6:u-2:pm,
10:u0:serving,
11:u-1:serving,
11:u-2:serving,
13:u-1:breakfast,
10:u-1:served,
13:u-2:breakfast,
10:u-2:served,
11:u0:anything,
12:u-1:anything,
12:u-2:anything,
6:u0:say,
7:u-1:say,
11:u0:mealtime,
7:u-2:say,
6:u0:run,
7:u-1:run,
7:u-2:run,
8:u0:seats,
9:u-1:seats,
9:u-2:seats,
9:u-2:other,
10:u0:earlier,
11:u-1:earlier,
7:u0:1017,
11:u-2:earlier,
8:u-1:1017,
8:u-2:1017,
6:u0:630,
15:u0:5-o'clock-pm,
15:u0:4-o'clock-pm,
8:u0:later,
9:u-1:later,
9:u-2:later,
15:u0:6-o'clock-pm,
7:u-1:6pm,
7:u-2:6pm,
11:u0:serviced,
12:u-1:serviced,
12:u-2:serviced,
6:u0:dfw,
7:u-1:dfw,
7:u-2:dfw,
9:u0:1133am,
10:u-1:1133am,
7:u0:43pm,
10:u-2:1133am,
11:u0:provided,
12:u-1:provided,
12:u-2:provided,
6:u-2:by,
11:u0:provides,
12:u-1:provides,
12:u-2:provides,
7:u0:both,
8:u-1:both,
8:u-2:both,
8:u0:meals,
9:u-1:meals,
9:u-2:meals,
11:u0:airplane,
12:u-1:airplane,
12:u-2:airplane,
12:u0:6-o'clock,
9:u0:sunday,
13:u-1:6-o'clock,
10:u-1:sunday,
13:u-2:6-o'clock,
7:u0:mean,
5:u-1:8,
5:u-2:8,
16:u-1:twenty-ninth,
16:u-2:twenty-ninth,
9:u-1:third,
9:u-2:third,
13:u0:american's,
14:u-1:american's,
14:u-2:american's,
6:u0:bwi,
7:u-1:bwi,
7:u-2:bwi,
8:u0:still,
9:u-1:still,
9:u-2:still,
8:u0:cover,
9:u-1:cover,
9:u-2:cover,
7:u0:less,
8:u-1:less,
14:u0:200-dollars,
8:u-2:less,
15:u-1:200-dollars,
6:u0:oak,
7:u-1:oak,
6:u0:atl,
7:u-2:oak,
10:u0:qx-fare,
11:u-1:qx-fare,
11:u-2:qx-fare,
15:u0:lowest-price,
16:u-1:lowest-price,
16:u-2:lowest-price,
5:u0:82,
6:u-1:82,
6:u-2:82,
6:u0:139,
10:u0:q-fares,
11:u-1:q-fares,
11:u-2:q-fares,
14:u0:124-dollars,
15:u-1:124-dollars,
15:u-2:124-dollars,
5:u0:ls,
8:u0:stand,
6:u-1:ls,
9:u-1:stand,
6:u-2:ls,
8:u0:level,
10:u0:carries,
11:u-1:carries,
11:u-2:carries,
13:u0:passengers,
7:u0:1505,
8:u-1:1505,
8:u-2:1505,
8:u0:serve,
8:u0:lunch,
9:u-1:serve,
12:u0:itinerary,
13:u-1:itinerary,
13:u-2:itinerary,
14:u-1:connecting,
14:u-2:connecting,
10:u0:departs,
11:u-1:departs,
11:u-2:departs,
8:u0:local,
9:u-1:local,
9:u0:either,
10:u-1:either,
10:u-2:either,
28:u0:dallas-fort-worth-airport,
29:u-1:dallas-fort-worth-airport,
29:u-2:dallas-fort-worth-airport,
7:u0:1940,
14:u-1:passengers,
14:u-2:passengers,
9:u0:boeing,
6:u0:737,
10:u-1:boeing,
7:u0:hold,
7:u-1:737,
10:u-2:boeing,
4:u0:6,
5:u-1:6,
5:u-2:6,
10:u0:qualify,
11:u-1:qualify,
11:u-2:qualify,
11:u0:describe,
12:u-1:describe,
12:u-2:describe,
6:u0:j31,
7:u-1:j31,
6:u0:733,
6:u0:72s,
6:u0:734,
6:u0:100,
14:u0:415-dollars,
6:u0:705,
7:u-1:705,
7:u-2:705,
5:u0:71,
6:u-1:71,
6:u-2:71,
11:u0:directly,
12:u-1:directly,
12:u-2:directly,
12:u0:scheduled,
13:u-1:scheduled,
11:u0:december,
13:u-2:scheduled,
12:u-1:december,
12:u0:turboprop,
13:u-1:turboprop,
13:u-2:turboprop,
10:u0:doesn't,
8:u0:catch,
9:u-1:catch,
9:u-2:catch,
21:u0:lufthansa-airlines,
22:u-1:lufthansa-airlines,
22:u-2:lufthansa-airlines,
12:u-2:saturday,
8:u0:logan,
9:u-1:logan,
9:u-2:logan,
12:u0:2-o'clock,
13:u-1:2-o'clock,
13:u-2:2-o'clock,
11:u0:distance,
12:u-1:distance,
12:u-2:distance,
11:u0:tuesdays,
12:u0:companies,
13:u-1:companies,
13:u-2:companies,
10:u-2:serves,
9:u0:people,
10:u-1:people,
10:u-2:people,
10:u0:carried,
11:u-1:carried,
11:u-2:carried,
11:u0:shortest,
12:u-1:shortest,
12:u-2:shortest,
10:u0:january,
11:u-1:january,
8:u0:cheap,
9:u-1:cheap,
9:u-2:cheap,
7:u0:back,
10:u0:reverse,
11:u-1:reverse,
11:u-2:reverse,
11:u0:airports,
12:u-1:airports,
12:u-2:airports,
13:u0:everywhere,
14:u-1:everywhere,
14:u-2:everywhere,
11:u0:day-time,
12:u-1:day-time,
12:u-2:day-time,
7:u0:10pm,
8:u-1:10pm,
8:u-2:10pm,
18:u0:midway-airlines,
19:u-1:midway-airlines,
19:u-2:midway-airlines,
9:u-2:tenth,
9:u0:twelve,
13:u0:capacities,
14:u-1:capacities,
14:u-2:capacities,
10:u0:largest,
11:u-1:largest,
11:u-2:largest,
11:u0:greatest,
12:u-1:greatest,
12:u-2:greatest,
6:u0:767,
9:u0:dinner,
8:u0:snack,
6:u0:3pm,
7:u-1:3pm,
7:u-2:3pm,
5:u0:12,
6:u-1:12,
4:u0:2,
6:u-2:12,
5:u-1:2,
5:u-2:2,
9:u-1:sixth,
9:u-2:sixth,
13:u0:car-rental,
14:u-1:car-rental,
14:u-2:car-rental,
7:u0:limo,
8:u-1:limo,
8:u-2:limo,
9:u0:coming,
9:u-1:ninth,
10:u-1:coming,
9:u-2:ninth,
8:u-1:back,
10:u-2:coming,
8:u-2:back,
6:u0:fit,
7:u-1:fit,
7:u-2:fit,
7:u-1:72s,
6:u0:d9s,
6:u0:73s,
7:u0:once,
8:u-1:once,
8:u-2:once,
12:u0:expensive,
13:u-1:expensive,
13:u-2:expensive,
9:u-1:eight,
6:u0:sfo,
10:u0:charges,
11:u-1:charges,
11:u-2:charges,
5:u0:no,
6:u-1:no,
6:u-2:no,
6:u0:4pm,
5:u0:so,
6:u-1:so,
6:u-2:so,
7:u0:here,
8:u-1:here,
7:u0:11am,
8:u-2:here,
15:u0:abbreviation,
5:u0:ua,
16:u-1:abbreviation,
6:u-1:ua,
16:u-2:abbreviation,
5:u0:co,
6:u-1:co,
6:u-1:dl,
10:u0:weekday,
4:u0:y,
5:u-1:y,
13:u0:1300-hours,
13:u0:1600-hours,
6:u0:7am,
13:u0:1700-hours,
14:u-1:1700-hours,
14:u-2:1700-hours,
8:u0:under,
14:u0:500-dollars,
9:u-1:under,
15:u-1:500-dollars,
9:u-2:under,
15:u-2:500-dollars,
11:u0:airfares,
12:u-1:airfares,
12:u-2:airfares,
10:u0:options,
11:u-1:options,
11:u-2:options,
9:u0:philly,
10:u0:arrival,
11:u-1:arrival,
11:u-2:arrival,
13:u-1:1-o'clock,
13:u-2:1-o'clock,
12:u0:regarding,
24:u0:san-francisco-airport,
13:u-1:regarding,
17:u-1:twenty-eighth,
10:u0:display,
11:u-1:display,
11:u-2:display,
9:u0:second,
8:u0:seven,
7:u0:12pm,
8:u-1:12pm,
8:u-2:12pm,
11:u0:economic,
12:u-1:economic,
5:u0:98,
5:u0:us,
6:u0:345,
6:u-1:us,
7:u-1:345,
6:u-2:us,
7:u-2:345,
7:u0:rent,
8:u-1:rent,
6:u0:car,
8:u-2:rent,
7:u-1:car,
34:u0:stapleton-international-airport,
7:u-2:car,
35:u-1:stapleton-international-airport,
35:u-2:stapleton-international-airport,
10:u-2:sunday,
7:u0:1083,
8:u-1:1083,
6:u-2:dl,
8:u-2:1083,
12:u0:saturdays,
6:u0:201,
7:u-1:201,
6:u-2:ua,
7:u-2:201,
6:u0:343,
7:u-1:343,
7:u-2:343,
6:u0:323,
7:u-1:323,
6:u0:229,
7:u-2:323,
7:u-1:229,
7:u-2:229,
8:u-1:week,
8:u-2:week,
10:u0:meaning,
11:u-1:meaning,
11:u-2:meaning,
6:u-1:qx,
5:u0:qw,
6:u-2:qx,
11:u-1:weekday,
11:u-2:weekday,
12:u-2:tomorrow,
8:u0:costs,
9:u-1:costs,
9:u-2:costs,
25:u0:the-day-after-tomorrow,
12:u0:transport,
13:u-1:transport,
6:u0:210,
14:u0:car-rentals,
15:u-1:car-rentals,
15:u-2:car-rentals,
13:u-1:saturdays,
13:u-2:saturdays,
6:u0:d-s,
7:u-1:d-s,
7:u-2:d-s,
9:u-2:stand,
6:u0:106,
7:u-1:106,
7:u-2:106,
10:u0:grounds,
11:u-1:grounds,
11:u-2:grounds,
6:u0:838,
7:u-1:838,
7:u-2:838,
14:u0:reservation,
15:u-1:reservation,
15:u-2:reservation,
13:u0:requesting,
14:u-1:requesting,
14:u-2:requesting,
11:u0:starting,
12:u-1:starting,
12:u-2:starting,
13:u0:afterwards,
6:u0:402,
7:u-1:402,
7:u-2:402,
6:u0:270,
7:u-1:270,
7:u-2:270,
6:u0:297,
7:u-1:297,
7:u-2:297,
6:u0:281,
7:u-1:281,
7:u-2:281,
12:u-1:tuesdays,
13:u0:wednesdays,
12:u-2:tuesdays,
12:u0:thursdays,
13:u0:fourteenth,
8:u0:ap-80,
9:u-1:ap-80,
15:u-2:restriction,
8:u0:ap-57,
7:u-1:4pm,
7:u-2:4pm,
7:u-1:8pm,
7:u-2:8pm,
15:u0:2-o'clock-pm,
15:u0:9-o'clock-am,
16:u-1:9-o'clock-am,
16:u-1:5-o'clock-pm,
26:u-1:the-day-after-tomorrow,
26:u-2:the-day-after-tomorrow,
15:u0:3-o'clock-pm,
16:u-1:3-o'clock-pm,
16:u-2:3-o'clock-pm,
15:u0:8-o'clock-pm,
15:u0:8-o'clock-am,
16:u-1:8-o'clock-am,
16:u-2:8-o'clock-am,
16:u-2:5-o'clock-pm,
9:u-2:serve,
14:u0:us-airlines,
15:u-1:us-airlines,
15:u-2:us-airlines,
16:u0:11-o'clock-am,
5:u-2:y,
13:u-2:transport,
4:u0:m,
5:u-1:m,
7:u0:ap68,
13:u0:continuing,
14:u-1:continuing,
14:u-2:continuing,
13:u0:limousines,
14:u-1:limousines,
7:u0:taxi,
14:u-2:limousines,
8:u-1:taxi,
8:u-2:taxi,
7:u0:1209,
8:u0:names,
9:u-1:names,
9:u-2:names,
14:u0:rental-cars,
6:u-1:qw,
6:u-2:qw,
7:u0:sd-d,
9:u0:listed,
10:u-1:listed,
7:u0:1055,
10:u-2:listed,
8:u-1:1055,
6:u0:405,
8:u-2:1055,
5:u0:ea,
6:u-1:ea,
6:u-2:ea,
7:u0:look,
8:u-1:look,
8:u-2:look,
9:u-1:today,
9:u-2:today,
10:u0:what're,
11:u-1:what're,
11:u-2:what're,
10:u-1:second,
10:u-2:second,
8:u-1:11am,
8:u-2:11am,
10:u-2:during,
13:u0:eighteenth,
9:u0:1045am,
6:u0:430,
7:u-1:430,
8:u0:530pm,
7:u-2:430,
9:u0:1145am,
8:u0:838am,
9:u-1:838am,
9:u-2:838am,
7:u-2:via,
9:u0:thanks,
10:u-1:thanks,
10:u-2:thanks,
7:u0:near,
8:u-1:near,
7:u-1:5pm,
8:u-2:near,
7:u-2:5pm,
8:u0:close,
9:u-1:close,
9:u-2:close,
7:u0:1110,
8:u-1:1110,
8:u-2:1110,
25:u-1:san-francisco-airport,
25:u-2:san-francisco-airport,
10:u0:fifteen,
8:u0:while,
9:u-1:while,
9:u-2:while,
9:u0:wanted,
10:u-1:wanted,
10:u-2:wanted,
13:u0:afternoons,
10:u0:maximum,
11:u-1:maximum,
11:u-2:maximum,
8:u0:spend,
9:u-1:spend,
9:u-2:spend,
10:u0:lastest,
11:u-1:lastest,
11:u-2:lastest,
10:u0:longest,
11:u-1:longest,
11:u-2:longest,
6:u0:but,
7:u-1:but,
7:u-2:but,
10:u-2:within,
7:u0:1059,
7:u0:over,
8:u-1:over,
8:u-2:over,
5:u0:21,
6:u0:852,
7:u-1:852,
7:u-2:852,
6:u0:928,
7:u-1:928,
7:u-2:928,
8:u0:start,
9:u-1:start,
9:u-2:start,
11:u0:bay-area,
8:u0:order,
7:u0:it's,
8:u-1:it's,
6:u0:445,
7:u-1:445,
8:u0:515pm,
7:u-2:445,
21:u0:washington-airport,
22:u-1:washington-airport,
22:u-2:washington-airport,
26:u0:maximum-number-of-stops,
9:u0:locate,
10:u-1:locate,
10:u-2:locate,
12:u0:hartfield,
10:u0:travels,
11:u-1:travels,
11:u-2:travels,
7:u0:late,
8:u-1:late,
8:u-2:late,
7:u0:zone,
8:u-1:zone,
8:u-2:zone,
14:u0:inexpensive,
15:u-1:inexpensive,
15:u-2:inexpensive,
12:u0:currently,
13:u-1:currently,
13:u-2:currently,
6:u0:530,
7:u0:must,
8:u-1:must,
8:u-2:must,
11:u0:midnight,
12:u-1:midnight,
12:u-2:midnight,
7:u0:land,
8:u-1:land,
8:u-2:land,
8:u0:place,
19:u-1:oakland-airport,
19:u-2:oakland-airport,
8:u0:730pm,
19:u0:transcontinental,
20:u-1:transcontinental,
20:u-2:transcontinental,
9:u0:across,
10:u-1:across,
12:u0:continent,
10:u-2:across,
13:u-1:continent,
13:u-2:continent,
8:u0:430pm,
9:u-1:430pm,
8:u0:630pm,
9:u-2:430pm,
7:u0:gets,
8:u-1:gets,
8:u-2:gets,
8:u0:month,
9:u-1:month,
9:u-2:month,
12:u-2:december,
11:u0:connects,
12:u-1:connects,
12:u-2:connects,
15:u0:7-o'clock-pm,
11:u0:vicinity,
12:u-1:vicinity,
12:u-2:vicinity,
9:u0:begins,
10:u-1:begins,
10:u-2:begins,
8:u0:lands,
9:u-1:lands,
9:u-2:lands,
8:u0:don't,
9:u-1:don't,
9:u-2:don't,
12:u0:stopovers,
13:u-1:stopovers,
13:u-2:stopovers,
17:u0:city-in-dallas,
6:u0:757,
7:u-1:757,
7:u-2:757,
7:u0:1992,
11:u-2:january,
8:u-1:1992,
8:u-2:1992,
11:u-2:october,
16:u-1:8-o'clock-pm,
16:u0:10-o'clock-pm,
16:u-2:8-o'clock-pm,
9:u0:define,
10:u-1:define,
10:u-2:define,
5:u0:fn,
8:u0:ap-55,
12:u0:sixteenth,
7:u-1:atl,
7:u-2:atl,
10:u0:listing,
11:u-1:listing,
11:u-2:listing,
7:u0:2100,
12:u0:4-o'clock,
13:u-1:4-o'clock,
13:u-2:4-o'clock,
16:u0:twenty-fourth,
6:u0:746,
7:u-1:746,
5:u0:hi,
6:u-1:hi,
6:u-2:hi,
4:u0:q,
12:u0:overnight,
13:u-1:overnight,
13:u-2:overnight,
10:u0:without,
11:u-1:without,
11:u-2:without,
16:u-1:pennsylvania,
16:u-2:pennsylvania,
14:u-1:wednesdays,
14:u-2:wednesdays,
7:u0:1291,
8:u-1:1291,
8:u-2:1291,
6:u0:271,
7:u-1:271,
7:u-2:271,
7:u0:sort,
8:u-1:sort,
8:u-2:sort,
16:u-1:6-o'clock-pm,
16:u-2:6-o'clock-pm,
15:u0:7-o'clock-am,
16:u-1:7-o'clock-am,
16:u-2:7-o'clock-am,
15:u0:5-o'clock-am,
16:u-1:5-o'clock-am,
16:u-2:5-o'clock-am,
7:u-1:7am,
7:u-2:7am,
15:u0:1500-dollars,
16:u-1:1500-dollars,
15:u0:1100-dollars,
5:u0:up,
6:u-1:up,
6:u-2:up,
10:u0:mondays,
16:u0:only-weekdays,
17:u-1:only-weekdays,
17:u-2:only-weekdays,
5:u0:ap,
6:u-1:ap,
7:u0:area,
9:u0:proper,
9:u-1:ap-57,
5:u-1:f,
5:u-2:f,
6:u-1:fn,
15:u-1:rental-cars,
15:u-2:rental-cars,
12:u-1:eleventh,
12:u-2:eleventh,
11:u-1:twelfth,
9:u0:priced,
10:u-1:priced,
10:u-2:priced,
6:u0:212,
7:u-1:212,
7:u-2:212,
11:u0:anywhere,
12:u-1:anywhere,
7:u0:1850,
12:u-2:anywhere,
8:u-1:1850,
8:u-2:1850,
7:u0:1700,
8:u-1:1700,
8:u-2:1700,
6:u0:217,
7:u-1:217,
7:u-2:217,
14:u0:300-dollars,
14:u0:400-dollars,
15:u-1:400-dollars,
15:u-2:400-dollars,
7:u0:3357,
8:u-1:3357,
8:u-2:3357,
7:u-1:sfo,
7:u-2:sfo,
9:u0:summer,
6:u0:non,
7:u-1:non,
7:u-2:non,
6:u-2:fn,
11:u0:mornings,
6:u-1:yn,
13:u-1:sixteenth,
13:u-2:sixteenth,
15:u0:1000-dollars,
7:u0:0900,
7:u0:3724,
8:u-1:3724,
8:u-2:3724,
6:u0:771,
7:u-1:771,
7:u-2:771,
19:u0:flight-schedules,
20:u-1:flight-schedules,
20:u-2:flight-schedules,
10:u0:include,
11:u-1:include,
8:u-1:ap57,
16:u-1:1000-dollars,
16:u-2:1000-dollars,
12:u-1:mornings,
12:u-2:mornings,
10:u0:whether,
11:u-1:whether,
11:u-2:include,
11:u-2:whether,
10:u0:offered,
11:u-1:offered,
11:u-2:offered,
14:u0:round-trips,
15:u-1:round-trips,
15:u-2:round-trips,
10:u0:toronto,
11:u-1:toronto,
11:u-2:toronto,
5:u0:ac,
6:u-1:ac,
6:u-2:ac,
11:u0:new-york,
12:u-1:new-york,
12:u-2:new-york,
16:u0:new-york-city,
12:u0:milwaukee,
13:u-1:milwaukee,
10:u0:orlando,
13:u-2:milwaukee,
11:u-1:orlando,
11:u-2:orlando,
10:u0:ontario,
11:u-1:ontario,
9:u0:tacoma,
11:u-2:ontario,
10:u-1:tacoma,
10:u-2:tacoma,
14:u0:minneapolis,
15:u-1:minneapolis,
12:u0:san-diego,
15:u-2:minneapolis,
13:u-1:san-diego,
13:u-2:san-diego,
17:u0:salt-lake-city,
18:u-1:salt-lake-city,
13:u0:cincinnati,
18:u-2:salt-lake-city,
14:u-1:cincinnati,
14:u-2:cincinnati,
8:u0:miami,
9:u-1:miami,
9:u-2:miami,
21:u0:southwest-airlines,
22:u-1:southwest-airlines,
22:u-2:southwest-airlines,
10:u0:phoenix,
11:u-1:phoenix,
11:u-2:phoenix,
13:u0:la-guardia,
14:u-1:la-guardia,
9:u0:dulles,
10:u-1:dulles,
10:u-2:dulles,
14:u0:los-angeles,
12:u0:las-vegas,
8:u0:equal,
9:u-1:equal,
14:u0:466-dollars,
9:u-2:equal,
15:u-1:466-dollars,
15:u-2:466-dollars,
14:u0:932-dollars,
8:u0:along,
9:u-1:along,
9:u-2:along,
15:u0:indianapolis,
16:u-1:indianapolis,
10:u0:memphis,
16:u-2:indianapolis,
10:u0:burbank,
11:u-1:burbank,
11:u-2:burbank,
17:u0:st.-petersburg,
18:u-1:st.-petersburg,
18:u-2:st.-petersburg,
16:u0:abbreviations,
11:u0:san-jose,
12:u-1:san-jose,
12:u-2:san-jose,
25:u0:salt-lake-city-airport,
26:u-1:salt-lake-city-airport,
26:u-2:salt-lake-city-airport,
8:u0:tampa,
9:u-1:tampa,
12:u0:st.-louis,
9:u-2:tampa,
13:u-1:st.-louis,
13:u-2:st.-louis,
10:u0:houston,
11:u-1:houston,
11:u-2:houston,
10:u0:symbols,
11:u-1:symbols,
11:u-2:symbols,
6:u-2:yn,
5:u0:hp,
18:u0:orlando-airport,
19:u-1:orlando-airport,
19:u-2:orlando-airport,
24:u0:orlando-international,
25:u-1:orlando-international,
25:u-2:orlando-international,
6:u0:417,
7:u-1:417,
7:u-2:417,
8:u0:718am,
15:u-1:los-angeles,
15:u-2:los-angeles,
26:u0:minimum-connection-time,
27:u-1:minimum-connection-time,
27:u0:houston-intercontinental,
27:u-2:minimum-connection-time,
7:u0:4400,
8:u-1:4400,
8:u-2:4400,
7:u0:1026,
9:u0:o'hare,
10:u-1:o'hare,
10:u-2:o'hare,
9:u-1:718am,
10:u0:chicago,
11:u-1:chicago,
11:u-2:chicago,
11:u0:montreal,
12:u-1:montreal,
12:u-2:montreal,
14:u0:150-dollars,
11:u0:columbus,
12:u-1:columbus,
12:u-2:columbus,
11:u0:st.-paul,
9:u0:newark,
10:u-1:newark,
12:u0:cleveland,
10:u-2:newark,
13:u-1:cleveland,
13:u-2:cleveland,
13:u0:new-jersey,
14:u-1:new-jersey,
14:u-2:new-jersey,
6:u0:jfk,
7:u-1:jfk,
7:u-2:jfk,
14:u-2:la-guardia,
12:u0:nashville,
13:u-1:nashville,
13:u-2:nashville,
11:u0:weekdays,
21:u0:westchester-county,
22:u-1:westchester-county,
22:u-2:westchester-county,
13:u-1:las-vegas,
13:u-2:las-vegas,
5:u0:ff,
12:u0:tower-air,
13:u-1:tower-air,
13:u-2:tower-air,
13:u0:long-beach,
14:u-1:long-beach,
14:u-2:long-beach,
7:u0:ohio,
5:u0:sa,
10:u0:seattle,
11:u-1:seattle,
11:u-2:seattle,
7:u0:1993,
5:u0:nw,
8:u0:bring,
9:u-1:bring,
9:u-2:bring,
6:u0:mco,
10:u0:calling,
11:u-1:calling,
11:u-2:calling,
5:u0:la,
7:u-1:mco,
7:u-2:mco,
11:u-1:memphis,
11:u-2:memphis,
7:u0:i've,
6:u0:got,
8:u-1:i've,
11:u0:somebody,
7:u-1:got,
8:u-2:i've,
7:u0:else,
12:u-1:somebody,
7:u-2:got,
8:u-1:else,
12:u-2:somebody,
8:u0:wants,
8:u-2:else,
9:u-1:wants,
7:u-2:who,
9:u-2:wants,
12:u0:charlotte,
13:u-1:charlotte,
13:u-2:charlotte,
14:u0:kansas-city,
5:u-1:q,
13:u0:difference,
14:u-1:difference,
14:u-2:difference,
5:u-2:q,
12:u0:tennessee,
13:u-1:tennessee,
13:u-2:tennessee,
17:u0:north-carolina,
5:u0:qo,
6:u-1:qo,
6:u-1:ff,
6:u0:ewr,
7:u-1:ewr,
6:u0:bur,
8:u0:train,
9:u-1:train,
9:u-2:train,
9:u0:laying,
10:u-1:laying,
10:u-2:laying,
13:u0:air-canada,
14:u-1:air-canada,
14:u-2:air-canada,
12:u0:minnesota,
9:u0:stands,
10:u-1:stands,
10:u-2:stands,
15:u-1:kansas-city,
15:u-2:kansas-city,
10:u0:florida,
11:u-1:florida,
11:u-2:florida,
10:u0:landing,
11:u-1:landing,
11:u-2:landing,
7:u0:soon,
8:u-1:soon,
8:u-2:soon,
6:u0:ten,
7:u-1:ten,
7:u-2:ten,
18:u0:during-the-week,
19:u0:during-week-days,
20:u0:san-diego-airport,
21:u-1:san-diego-airport,
21:u-2:san-diego-airport,
10:u0:instead,
11:u-1:instead,
11:u-2:instead,
33:u0:as-soon-thereafter-as-possible,
6:u-1:nw,
6:u-2:nw,
18:u0:phoenix-airport,
19:u-1:phoenix-airport,
19:u-2:phoenix-airport,
14:u0:meal-code-s,
8:u-1:uses,
8:u-2:uses,
6:u0:lax,
7:u-1:lax,
7:u-2:lax,
11:u-1:numbers,
11:u-2:numbers,
8:u-1:ohio,
8:u-2:ohio,
13:u-1:minnesota,
13:u-2:minnesota,
17:u-1:new-york-city,
17:u-2:new-york-city,
9:u0:canada,
10:u-1:canada,
10:u-2:canada,
11:u0:listings,
12:u-1:listings,
12:u-2:listings,
11:u0:missouri,
12:u-1:missouri,
12:u-2:missouri,
7:u0:utah,
8:u-1:utah,
8:u-2:utah,
7:u0:1222,
8:u-1:1222,
8:u-2:1222,
13:u0:preferably,
14:u-1:preferably,
14:u-2:preferably,
9:u0:497766,
10:u-1:497766,
10:u-2:497766,
8:u0:810pm,
9:u-1:810pm,
9:u-2:810pm,
18:u-1:north-carolina,
18:u-2:north-carolina,
7:u0:runs,
8:u-1:runs,
8:u-2:runs,
6:u0:505,
7:u-1:505,
7:u-2:505,
9:u0:that's,
10:u-1:dinner,
10:u-1:that's,
10:u-2:dinner,
10:u-2:that's,
6:u0:163,
13:u0:thirteenth,
10:u-1:eighth,
10:u-2:eighth,
11:u0:includes,
12:u-1:includes,
12:u-2:includes,
18:u0:alaska-airlines,
19:u-1:alaska-airlines,
19:u-2:alaska-airlines,
9:u0:nevada,
10:u-1:nevada,
10:u-2:nevada,
10:u0:detroit,
11:u0:michigan,
11:u-1:detroit,
12:u-1:michigan,
11:u-2:detroit,
12:u-2:michigan,
11:u0:actually,
12:u-1:actually,
12:u-2:actually,
14:u0:westchester,
15:u-1:westchester,
15:u-2:westchester,
8:u0:thing,
9:u-1:thing,
9:u-2:thing,
6:u0:130,
7:u-1:130,
7:u-2:130,
11:u-2:another,
20:u0:milwaukee-airport,
21:u-1:milwaukee-airport,
21:u-2:milwaukee-airport,
20:u0:the-following-day,
13:u0:twenty-six,
9:u0:prefer,
10:u-1:prefer,
10:u-2:prefer,
9:u0:quebec,
10:u-1:quebec,
10:u-2:quebec,
10:u0:indiana,
11:u-1:indiana,
11:u-2:indiana,
11:u0:reaching,
12:u-1:reaching,
12:u-2:reaching,
10:u0:reaches,
11:u-1:reaches,
11:u-2:reaches,
4:u0:7,
5:u-1:7,
5:u-2:7,
12:u0:following,
13:u-1:following,
13:u-2:following,
8:u0:route,
15:u-1:seventeenth,
15:u-2:seventeenth,
14:u-1:fourteenth,
14:u-2:fourteenth,
14:u-1:thirteenth,
14:u-2:thirteenth,
7:u0:date,
8:u-1:date,
8:u-2:date,
12:u0:hopefully,
13:u-1:hopefully,
13:u-2:hopefully,
7:u0:home,
21:u0:northwest-airlines,
22:u-1:northwest-airlines,
22:u-2:northwest-airlines,
7:u0:days,
8:u-1:days,
8:u-2:days,
6:u0:415,
7:u-1:415,
7:u-2:415,
10:u0:arizona,
11:u-1:arizona,
11:u-2:arizona,
12:u-1:st.-paul,
12:u-2:st.-paul,
12:u0:northwest,
13:u-1:northwest,
13:u-2:northwest,
24:u0:ontario-international,
25:u-1:ontario-international,
25:u-2:ontario-international,
10:u0:friends,
11:u-1:friends,
11:u-2:friends,
18:u0:toronto-airport,
16:u-2:twenty-sixth,
21:u0:la-guardia-airport,
22:u-1:la-guardia-airport,
22:u-2:la-guardia-airport,
6:u-1:la,
6:u-2:la,
9:u0:single,
10:u-1:single,
10:u-2:single,
14:u-1:eighteenth,
14:u-2:eighteenth,
10:u0:red-eye,
11:u-1:red-eye,
11:u-2:red-eye,
11:u-2:twelfth,
13:u0:twenty-two,
15:u0:america-west,
16:u-1:america-west,
12:u0:southwest,
16:u-2:america-west,
13:u-1:southwest,
13:u-2:southwest,
14:u-1:twenty-two,
14:u-2:twenty-two,
6:u0:six,
7:u-1:six,
7:u-2:six,
12:u0:salt-lake,
10:u0:tonight,
11:u-1:tonight,
11:u-2:tonight,
8:u0:visit,
9:u-1:visit,
9:u-2:visit,
7:u0:them,
8:u0:lives,
8:u-1:them,
9:u-1:lives,
8:u-2:them,
9:u-2:lives,
7:u-1:530,
7:u-2:530,
25:u0:st.-petersburg-airport,
6:u0:539,
22:u0:trans-world-airline,
23:u-1:trans-world-airline,
23:u-2:trans-world-airline,
9:u0:1030am,
10:u-1:1030am,
9:u0:1130am,
10:u-2:1030am,
9:u0:1115am,
10:u-1:1115am,
9:u0:1245pm,
10:u-2:1115am,
4:u0:9,
5:u-1:9,
5:u-2:9,
19:u0:at-the-same-time,
13:u0:new-york's,
14:u-1:new-york's,
32:u0:toronto-international-airport,
33:u-1:toronto-international-airport,
33:u-2:toronto-international-airport,
36:u0:los-angeles-international-airport,
37:u-1:los-angeles-international-airport,
37:u-2:los-angeles-international-airport,
38:u0:san-francisco-international-airport,
39:u-1:san-francisco-international-airport,
39:u-2:san-francisco-international-airport,
10:u0:closest,
11:u-1:closest,
11:u-2:closest,
5:u0:19,
6:u-1:19,
6:u-2:19,
6:u0:845,
7:u-1:845,
7:u-2:845,
8:u0:230pm,
9:u-1:lunch,
9:u0:supper,
10:u-1:supper,
6:u0:823,
7:u-1:823,
7:u-2:823,
7:u0:1024,
8:u-1:1024,
8:u-2:1024,
7:u0:1205,
8:u-1:1205,
8:u-2:1205,
6:u0:305,
7:u-1:305,
7:u-2:305,
8:u0:723pm,
9:u0:1020pm,
9:u0:nights,
10:u0:fridays,
9:u0:1230pm,
8:u0:934pm,
7:u0:2134,
9:u0:taking,
10:u-1:taking,
10:u-2:taking,
6:u0:311,
7:u-2:ewr,
15:u0:9-o'clock-pm,
16:u-1:9-o'clock-pm,
16:u-2:9-o'clock-pm,
11:u0:nonstops,
12:u-1:nonstops,
12:u-2:nonstops,
8:u0:vegas,
9:u-1:vegas,
9:u-2:vegas,
4:u0:h,
13:u0:1200-hours,
11:u0:sunday's,
12:u-1:sunday's,
12:u-2:sunday's,
14:u0:wednesday's,
15:u-1:wednesday's,
15:u-2:wednesday's,
11:u0:friday's,
12:u-1:friday's,
12:u-2:friday's,
17:u-2:twenty-eighth,
19:u-1:12-o'clock-noon,
19:u-2:12-o'clock-noon,
6:u0:mia,
6:u0:bna,
6:u0:ord,
7:u-1:ord,
7:u0:11pm,
11:u0:february,
12:u-1:february,
22:u0:continental-airline,
8:u0:march,
9:u-1:march,
12:u-2:february,
9:u-2:march,
13:u0:love-field,
20:u0:northwest-airline,
21:u-1:northwest-airline,
21:u-2:northwest-airline,
6:u0:iah,
7:u-1:iah,
6:u0:hou,
7:u-1:hou,
14:u-1:love-field,
14:u-2:love-field,
34:u0:canadian-airlines-international,
5:u0:cp,
6:u-1:cp,
20:u0:canadian-airlines,
21:u-1:canadian-airlines,
10:u0:choices,
11:u-1:choices,
11:u-2:choices,
9:u-2:718am,
13:u0:dinnertime,
14:u-1:dinnertime,
7:u0:1288,
6:u0:d10,
11:u0:takeoffs,
12:u-1:takeoffs,
11:u0:landings,
12:u-2:takeoffs,
12:u-1:landings,
33:u0:general-mitchell-international,
12:u-2:landings,
41:u0:general-mitchell-international-airport,
6:u0:off,
7:u-1:off,
7:u-2:off,
10:u0:takeoff,
11:u-1:takeoff,
11:u-2:takeoff,
27:u0:general-mitchell-airport,
34:u-1:general-mitchell-international,
34:u-2:general-mitchell-international,
10:u0:located,
19:u0:general-mitchell,
13:u0:lunch-time,
9:u-2:lunch,
12:u0:nationair,
13:u-1:nationair,
13:u-2:nationair,
6:u0:yyz,
25:u0:lester-pearson-airport,
21:u-2:canadian-airlines,
35:u-1:canadian-airlines-international,
35:u-2:canadian-airlines-international,
10:u0:midwest,
10:u0:express,
11:u-1:midwest,
11:u-1:express,
11:u-2:midwest,
11:u-2:express,
8:u0:720am,
10:u0:highest,
11:u-1:highest,
11:u-2:highest,
0=0x1.21b8ca2a663b8p+2
81=0x1.232ee06975b56p+1
82=0x1.95119cd5ffe6ap-4
83=0x1.955741a124361p-1
85=-0x1.4c762dff02da9p-1
86=0x1.7bbe71dc85d0fp-1
87=0x1.7a48d0afb3708p-1
89=0x1.b34ef7533252ap-2
90=0x1.291e2e5719cfcp-6
92=0x1.cec75585207a8p-5
93=0x1.7cf529da1143ap-1
97=0x1.dba7da9806936p+0
109=0x1.b503877618d99p-3
112=0x1.03bb79091259ap-1
114=-0x1.43def0d2b431cp-6
130=0x1.146a2ff4d8669p-4
162=0x1.232ee06975b56p+1
163=0x1.95119cd5ffe6ap-4
164=0x1.955741a124361p-1
166=-0x1.4c762dff02da9p-1
167=0x1.7bbe71dc85d0fp-1
168=0x1.7a48d0afb3708p-1
170=0x1.b34ef7533252ap-2
171=0x1.291e2e5719cfcp-6
173=0x1.cec75585207a8p-5
174=0x1.7cf529da1143ap-1
178=0x1.dba7da9806936p+0
190=0x1.b503877618d99p-3
193=0x1.03bb79091259ap-1
195=-0x1.43def0d2b431cp-6
211=0x1.146a2ff4d8669p-4
243=0x1.0b1e1d25e3f84p+2
244=0x1.178157ad8690ap+0
245=0x1.cb51fc69297acp+0
246=0x1.6f61bdb0f9cbcp-6
247=0x1.3bf2d1cd53d38p+1
248=0x1.ce7a2e383419p+0
249=0x1.d47cb73d87dc3p+0
250=0x1.0edae54e29155p+0
251=0x1.443fec252f338p+1
252=0x1.03aa83cc9472fp+0
253=0x1.df234ee30ce83p+0
254=0x1.fc02c2f5ca53bp+0
255=0x1.13840193a6b25p+1
256=0x1.460823af36333p+1
257=-0x1.d3e0640eaa7c7p-1
258=0x1.056075338d116p+1
259=0x1.7182fe0042cc9p+1
260=0x1.fddc83c603865p-1
261=0x1.58cf3f2b4ca85p+0
262=0x1.4769a2b64b206p+0
263=0x1.77e3d021b6c43p+0
264=0x1.9384abdc8331ap-3
265=0x1.ca22298ba7ff4p+0
266=0x1.14fa0084c7d6p+1
268=0x1.235ab31fc919cp+1
269=-0x1.a9cd314e9ce6p-5
270=0x1.e04825b7d1edbp+0
271=0x1.79d1c9a4c3a8dp+0
272=0x1.01097711ab34cp+0
274=0x1.533f82416271ap+0
275=0x1.520604f87ac9bp+1
276=0x1.292d762eb903p-2
278=0x1.e83982f4021ecp-1
280=0x1.68716f4bea3cp-5
281=0x1.9df694687e652p+0
282=0x1.e03370381e2fp-1
284=0x1.7841c0e227b3fp+0
285=0x1.b4b6dd41aae1p+0
286=0x1.d8feb4e4d0349p+0
288=0x1.c32a524cbb513p-2
289=0x1.610116f4c5bcp-1
291=0x1.510e882596358p+0
292=0x1.50cf3e82daaap+0
293=0x1.b4594cc5487ffp-6
294=0x1.3e90b791a4c6bp+0
295=0x1.2377edf5e69p+0
296=0x1.1eefa89220acap+1
297=-0x1.4bb05dadda12ap-2
298=0x1.53211e7248545p+0
300=0x1.00c4061951945p+0
301=0x1.741f535e5bd43p-2
302=0x1.f94aa8d75b608p-1
303=0x1.a8cf50dc72492p-3
304=0x1.41dbe14ca1be3p+0
305=0x1.2bce80e231381p+0
306=0x1.ad9357ad518a6p-2
308=0x1.167d97f525b1fp-3
309=0x1.59f3ac368584bp-1
310=0x1.293270f349ce8p-3
312=0x1.f54e49391c523p-1
314=0x1.cd21644caab81p+0
315=0x1.e80ca53cbb7bp-3
316=0x1.2227967963205p-2
322=0x1.01eba9b47f67p-7
324=0x1.1cbde5a6cc01fp+1
344=0x1.78c3532d11dap+0
352=0x1.2d1799c5ddad2p-7
362=0x1.15d7eb3675d05p+2
405=0x1.ac7fd257f2fep+1
407=0x1.8d8af05c9c3d3p-1
408=0x1.62e0ae8f57bc3p+1
409=-0x1.4bdd78e95361bp-1
415=0x1.cc0e89e81b6c1p-1
419=0x1.d7b7ceb28ec0dp+1
423=0x1.dc19d647d85abp+0
426=0x1.238fa9d97c096p-6
427=0x1.28c069a9dfc34p-6
444=-0x1.ff8dded0642fdp-5
447=-0x1.79d9e4ec66615p-6
456=0x1.71e90a33db044p-2
460=0x1.3c0cbd0706e71p-1
461=0x1.d7db1a5751254p-1
469=-0x1.edaabb3abbab4p+0
486=0x1.675889bc19b96p+0
488=0x1.4fb57d25ca8adp-3
490=-0x1.1dc1c66338bfbp-3
567=0x1.b519052ef949cp+0
568=0x1.af4381690b858p-7
569=-0x1.ed7189e6e2de3p-1
570=-0x1.f75afbaacfbbdp+0
571=0x1.d98445acdb156p-3
572=0x1.69bd3066a3e2ep-1
574=-0x1.483ca68be4edep-1
577=0x1.e20a96e73c12bp-5
579=0x1.41aa1a0398237p+0
581=-0x1.ba19fd01221f4p-3
586=-0x1.6e5c637962d39p-6
588=0x1.78bfc05695263p-2
589=-0x1.410f6575a6075p-3
593=0x1.968c0beee305fp+1
594=0x1.4dda0bdf1a0cap-1
595=0x1.13ced35bff2bdp-2
600=-0x1.74e8aecf89aecp-8
609=0x1.7d9311e5989abp+1
615=-0x1.93fa51021aaaap-4
618=0x1.b6c95b77c2615p-2
621=0x1.67afc0ba26d69p-4
622=0x1.56ce6a2e961cdp+0
623=-0x1.4c45715394dbcp-2
630=0x1.18274c3f82a68p-2
631=0x1.da90bedc9ced8p+0
644=0x1.3b99aafd8ead5p-2
648=0x1.0704e49e4f2ccp+1
650=0x1.58905b258320bp-1
653=0x1.490ad6e915ccfp-2
654=0x1.8ea80911b301p+1
655=0x1.9389ec660618cp-1
658=0x1.5a48c6fd59e55p+0
666=0x1.f58f0d8ae8f5dp+0
678=-0x1.17b5eface6206p+0
683=-0x1.023a08027c7eep+0
687=-0x1.9f7731f493309p+0
690=-0x1.34518c6010f39p+1
703=-0x1.f652e4c87842ep-2
704=0x1.a33bef0205fdp-1
729=0x1.035e10085324ep+1
738=0x1.81b78eaca5115p+0
739=0x1.3164a149bf084p-1
740=0x1.97ff68af9f373p-1
741=0x1.bf1d1bfa3ec55p-3
765=-0x1.c291534aa3268p-7
771=-0x1.c0e5b7f66667p-5
780=0x1.cc4dc842c148dp-3
785=0x1.0d300ebe259bcp+0
810=0x1.4c09f684c5e15p+1
815=0x1.05e52044dba37p+2
865=-0x1.217b02fe8c342p-4
881=-0x1.07e5a073edb58p+0
891=0x1.45243992e66a4p+1
895=0x1.8f8fa681c7f65p-2
897=0x1.238f621fee9b5p-8
900=0x1.9136f02faef9bp-1
903=0x1.2791353d522fcp-4
920=0x1.b3888e7a0a451p+1
940=0x1.030e615145c48p-3
972=0x1.30d931fb2d6f2p+1
982=0x1.450cf8ed6388bp-3
1053=0x1.a8f0f61870527p+0
1059=0x1.e6aa205d5b08bp+1
1064=0x1.a7c7c77080bb6p+2
1134=0x1.263d5caa8f21ap+1
1139=0x1.d4b18df743f53p-2
1141=0x1.e7dc95e2f3891p-2
1184=0x1.ca83833766fd6p-1
1188=-0x1.c438e809e7f93p-6
1215=0x1.f6430bb490a5dp+0
1217=0x1.a7a4964423694p-6
1221=0x1.08d4cc9f7f83ap-1
1235=-0x1.8cedde1756ecep-9
1248=0x1.92e7dcebaf0c2p-1
1296=0x1.62d8d20ec9361p+0
1325=0x1.3927526b4fd9ep+2
1377=0x1.2b7335843e82fp+1
1458=0x1.c93922d2a4b3dp-1
1460=-0x1.9a004cee20a9cp-7
1468=0x1.4767d34a0949p+0
1473=0x1.f944b188318ebp-1
1500=-0x1.2d3ac0a5c1c0cp+1
1522=-0x1.d7df9523e1a65p-3
1528=0x1.80ad327b957cfp+1
1539=0x1.66955339bd1b9p-2
1541=-0x1.61adeeb6d1cfap-3
1542=-0x1.2f0fef7bb4b8ap-1
1549=-0x1.4656e10da782ap-2
1563=0x1.9c8db6286d0d4p+1
1570=0x1.8db8cddb94782p+0
1583=0x1.5aef923819133p+1
1590=-0x1.cb5de6fbbece5p-3
1603=-0x1.722cfa9208ecep+0
1606=0x1.6886a29808f6cp+0
1620=0x1.3364636de5e03p+0
1622=0x1.e173c4fcb9611p-6
1625=-0x1.a3f05af13030ap-6
1631=0x1.afab547c3fc8ep-6
1654=0x1.976c402239f1bp+1
1676=0x1.dce6d3d2fb58fp-2
1701=0x1.a0396d3c50528p-6
1718=0x1.c4f337c483f73p+2
1729=0x1.07f4241f740fp+0
1782=0x1.2296182a94424p+1
1863=0x1.81d9e43318fadp+0
1865=0x1.1ed3c7578f08dp+0
1944=0x1.5342a0e91ad7cp+0
1949=0x1.909f55b4445bcp+0
1950=0x1.d58af6969b0cp+0
1995=0x1.8ef0fbf4a878p-2
2025=0x1.85513d17d0d7ap+0
2106=0x1.45edee0897a16p+0
2112=-0x1.21bf9bffad184p-1
2136=0x1.54749e0294288p+0
2268=0x1.9f934bfe748b1p-1
2349=0x1.6d9472ae591acp+0
2356=0x1.a3c995eb3c66cp-3
2388=0x1.53ee16f5ca857p-1
2430=0x1.93633f9133bf2p+0
2435=-0x1.4052a717f6c9p-2
2437=-0x1.0f60511164b9fp+0
2481=-0x1.3e72bcf78d8d8p+0
2484=0x1.db18974a250acp+1
2485=0x1.cb0d267c33a09p+1
2498=0x1.a045aa089d7edp+1
2511=0x1.30262ac2c7421p+1
2556=0x1.45667374fa38cp-4
2592=0x1.e9106c5dbc51fp+0
2594=0x1.3bee6d37be585p-3
2648=0x1.e0c0b541b3b5dp-1
2673=0x1.ba283da2e2c96p+0
2724=-0x1.14c29c625febcp-9
2754=0x1.3fba2968a1b8p+1
2810=0x1.e2c74251e07eep-1
2835=0x1.a83a209599b18p-4
2916=0x1.2490b09361beep+1
2962=0x1.6d8333f71f5bp+0
2987=0x1.1fcd6694943f5p+0
2994=0x1.389bdf9783517p+0
2997=0x1.54ad3f9b13602p+0
3078=0x1.81aed8df494a7p-1
3114=0x1.04b789e932c0ep+2
3196=0x1.03800737633ap+1
3240=0x1.793d3668e317p-1
3321=0x1.db31ac84ec567p-1
3442=0x1.f9f495fa967b7p+2
3483=0x1.721b98b104b56p-2
3493=-0x1.cc206897ba80dp-11
3525=0x1.14879ecdbb26p-2
3564=0x1.d5a50a36db19fp-1
3645=0x1.2565aed990979p+0
3672=0x1.9c077d3e7c3a4p+2
3675=0x1.6a416ee326d16p+1
3688=0x1.8d67b2563d7c1p-1
3726=0x1.2814e42465a4cp+0
3807=-0x1.4b5420f5a30d7p-2
3888=0x1.53787b410fc07p+0
4016=0x1.af6d61aa3aeefp+2
4050=-0x1.3d1326ff8e1edp-4
4131=0x1.b8e3527c21f0ap-1
4138=0x1.d774f54456f42p+0
4154=0x1.1a46409fb1de7p+0
4212=0x1.38adeb5ca4bb9p+1
4220=0x1.d351c75f6fb92p+1
4240=0x1.d07e79999361fp-2
4293=0x1.cf42c25a1d797p-4
4374=0x1.265dd29404d07p+0
4380=0x1.964dd444c66cp+1
4384=0x1.4bdf87fb290c9p-2
4395=0x1.e9e2413e3092p-8
4455=0x1.064abbd5edb3ap+0
4536=0x1.7e5e97b631b57p+0
4672=0x1.4ce84e6a4ee5p+2
4698=0x1.b03199b11162p-1
4704=-0x1.93a0ec2595897p-2
4708=-0x1.1ff5864f33238p-2
4716=-0x1.2982a6d0845f9p-4
4726=-0x1.ced466f5e7a1cp-8
4728=0x1.4f6565c65e459p+2
4737=0x1.95e1cf3dce1f4p+1
4740=0x1.85aa9de7df3ebp+1
4780=-0x1.8955a6811a088p-3
4781=0x1.7fb78530aaf6p+0
4784=0x1.c69634660483p-1
4785=0x1.31be76ffad504p-1
4787=0x1.659134e232881p-2
4808=0x1.d6f632796eb48p-2
4810=0x1.5871e876d228fp-3
4821=0x1.6192db16082c3p-1
4860=0x1.098e666a9a0b7p+0
4941=0x1.5581f6ca3b3afp+0
5103=0x1.124b931e82587p+1
5184=0x1.13f34d5473aaap-2
5265=0x1.d067b9f52057ep-1
5281=0x1.f1851808d4e33p+0
5346=0x1.7ffdf5709ec1ep+0
5401=0x1.f1deab84c1139p+0
5427=0x1.85886d3627e21p-1
5508=0x1.0c58dfb6e5df7p+0
5589=0x1.23387a50c45b1p+0
5832=-0x1.78388b3f58ab4p-2
5867=0x1.7d6a3f66fd6a7p+2
5907=0x1.a776aab8d3118p+2
5913=0x1.b443dcb980879p-3
5994=0x1.a79a2b3dcda1dp-1
6394=0x1.ab7db5d78ce5ap+1
6399=0x1.e32ac30bf5e95p-2
6480=0x1.fdf85956fe6b3p-1
6722=0x1.bb3da0db41fbap+1
6723=0x1.4b4f640067b34p-6
6804=0x1.ae2d9da736916p+1
6885=0x1.cb1b49099af22p+0
6966=0x1.2429bb4e3c8d1p+0
6968=-0x1.17a94cde8a679p-1
6970=-0x1.4da1d9da9bb38p+0
6972=0x1.70a7ee49aab49p-2
6974=0x1.9fd4c8f813fe8p-1
6975=0x1.4ce7e04efe5b3p-1
6982=0x1.0ba84d9f946a1p+1
6988=-0x1.52f9e0ba17a31p-1
6989=0x1.35665b27a400fp-2
6995=0x1.f3a9943995ff2p-1
7016=0x1.3d67d08ab955bp-10
7028=0x1.117c02ceeb737p-1
7047=0x1.01f4a70202943p+3
7128=0x1.2f0f65035e0f9p-6
7251=0x1.2f4b95fca401cp-8
7290=0x1.f619f4c787a6ep+1
7371=0x1.2aeb158b7f9c4p+0
7373=-0x1.0d529964a9751p+1
7375=0x1.8567a96abe69ep+2
7376=-0x1.828755b7bd0e8p-10
7379=-0x1.36bdc50371a84p-2
7380=-0x1.ecf6b0c56b2c5p-3
7382=-0x1.2cb8eacc45ebcp-2
7386=0x1.73e73adb08638p-5
7387=0x1.d8876a5ded1dfp-2
7393=-0x1.9dcdca708f625p-2
7397=0x1.9085eba23fbddp+1
7403=-0x1.529b30b2e9e55p-4
7409=0x1.75b346bcc861bp-3
7419=0x1.1d3921d561d4cp+2
7432=0x1.a8b21ac0c22d3p+1
7435=0x1.2d2d8b34d386dp+1
7440=0x1.5f5ea885d21b5p-1
7452=0x1.cc13c046688bdp+0
7456=-0x1.99329dfec406dp+1
7458=0x1.5beb18887cfecp-1
7461=0x1.8b57bed7f385fp+0
7464=0x1.55ea6d180bcbep-1
7468=0x1.d8896e43f7b2cp-2
7472=-0x1.32eb44345a642p-8
7533=0x1.5246c78dc29a4p+3
7695=0x1.a7bc28e33a1d6p+0
7696=0x1.ffda0bc84ff91p-5
7699=0x1.b5fcfb88be4edp+0
7700=0x1.8e3dee52a070dp+0
7701=0x1.0b24a00061a4bp-1
7702=0x1.50a2c77a2c374p+0
7705=0x1.1d01c05c7429bp+0
7711=0x1.1d4a9a342057p-5
7713=-0x1.f82a782568385p-11
7714=0x1.8e12d84ff983p-2
7715=0x1.e96176bb4115p-2
7716=0x1.6001cec24869dp+0
7718=0x1.8ae5f34745373p+0
7721=0x1.a1ef77c5153aap+0
7737=-0x1.cefdbea416028p+1
7743=0x1.046ef9186ad5p+1
7746=0x1.137c5e8fc7a9bp+0
7749=-0x1.394f161c5967ap-1
7750=-0x1.881dc331f8f98p+0
7751=0x1.2788cb11a9ee1p-1
7759=0x1.3cb4fbd973e1fp-1
7770=0x1.9640353572a1p-5
7772=0x1.7f2ce144d34cbp-1
7777=0x1.362728ac16af1p+3
7857=-0x1.bbe9bc896df91p-1
7858=0x1.d3a499bb1235dp+0
7859=-0x1.092c62d342881p-4
7861=-0x1.c9272eab0c14ap-6
7863=0x1.56e3b8f03dc3ep+0
7864=0x1.e092288e38318p-4
7866=0x1.eb13fca655af5p+0
7867=-0x1.2a249fc3419bdp-1
7868=0x1.56e7881adcf45p-2
7869=0x1.e0c84a063b7eep+0
7870=-0x1.3b8da43f7711cp-1
7873=0x1.7f9e9858f39adp-7
7874=0x1.f92158f3bd8bbp+1
7879=0x1.5782e6954f48p+0
7887=0x1.14db8b8ea43b8p+1
7888=0x1.87681a445b9aap-1
7889=0x1.77705416b364ep+0
7892=0x1.10cb894eda5b9p-2
7905=0x1.6c768b2235136p-3
7906=0x1.d5418ed328ce3p+0
7910=0x1.2dbe9e3fdee28p-3
7912=-0x1.21fcdf8fd9722p-2
7928=0x1.57f2fc7758eeap-4
7936=0x1.5e4df65dfab56p+0
7937=0x1.f022d3e1aa42ep-1
7938=0x1.75dab4d4eefe6p+0
8019=0x1.e961017c09e7bp+2
8181=0x1.8a6f75e9161b1p+0
8187=0x1.2d96a4b26a865p-3
8188=0x1.00dbfb1c483bbp-1
8190=0x1.93e7ace863c9bp-2
8191=0x1.a572dc11c334dp-8
8193=0x1.5bba9a70a6834p-1
8194=0x1.624cabfc0a566p-2
8206=0x1.15baf3dfd2514p-2
8210=-0x1.0b7b6b4de68a1p-1
8214=0x1.29492704dde8dp-3
8217=0x1.694bd4353fd2dp+0
8218=0x1.f8cd5511de49fp+0
8223=-0x1.f92dab8f9c505p-1
8241=0x1.044f68a866ed7p-1
8252=0x1.1393eb175dd74p+0
8261=0x1.eafefba07cabep-1
8262=0x1.1d34756cfa2ffp+3
8343=0x1.5dba1cfe565bp-7
8345=-0x1.1c5674c7c01c2p-3
8353=0x1.dcce046ab1adfp-5
8356=0x1.20cfbb37d3465p-1
8372=0x1.76494a6b5ce82p+2
8376=0x1.2841bbd2529c6p-3
8394=0x1.56b0b8d32afa5p+1
8424=0x1.cc0db9cf2b8ap-3
8507=0x1.03a1ad03075dap+2
8509=0x1.dc9689bd6cb5fp+1
8521=0x1.c59df388e4bbcp+0
8531=0x1.5d59e1178d368p+1
8586=-0x1.b1101d4d92511p-2
8588=0x1.825699b2d608fp+2
8589=0x1.9250fd2fcf6d7p+1
8590=-0x1.074002ac156a2p+1
8594=-0x1.25659d90617e3p-1
8602=0x1.1d5010f5bd78cp-9
8608=0x1.353b51cd28be1p+2
8646=0x1.9f57d44cd744cp+1
8667=0x1.9b1f58198206ap-3
8669=0x1.b9d45c49d1613p+0
8670=0x1.718ee8fdcbbf9p-1
8671=-0x1.4b8469bc445c6p-2
8672=0x1.311db33a8c4aap-5
8675=0x1.fbad68f43e4cp-10
8696=0x1.5a2a1f7c5b0c5p+1
8748=-0x1.19a42f22565dcp+1
8750=-0x1.72e575a359878p+1
8751=0x1.b6cb73e38d3d4p+2
8752=-0x1.186699bd02ed8p+1
8763=-0x1.ee514aebcc46dp-2
8792=0x1.62ef8ec02d73fp+1
8812=0x1.e9dee1c6d238cp+2
8818=0x1.322ff566297adp+2
8832=0x1.04035071d90dap-2
8843=-0x1.78db2b5287f89p-7
8855=-0x1.9f416c0766faap-4
8873=0x1.71a4edd259736p+1
8893=0x1.354abcd7bb7c9p+0
8899=0x1.7b0c84c086337p-1
8910=0x1.23612eb361571p+0
8913=0x1.15a215c1ee8fap+0
8914=-0x1.38ab6552194c1p+1
8920=-0x1.69b700bfb0339p+0
8924=0x1.fb7e27a530172p+0
8932=0x1.0d08a23f2d718p+2
8942=0x1.28f33c859f0fp-1
8952=0x1.ef20bf8ad2dap+0
8965=0x1.867abef5adb33p-1
8966=0x1.5c26ba6ab2a7ap-1
8991=0x1.8cd026a82d5fep-1
9072=0x1.293dfe9fb4d43p+0
9074=-0x1.6101b02bcf664p-1
9076=0x1.86079e20f23e7p+0
9077=0x1.10d519e9a2d04p-2
9099=0x1.e433686f58e29p-1
9153=-0x1.026b74a476b0ap+1
9155=0x1.563d3745da569p+2
9157=0x1.38cf9ecaee64fp+2
9168=0x1.04ee0635f54a3p+1
9169=0x1.4c6acb648d553p+1
9234=0x1.96d10d44f87a5p-5
9236=0x1.a117991f8ae63p-5
9238=-0x1.b5132efd1d47cp-3
9239=0x1.c55ed2481355cp-2
9245=0x1.6b13d80dbfc03p-1
9248=0x1.8802a474df987p-3
9249=-0x1.591f666e8afbep-5
9289=-0x1.3372b2573f47cp-3
9315=0x1.a84809257b694p+1
9396=0x1.4e0b13a742726p+0
9477=0x1.62092eccdd1adp+1
9655=0x1.5f215ffe08c06p+0
9720=-0x1.2279785653ea5p+0
9722=0x1.53c21b86ed12bp+2
9724=0x1.e9a2c7e16c904p+1
9735=0x1.bbe60b95be71ap+1
9736=0x1.91a5beb21e376p+1
9803=-0x1.9995e61ed37c8p-7
9823=0x1.1e08632a48953p-3
9882=0x1.75e55d6570d14p+0
9884=0x1.748eaf07a4a74p-5
9889=-0x1.8db94027cd499p-5
9933=-0x1.c1c65635fb482p-3
9949=0x1.bb329f6f70ap+0
9963=-0x1.5e8057598cefep+0
9965=0x1.47617d48d1b97p+2
9967=0x1.220586ce5571ep+2
9978=0x1.36bf8133bb9bdp+1
9979=0x1.63183f287f7bp+1
10044=0x1.89e3fecbfe336p-1
10046=-0x1.7b0585bf5bc48p-2
10048=0x1.36f26cd07383ep-1
10060=0x1.aa8062e178ef3p-4
10099=-0x1.15109aee9964ep-1
10125=0x1.6ce11dd1604cp+2
10206=0x1.3ea35e0700d95p+1
10287=0x1.cfb37fb302222p+1
10293=0x1.6676c8cd5d149p-2
10368=0x1.02130acbd50dcp+1
10449=0x1.64d164a93a7ebp-2
10530=0x1.1b8e61a7743f2p+1
10542=0x1.59792c499bc6dp-1
10623=0x1.e97e5589f5b2cp+0
10773=0x1.01f239ea3c6b2p+2
10854=0x1.bc0a14f56f25dp+0
10858=-0x1.b4bf9e385e7adp+0
10866=0x1.e546d29f930ccp+0
11016=-0x1.1a398e7d3a7c8p+1
11018=0x1.468463c7d60d3p+2
11020=0x1.461fc6bb932e7p+2
11031=0x1.b40e781936511p-2
11032=0x1.25685e5bd608ep+1
11178=0x1.17682ecada03fp+3
11259=0x1.d6943676f301dp-2
11261=0x1.a30f5dfd1a49dp+0
11271=0x1.08f456406dd76p+0
11285=-0x1.688d307c4369p+0
11301=-0x1.582bb3936235ep-5
11308=0x1.54ffa9d5d149bp+0
11340=-0x1.08bbbb3527497p+1
11345=0x1.abf8308eb3f3fp+2
11395=0x1.baa35850fcd61p+1
11409=0x1.4e478f5a4aecdp+1
11421=-0x1.c750b3524fdfap-2
11425=-0x1.86c60c5578aeap-3
11426=0x1.bda458d1f31f1p+1
11428=0x1.db723de4e192ep-1
11429=0x1.6372f4c98b4adp+1
11433=0x1.e6399190cb302p-4
11437=-0x1.9e4b89aefa482p-13
11438=0x1.ec1eeeb722041p+0
11439=0x1.7deafd98c549fp+1
11443=0x1.02690ca8f2aedp-2
11448=0x1.9f40ce3467856p-3
11460=0x1.9a14b46e7541ep+0
11467=0x1.3d2ddb6d52d63p-1
11476=0x1.f90b3d6be94b8p+1
11490=0x1.51a2851f81541p+1
11494=0x1.6adaf376edfbp+1
11504=-0x1.8f7ce7c1e8ec1p-1
11506=0x1.b812e3de41152p-1
11507=0x1.50ddc558e07ep-4
11513=0x1.b1ef65cbcb81bp-2
11518=-0x1.63459d1e049fcp-2
11521=0x1.7e061239f0216p+0
11522=0x1.865ea8593e2c7p+0
11541=-0x1.2bccdb740d2fbp-5
11544=0x1.ea7b9aa0384e2p-3
11550=0x1.12994fab03ee6p-2
11557=-0x1.1ed82392db6cdp-1
11571=0x1.3c0726f1d50afp-1
11583=-0x1.69ead858b226p+1
11589=0x1.67332820cfadfp+2
11610=0x1.565dfc404e047p+0
11613=0x1.a69d7be23b487p+1
11618=0x1.5ee41679a03cap+1
11663=0x1.b90690c679fb9p+1
11670=-0x1.1d950093856fap-5
11682=-0x1.1bdd6ca39077ep+1
11694=0x1.4df26a0fe56cap+0
11697=0x1.de468a126c442p-5
11703=0x1.14069279b5658p-1
11706=0x1.f31188f5f6327p-2
11739=0x1.7135c5e33b139p-1
11745=0x1.1cb662a8b2b2fp+0
11750=0x1.815796793264fp+0
11751=0x1.18dcc6802163p-1
11752=0x1.7bb4c8064ef93p+0
11755=-0x1.83cbe2b480509p-6
11757=-0x1.12ab0a51d3fd4p-2
11762=0x1.ee7e8c11ad066p+0
11763=0x1.cd242b9c17408p-4
11770=0x1.16f968e2de0bfp+0
11774=0x1.6eb987845859p-3
11775=0x1.c8bddd8cc769cp-8
11776=-0x1.0104ba897cf2ep-5
11780=0x1.5a9795457bc5ap+0
11784=0x1.96b9ab8fdf1a9p-1
11785=0x1.a16a572c6fbafp+0
11787=0x1.3fd3a88cf8ba5p-1
11792=0x1.c8682f8577c81p-2
11800=0x1.6284b82b0ffbdp+1
11914=0x1.aa7f6021f9ee9p-1
11917=0x1.34a9ac28b9836p-5
11924=0x1.a0cf850aa0743p+0
11934=0x1.ed1ed5be159cep-7
11947=0x1.13a5cd6bea6c3p-1
11949=-0x1.69f3d8f281c84p-3
11983=0x1.5a165f3d03475p-1
11985=0x1.4f4a62dd1527ep+0
11988=0x1.85bb8c92bffb3p-2
11992=0x1.8e3e1d4d969fp+0
12004=-0x1.3ff0220eb8397p-1
12021=-0x1.6bf4dd6dd1027p-8
12034=0x1.d2555f92aee28p-1
12069=0x1.c45bdae78c1c2p+0
12150=0x1.3666aa54d5bd8p+2
12312=0x1.502933d39c5eap+1
12474=0x1.82c65a012a327p+0
12555=0x1.b6ba436628d63p+1
12636=-0x1.1c4c7167fde18p-1
12643=0x1.5ed456ee12daap+2
12648=0x1.7f7dd5f78bccdp-1
12690=0x1.9425957e382bfp+1
12707=0x1.018774111a8fep+1
12798=0x1.7f043b1a990efp+0
12803=0x1.83ce8c8f2414p-1
12853=0x1.215f7de8ee83fp+1
12881=-0x1.a177620bf8ca4p-3
12901=0x1.4ced8d65e2929p+0
12960=0x1.5db55480b58cap-2
12993=0x1.a9e7c2b89fffep-4
13041=0x1.47fa94671fe4p+2
13130=0x1.b3c9e26c10a85p+2
13203=-0x1.fd311f8b6f36p-2
13205=0x1.95ff046fb0e49p+0
13207=-0x1.124358a8c80fep-1
13211=0x1.f5b4a5e7d215cp-6
13224=0x1.a5cd6f380d21p-1
13226=0x1.75a7f72e825ccp+0
13284=0x1.118ebee923006p+3
13299=-0x1.1e82d857de6cbp-11
13446=0x1.a9b9c1f3fea3ep-4
13448=0x1.973291e22d0bap-2
13527=-0x1.59ed69fdc60a6p+0
13529=0x1.9008889677618p+2
13531=0x1.2e38437828bfep+2
13543=0x1.deae0534a55fbp+1
13608=-0x1.c757126851b73p+0
13610=0x1.8bf1f689c0f89p+1
13612=-0x1.4043e7340acb7p+0
13624=-0x1.c5985dd241ebbp-2
13630=0x1.83d3d76a45986p+1
13666=0x1.a68a1b2e2c2eap+2
13668=0x1.da46013b42784p+1
13673=0x1.aff4858a758b5p+2
13770=0x1.f12fcbcc02317p+2
13851=0x1.8af88d9dfbb63p-1
13853=0x1.294bcf3af6d6fp-3
13855=0x1.28bd27382fa09p+1
13861=-0x1.4d9637b857d04p-6
13865=-0x1.20fc8553a0edfp-4
13877=-0x1.f1bc4c4b89f2fp-3
13881=0x1.c45df5ea52da6p-2
13893=0x1.0db6b0a688621p-2
13899=0x1.193c12b94e5d5p+0
13954=0x1.80e1165ee9632p+1
14013=0x1.b798e569d960ap-1
14015=0x1.318147d377914p-4
14017=0x1.793502b2e59f8p+1
14018=0x1.861d3ad440e9fp+0
14022=0x1.6d14e3c102662p+0
14023=0x1.6ac3dbe7b05adp-1
14024=-0x1.774b7b0d8359cp-2
14028=-0x1.242573254bdddp-1
14029=-0x1.12b21eabcbcfp-3
14030=0x1.8bc849d41b22p-4
14032=-0x1.47759485f50edp+0
14033=0x1.38e5d7d0386a4p-2
14038=-0x1.15619bdec4dd2p-3
14040=-0x1.4fea898c567ecp-2
14043=0x1.3b6225eff1c92p-1
14045=-0x1.fca3b18c19774p-3
14046=0x1.5cb532da1c197p+1
14072=0x1.3206038eb1bcfp+2
14074=0x1.b40fe2539cd3fp+0
14079=0x1.178e7cc8aa4a5p+2
14094=0x1.3e341db20e78dp-1
14098=0x1.9bf77204ddfb2p+0
14099=0x1.9aa3dccf76cb8p-3
14105=0x1.ec9c3bdc83a8bp+0
14109=0x1.d1874d4afc91ep-3
14110=-0x1.9d48110699348p-3
14111=0x1.291a1bbc4b4c6p-1
14112=-0x1.906889d6ca282p-9
14115=0x1.0a37a937788bbp-5
14121=0x1.408b2f33564b3p+0
14123=0x1.1278e4ad205d4p-8
14133=0x1.fdb4e522ebb1ep-3
14142=0x1.84a5e3b8b0799p-2
14150=-0x1.1c242b18d3a65p+2
14155=0x1.7f16508b0e515p+0
14158=0x1.470ef5eb261b2p+0
14175=0x1.ae8b08ae7d3p+2
14256=0x1.3abfe5422bb26p+1
14337=0x1.a4e3f6fd45717p+0
14418=0x1.98b50a94b71b7p+2
14580=0x1.7c82d9ee0eb86p-2
14661=0x1.2c9dea15daabap-1
14663=-0x1.95b3fc31a217fp-2
14665=-0x1.75a0e9b80a6fep-1
14670=0x1.20f390ed26168p+0
14677=0x1.90a73f4e67a6bp-1
14681=0x1.d6cea9d302b9cp+0
14696=0x1.dd481de55f2ccp+0
14742=0x1.018b201f6a2edp+1
14823=0x1.0a35f3aa49f1dp+3
14904=0x1.19f1b64aa66bdp-1
14905=0x1.ba9b9c9cbe8d6p-4
14908=-0x1.74fc5f0c8db1cp-1
14909=0x1.b40ae761cd287p-1
14910=0x1.2876c11769b3ap-2
14912=0x1.d72f258169312p-3
14913=0x1.a6885cec5b95dp-1
14921=-0x1.38872001f7d24p-1
14924=0x1.1c5529ea93a4p+0
14926=-0x1.429e0bc57902fp-4
14927=0x1.65452338a494p-1
14937=-0x1.00fe3b1835a3bp-6
14953=-0x1.a7ad5ee2094b7p-1
14957=0x1.61611d0dd0ae1p-1
14985=0x1.0f8c1b68e1aefp+0
14987=0x1.d000c558a20fap-1
14989=0x1.03303c050107ap-1
14995=0x1.f41e6ebcd35e8p-8
14997=0x1.019c816e5f14ep+1
15004=-0x1.04110789e758cp-6
15048=0x1.b012edbf71918p+0
15066=0x1.9189258024ee5p-1
15068=0x1.0835c5976f07ap+1
15070=-0x1.8f5a5d707f6c7p-3
15071=-0x1.6705a006f2184p-1
15072=0x1.171a3951939b6p-2
15074=0x1.b258a5797973dp-1
15075=0x1.9eac6a475e786p+0
15077=0x1.448d3a5b1dcd4p-1
15088=0x1.33248af1e4b63p-1
15093=-0x1.3cc687eee39b8p-7
15121=0x1.9b97412dcd99fp+0
15122=-0x1.39de6ff5f931dp-6
15124=-0x1.3f688b1b3ef2cp-2
15126=0x1.3b83fde12b9d4p+0
15147=0x1.6c345251f9bebp+0
15148=0x1.41bfe43ce2b1bp+0
15149=-0x1.fbbf17a2e9e52p-3
15154=0x1.4e70733867fcdp+0
15173=-0x1.a238afeee5019p-5
15174=0x1.87a43a1f818f3p-1
15203=-0x1.2fed87c33bb3cp-4
15228=0x1.736ac9798913ep+0
15232=0x1.b9cbc3e6ff128p-3
15238=0x1.4364dd4a385fep-5
15254=0x1.36e57f14603fcp-2
15255=0x1.4c3aabfaff886p-2
15261=0x1.11fca944b1b56p+1
15274=0x1.46d5aa877f7c7p-1
15299=0x1.24e2644007ca7p+0
15309=-0x1.2a06a5d467146p-1
15314=0x1.9762d64fcbf65p+2
15364=0x1.81e147df4122dp+1
15378=0x1.02db48e1ed256p+1
15392=-0x1.ca8d9bf220107p-2
15394=0x1.5aa0c1b8f257ap+0
15395=-0x1.1cd63a3154841p-9
15397=0x1.d3bf92e59816ap+0
15399=0x1.273780357e02fp-1
15400=-0x1.395b2d8ebaad3p-5
15401=0x1.163d701b65aa6p-8
15408=0x1.bcbd22ab300f8p+0
15423=-0x1.634cf2eff55fp-1
15432=0x1.c50dde0523e7cp-2
15438=0x1.e6c0fb9d2a15ap-2
15459=0x1.66161068411cdp+0
15471=0x1.53e876e68288fp+1
15552=0x1.51c18c4a1ab8ep-2
15714=0x1.a1e52855e4bd5p+2
15795=0x1.9c06b80b641ddp-1
15805=0x1.574e8b6eae4eap-3
15837=-0x1.ff5c70b613598p-9
15876=0x1.683f1794519fcp-2
15903=-0x1.bb08676915e31p-3
15914=0x1.a7cc331d67744p+1
15929=0x1.45b805f1ed812p+1
15957=0x1.d1e8d7d46ade2p-1
15959=-0x1.37e7b4d188978p-1
15971=-0x1.ea789d8ef0a11p-4
15999=0x1.d6f50e89ff3fap-4
16008=0x1.4727bdc77956fp+1
16038=0x1.8213b2f58420fp-1
16040=0x1.b3a03b1ae7617p-12
16042=0x1.cab265ca557a7p-1
16043=-0x1.ec758caf9cceap-2
16048=0x1.26fd74fd5200ap+0
16049=0x1.bd85c50e4cf2fp-3
16054=-0x1.9c75f7509480ap-6
16056=-0x1.aab9f9e59bee7p-2
16057=0x1.961781ac412p-3
16071=0x1.132a6c3ca2cdbp+0
16077=0x1.46a3207075805p+0
16080=-0x1.4019daf0822a9p-3
16093=0x1.0231cd97421f4p-4
16099=0x1.c56220d22f56ep+0
16103=0x1.0fb4d18f7e125p-1
16119=0x1.e422f457facc5p+2
16200=-0x1.7ca228e954d58p-2
16205=0x1.9f677c1ba055fp-1
16206=0x1.a134672ea0c5bp-4
16209=0x1.238a3803e4509p-2
16211=0x1.affe33893ba4ap-2
16212=0x1.3dd0b11887f7p+0
16216=-0x1.5af2d5113683ap-4
16220=0x1.0589121fa46cdp-1
16225=0x1.81b89796c5fc1p+1
16231=0x1.61eba81edf30bp+0
16233=-0x1.8381f4089f7a5p-1
16238=0x1.165d2d67409c9p+0
16241=0x1.2d01a2aa2dc3dp-1
16243=0x1.93c0094b307dbp+0
16255=0x1.7cb1554b8bf28p+0
16281=0x1.d249542b12874p+0
16287=0x1.26ca6c2304ef8p-7
16291=0x1.ea159139a0c84p-1
16306=0x1.e48623008144ep+0
16310=-0x1.f22f593be8e76p-1
16311=-0x1.b4cd7608f3a99p-5
16330=0x1.1ca4c54ecd2a4p+1
16332=0x1.3f51d73163187p+0
16337=-0x1.9cfeb71fd1e99p-2
16362=0x1.c167ac5725395p+1
16524=-0x1.fcf63b859b41p-2
16530=0x1.1f200b284dfdp-3
16533=0x1.90841277278bdp+0
16614=0x1.6dd412587277cp+2
16769=0x1.8783e6eaf9781p-3
16848=-0x1.07f3863dbdeb2p+1
16850=0x1.19aefba05e27p+2
16852=0x1.4818758e2d197p+2
16864=0x1.6357c7ff57de3p+1
16929=0x1.c417ac4aae0ddp+2
17010=0x1.d68fd50a1948cp+0
17024=-0x1.4274192eece93p-2
17032=0x1.180d001e2546ap-1
17036=-0x1.6dd409836dab4p-1
17066=0x1.8599507c1b344p-2
17093=0x1.3bd503da82709p-1
17095=0x1.1e31074937e54p+1
17106=0x1.fc13654a3e258p+1
17107=0x1.e857b1ceb01b9p+1
17123=0x1.3f2fe4a4cfa25p-1
17161=0x1.4d51d5825a27dp+1
17163=0x1.bfa1cc4bfa7f2p+1
17172=0x1.25cda48faa115p-2
17174=-0x1.5fbf13d47deeep-3
17176=0x1.317a6fee31072p+0
17183=0x1.06208890b46d4p-2
17188=-0x1.34741bcc8ffe9p-3
17190=-0x1.bf8f31a936906p-3
17199=0x1.4329c3aaa43a9p+0
17211=0x1.ef3b95e0a2a5fp+0
17223=-0x1.25e0a285038b7p-4
17237=0x1.29ecf2563938p-1
17239=0x1.30cc487333729p+1
17253=-0x1.4b40479499ca9p+1
17259=0x1.b8fbea7b2bd21p+2
17283=0x1.936a6290e2981p+1
17288=0x1.f539c4d2ef6bp+1
17334=0x1.ac0665cba2a08p+0
17336=-0x1.a9f6ef7c2611fp-1
17337=-0x1.cb98a9091f503p-1
17338=0x1.2ace0a89dad9ap-7
17339=-0x1.dcfe874307324p+0
17340=0x1.0427a33cadc31p-1
17341=0x1.11031472d10d6p+0
17343=-0x1.417b53dfbd52cp-1
17344=-0x1.2c36af66e2ed1p-2
17345=-0x1.0183d98d1d6b1p-3
17346=-0x1.729bac5e9bb1ap+0
17349=0x1.ceb4f253be223p-2
17351=-0x1.ffc1a6c9d9efbp-1
17355=0x1.26b1b586b1cd2p-4
17358=0x1.cc5fc8b115de4p-3
17359=0x1.013afea0fd2d1p+0
17360=0x1.bad6234015e73p-1
17361=0x1.643817e0ba68cp+0
17364=0x1.9062b2aa72bd6p+1
17369=0x1.0a835fdb80f79p+0
17376=0x1.e38af9c2018p+0
17378=0x1.d968837aeeadep-1
17383=-0x1.f877c0c5d4e1cp-4
17385=-0x1.eea2e42a9eb5p-1
17388=0x1.122a1a29bec6p+0
17389=0x1.0f26b63ecf261p+0
17398=-0x1.568f5efcceeaep+0
17401=0x1.93c3854c1cc35p+0
17404=0x1.9363b97fad616p-1
17413=0x1.fb36e83d300afp-1
17414=0x1.0917d115d4122p+0
17415=-0x1.c9fe47a42c49bp+0
17425=0x1.fcfe61f6ca511p+1
17457=0x1.0907e7ac82a5fp+2
17506=0x1.150421a3b44fcp-7
17507=0x1.62f9169522ebcp+0
17532=0x1.dbfbb88ccdc1bp+0
17588=0x1.b43a829493d44p-3
17658=0x1.c10e3c1bb970dp-1
17669=0x1.6f3344652b8cp+1
17685=0x1.301480fa04842p+1
17688=0x1.523c9e5157e42p-3
17744=-0x1.7a4151769f968p-5
17750=0x1.ec8981712a0b5p-8
17751=0x1.18840964b8a43p-2
17776=0x1.f004f4b2e199ep+0
17808=0x1.e84e7db483b4dp+1
17829=0x1.4d56d2ac69cc5p+1
18074=0x1.eb6db9325accep+0
18144=0x1.b5863f5b20bc3p+2
18227=0x1.75f1af9453f18p+1
18228=0x1.b58e4de9d12ap+0
18229=-0x1.cb12ac80f7e95p+0
18230=0x1.39c0dec9102ap+0
18231=0x1.b0435be0253b8p-1
18232=0x1.91b782a0a852p-7
18243=0x1.94bba6a9e7e69p-1
18246=0x1.fb6aa7d7cec73p+0
18264=-0x1.3e24d12e465a6p-5
18308=0x1.0af740b206937p-2
18311=0x1.3822d933d33e9p-3
18312=0x1.76afc57a51dd9p-1
18316=0x1.2266acaff151ap+0
18317=0x1.c040631068104p+0
18323=0x1.efb21a2168b6ap-1
18324=0x1.ac47cd72b5353p-1
18327=0x1.2158f1e82496ep-7
18348=-0x1.40c337ce2c32p-5
18371=0x1.6deee29b8d07ep+0
18387=0x1.7346d9bbadf79p+2
18474=0x1.a8537c3f8b208p-1
18477=0x1.fb6d616854d3ap+0
18491=0x1.49d410bd91e16p+0
18499=0x1.4db4f28d843f6p-1
18549=0x1.ef3160a5205a9p+1
18630=0x1.a5b12cd7b8b75p-1
18638=0x1.88427bffa5cc9p-7
18643=0x1.1a65dcb0afc4dp+0
18682=0x1.2af932c0f9a22p-3
18683=0x1.df815cb908766p-2
18687=0x1.1d198e1d0b9b9p+1
18692=0x1.82a499c7bf2a9p+1
18704=0x1.e8d4d813d9002p-2
18711=0x1.b31b2601aad5p-6
18792=0x1.0c5ece69a9e3cp+2
18875=0x1.bc4fdade86c4ep+0
18954=0x1.0a27d7a3296e4p-4
18982=0x1.3259d15f905b8p+1
19035=-0x1.98da658a041cbp-1
19037=0x1.65e04e147c271p+2
19039=0x1.1b478d86b3c9bp+2
19050=0x1.9ac8f0c42e09ap+1
19051=0x1.c97218f74a7d3p+1
19116=0x1.43e77210949ccp+0
19118=0x1.eb7de7b0c40e1p-4
19122=0x1.a49b18cdacc47p-1
19127=0x1.d59a4a0bf7a13p+0
19146=0x1.1e2fcbc1b342ep-1
19197=0x1.1d1c005e16d7bp+0
19207=0x1.7b0492c85e839p-1
19221=0x1.6ea64f1c5b44fp-3
19239=-0x1.e92dab3d46ae4p-2
19252=0x1.f55683d5bebccp-2
19278=0x1.4abb1c18672c1p+2
19290=0x1.b4326d1ad2bd7p+1
19359=0x1.6ae2fecc5bf7bp-1
19361=0x1.4ffd3df8275fp-4
19363=0x1.db2eb3df67bd5p-1
19364=0x1.9cb273e982f9ep-1
19369=-0x1.d1e51dc4045bdp-3
19370=0x1.27d1c1f8ea9a3p+0
19375=-0x1.1054419c409ebp-2
19377=-0x1.59f10061a3602p-3
19386=0x1.d7305ef05359bp-1
19392=-0x1.c931d006e7f6dp-2
19414=-0x1.056ffc1041d5dp+0
19420=0x1.0e4038baef981p-2
19442=-0x1.b120f5c15c31p-2
19444=0x1.474c8aa5409a3p+1
19450=-0x1.5da940d9a8c5cp-1
19479=0x1.84c670c43b4b9p-1
19482=0x1.760958f5d19b1p+1
19521=-0x1.92374ec3f5f8fp-5
19523=-0x1.91d1432ed8e6bp+0
19525=0x1.d424a4a5ad69cp+1
19526=-0x1.2d76fe6069992p+1
19531=-0x1.0170d74d62e32p-8
19532=-0x1.0076938e8c435p+1
19536=-0x1.ac5fcab7b86a1p+0
19537=-0x1.c4fbdd65fc956p+0
19539=-0x1.edeca6cac822ap+0
19543=-0x1.f308bf9d8b2dcp-5
19548=0x1.9d44e5e52b977p+0
19551=0x1.787e01ef957cdp+1
19560=0x1.fdeeae1a815cbp+0
19561=0x1.162b69645cac1p+0
19563=0x1.ca4e6d62f8b8ap-2
19564=0x1.33e433a29b984p-3
19569=0x1.d5ccaedebae9dp+0
19576=0x1.1c1263c0cf3f4p+1
19579=0x1.63cb1f0b80a55p+1
19602=0x1.681483220bbc7p+2
19683=0x1.a48348c710d88p+1
19764=0x1.77947d7142804p-6
19766=-0x1.a00eded7a9b76p-3
19772=0x1.609dbe10351f1p-1
19777=0x1.722543d75a907p+0
19796=0x1.b15961b28ecbp-1
19813=0x1.05292321a8eeep+0
19826=0x1.6a58ce23a94cp+1
19838=0x1.ca43b85dbdb07p-2
19845=-0x1.165e13cf8ec67p-1
19857=0x1.a1e18e3daa973p+2
20007=0x1.e954c4ed17c5dp-1
20008=0x1.4208050872fdep-2
20011=-0x1.5f0c132fd1637p-6
20014=-0x1.e6199987cb346p-2
20016=0x1.5eced39fe5cafp+0
20019=0x1.0c13fd4d55096p+0
20020=0x1.3d822d26b4d44p-1
20023=0x1.f58fb3f1fbd93p+0
20024=-0x1.c53ea347aab6p-2
20029=-0x1.fb635f4a8b32ap-3
20032=0x1.db156ceede15fp-2
20036=0x1.a9e7621bf3875p+0
20059=0x1.0c432c4768ffcp+1
20060=0x1.aeb1899f5c68ep-4
20088=0x1.2d718a17ade1dp+0
20250=0x1.2e5579fda63a7p-1
20331=0x1.414b1926824aep+2
20422=0x1.ac572f734cd4fp-1
20443=0x1.f426baf9b87a6p-1
20493=-0x1.ab4ba3e7dc7b6p-2
20497=-0x1.c1c32fbdca84ap+0
20499=0x1.9faeb93501eafp+0
20504=0x1.a2c43f6844a62p-2
20509=0x1.31fba6df67669p+1
20520=0x1.2c4234cef1999p-4
20524=0x1.059a232306662p+1
20541=0x1.cf495b4d91abap-2
20574=0x1.2aaa78f75711bp+2
20663=0x1.2a83af6cd6786p+3
20736=-0x1.482b328c67bdp+0
20738=-0x1.05daace57dc7bp-1
20744=0x1.b02bc3d3bd8afp+0
20749=0x1.b7632f03c0871p+0
20788=0x1.5b0dae283faa7p-3
20789=0x1.0127e6108fd26p+1
20793=0x1.3ba12a032590cp+1
20798=0x1.966719e00134p+1
20898=0x1.fa4d9d981a72bp+0
20911=0x1.f1cc973d3edf1p+0
20927=-0x1.0c07645cd54fap-5
20930=0x1.9d275dde30e6ep+1
20979=-0x1.b0d6dd2befb44p-6
21008=0x1.365d87fb3fceap+0
21060=-0x1.554c5dd7cd81p-2
21069=0x1.305cc00e2d354p+2
21087=0x1.48f28eabc988bp+0
21097=0x1.e6a87bf8a2df8p+1
21141=0x1.63ffb6e056534p-2
21222=-0x1.bdb440fad5bd2p+0
21234=0x1.bf48b6849bf5dp+2
21285=0x1.1b19e1bc67661p+1
21307=0x1.20cf0555dcfe7p-6
21336=0x1.bbb950cad1d1ap-2
21384=-0x1.638f688e8561ap-4
21469=0x1.291f4cd27c2f1p-8
21546=0x1.71d45c5747b1ep+2
21627=0x1.134be8952015ep-2
21629=-0x1.4bf209f1e267ap-4
21633=0x1.8262c369aeb19p-1
21634=0x1.e277287eac8bp-1
21635=0x1.5fe94b993f49p-3
21642=0x1.75325c0fed99bp-4
21643=0x1.326a2fc307678p+0
21645=0x1.ba4c98e8e525fp+1
21649=0x1.6bbae9de630eap-9
21658=0x1.c6ec3e1641dp-2
21665=0x1.588213dd747fbp+0
21673=0x1.23809379c4893p-1
21675=-0x1.7f881b6645e35p-4
21684=0x1.3eb8b95ee09c2p+0
21708=0x1.a16876823b77p-1
21710=0x1.0540c0f0096f4p-6
21718=0x1.daedb7c2338dep-1
21725=-0x1.c2ccfe1f128dcp-3
21733=0x1.3f71fc3a47e6ap+0
21739=0x1.75d05684c9934p+0
21742=0x1.1f1ec962881b6p+1
21755=0x1.59abae6beb20bp-1
21789=0x1.89e51103af7b4p+1
22032=0x1.27452a598b6f2p+2
22194=0x1.1a56250eb466cp+0
22356=0x1.1244d8fdeff28p-4
22360=-0x1.005b6a5037c64p+1
22372=0x1.6cfdb2a927e42p+1
22388=0x1.17a61f66fe1d8p+0
22518=0x1.330299ec4f11fp+0
22529=0x1.25e7c32ddeb7ap+0
22599=0x1.f367ea034c7a6p-1
22680=0x1.e8fb1919a2a13p+0
22761=0x1.7dc4f4c26bb6cp+1
22774=0x1.f4b7de0b7bcefp+1
22842=0x1.0d6fd50632d0dp+2
22923=0x1.5486b8077cec4p+1
22935=0x1.ecaa8dcb5eeddp+0
22944=-0x1.a6b77a18cfa75p-3
23004=-0x1.0ac8321968e3ep-1
23012=0x1.757d73c64c204p+2
23253=0x1.c06bfe190c1fap+2
23337=0x1.65ba666fe28a4p+0
23418=0x1.1e361d20726bbp+0
23503=0x1.3c8d357454956p+3
23571=0x1.1698ffca1c81p+1
23681=0x1.66815c6bdef47p+0
23733=-0x1.bd9afac5fa031p-2
23735=0x1.83380d574d385p+0
23737=0x1.3c333d92eee87p+0
23749=0x1.27f29f48362ap-1
23814=-0x1.3a0d6d9f8b273p-1
23828=0x1.0cd3ccf8360f2p-3
23838=0x1.d5017c981e2e5p-1
23840=0x1.86c28612582b7p-1
23909=0x1.fb6bb5889cea4p-4
23910=0x1.3b408bc821159p+1
23919=0x1.c8ccb68255aa8p-1
24219=0x1.b6e868a69e4f7p-1
24381=0x1.5a09f79230e58p-1
24462=0x1.89005f97661ccp+2
24543=0x1.4f126077957fdp+1
24551=0x1.ce32b44c3c08cp-1
24562=0x1.318e35cb86398p-1
24566=0x1.b4ae8c6246a2p-2
24624=0x1.3439492097372p+1
24647=0x1.9649237e59f1p+1
24705=0x1.c9737f4dafed3p-1
24707=0x1.ae0923c331e93p-2
24709=-0x1.a2c25189e1d9dp-2
24726=0x1.6ecc7bb92c631p-2
24728=0x1.dbcebf6cb8ad1p-2
24737=0x1.d387cde90f34ep-2
24753=-0x1.02d0e7137e028p-8
24754=0x1.e0f22d0a7e5p+0
24768=0x1.58bbee77e32b3p-1
24786=0x1.5ead0e5487887p-2
24790=-0x1.2d1e44970eb98p-1
24801=0x1.f162e0725849p+1
24867=0x1.53e364f78208ep-4
24871=-0x1.cad4f3b0e2cep-3
24882=0x1.b96175463c1c2p+2
24948=-0x1.00fa7c21ff21fp+1
24950=0x1.84895c505ae11p+2
24952=0x1.ba8057b5444cdp+1
24963=0x1.46f39c2488e6cp+1
24964=0x1.a07e28267c6f2p+1
25029=0x1.54e6fc90a1276p+2
25033=0x1.2884b3b94aae6p+1
25112=-0x1.99419418531fdp-2
25114=0x1.10122f292ff82p+1
25115=0x1.91d32ba4985f5p-1
25118=0x1.e10c95222d9ep-5
25126=0x1.0e8f54aeb8bddp-1
25128=0x1.03a35411cacbcp-1
25142=0x1.4fe95fc655f29p-2
25161=0x1.708b0241aaa68p-1
25165=0x1.c26ba50076647p-6
25177=0x1.13e02ac8e3b5ap+1
25179=0x1.92a33c9fd239p-1
25193=0x1.652d8198a6952p-1
25202=0x1.b76284536ee75p-1
25208=0x1.c829ffeb408bcp-1
25209=-0x1.5524dcdcb55a1p-3
25216=0x1.4503359d4498cp-4
25233=-0x1.14d24096168f2p-2
25266=0x1.868f953e11528p-2
25272=0x1.b0040350bed5cp-1
25279=-0x1.464d73246a522p-3
25282=-0x1.feb3181286accp-10
25291=0x1.84d74e90c2025p-4
25314=0x1.092ff4461a326p-2
25326=0x1.e2fff027de933p-1
25355=-0x1.0acea347a1b2bp-2
25357=0x1.95a89a060b2b5p-1
25363=0x1.57b5478836b28p-4
25364=-0x1.5a0c62e2f09fap-2
25365=-0x1.00e0c32e83cafp+1
25380=0x1.3fb7053fd83bdp-2
25395=-0x1.777c3bd0f3a9fp-4
25401=0x1.cd43f93a2e15p-4
25408=0x1.946798635b82ap-3
25416=0x1.d42ac1136ccd1p+0
25418=0x1.6a4bab29deb32p+0
25434=0x1.1cc1de14c9388p+0
25596=0x1.12909b3d2519dp-1
25600=-0x1.018fbeb836df5p+1
25616=0x1.f39cf2e363e2bp-2
25677=-0x1.74e569956bc1dp-1
25682=0x1.926b6d1235d99p+2
25732=0x1.acb1234a7f0cbp+1
25746=0x1.9dff9881cd2e6p+0
25758=0x1.377e2c098b9cdp+2
25839=0x1.5ca9182e20e9cp+0
25920=0x1.d69acbc295679p-4
25933=0x1.49a8c36fd9779p-1
25936=0x1.66b591a830e37p+0
26001=0x1.5867c076661b5p+2
26082=0x1.764f13b418e33p+1
26163=0x1.69d659b446e1cp+1
26179=0x1.1c9f9564d8073p-4
26244=0x1.ae1e902c3ea65p-5
26248=-0x1.0fa31ab6fca46p+0
26253=-0x1.94eeee9294da6p-1
26260=0x1.7f3c86480e446p+1
26281=0x1.d369aced1a863p+1
26306=0x1.f54eb8c8b7912p+0
26325=0x1.79fb5ef4cf16p+0
26327=-0x1.142d50e76466bp+0
26329=0x1.692f472285aa6p-1
26334=-0x1.74363bc5ba657p-3
26341=0x1.7eeca6eb26caep+0
26387=0x1.eb186d4cbb2e2p+0
26406=0x1.faa7b153e5ae5p-2
26408=-0x1.158d2fff4b591p+0
26410=-0x1.bbcaddd3fc82bp+0
26411=-0x1.99e6e3bd47ddcp-3
26421=-0x1.2d8c85f2966b8p-3
26422=0x1.114601e97ff65p+2
26428=0x1.5717f31e5762cp+1
26430=0x1.0d88308f153a4p+0
26438=0x1.977d94540ac58p+1
26475=0x1.3d871967d1446p+0
26487=0x1.9e3890e89060dp+2
26568=-0x1.f5f3b8f446dd7p-3
26628=0x1.88a9e4f3df4f4p+1
26651=0x1.66f10d83d505ep+1
26653=-0x1.8d61da4265fe6p+0
26664=-0x1.1286b76f74d3cp-3
26665=0x1.0b77ebdfb56dbp+0
26730=0x1.ef0a24123aeb9p+2
26732=-0x1.c908a4b2542c2p-4
26734=-0x1.0170b3c11f174p-1
26811=-0x1.01382e7e7936cp+1
26816=0x1.879678d4770b8p+2
26866=0x1.d23b6cf597781p+1
26880=0x1.ed6ecc5bed0dp-1
26909=0x1.0916f2c6b0228p+0
27216=0x1.ef8aa4a186814p-1
27227=0x1.b33b18f17f9dfp-1
27281=0x1.b85668b48e661p+1
27297=0x1.6c70bb7f44d12p-1
27299=0x1.1e856283f243ep-5
27378=0x1.f097f3a40c459p+0
27380=0x1.3ac7af06fcc33p-6
27429=-0x1.34093f83a3902p-3
27446=0x1.4c90368c20c76p-2
27459=0x1.0666c8357d70cp+2
27540=-0x1.1e5bf4aacd3d3p+0
27542=0x1.09732b1dd3b1ep-1
27544=-0x1.b1912a7403b49p-2
27558=-0x1.435baee7d0795p+0
27567=0x1.a6ccf502c7584p+0
27579=0x1.a4135d6dd5e0ap-1
27595=0x1.360920eb6ac14p+1
27606=0x1.ae4f3597104b8p+1
27702=0x1.0107137c828ap+2
27783=0x1.79056ddaeb3e4p-5
27945=0x1.4ca67a013b741p+2
28026=-0x1.df2b8b3d87dcp-6
28034=0x1.36f7d74bcb25bp-2
28039=0x1.ea6aeab11bc25p-1
28051=0x1.bebdc8a178a7bp+0
28107=0x1.d0f53eb75f0e8p+1
28358=0x1.1d9d17f44b5a5p+3
28520=0x1.b63e8fa79abdcp-3
28541=0x1.db1894a287df4p-2
28593=0x1.b87340c413c01p+2
28674=0x1.bc5dfb3eebc48p+0
28755=-0x1.cf1fc094abcep-5
28761=-0x1.43463c1635ed1p-2
28763=0x1.1dda0b2758511p+0
28767=0x1.442032abd82c3p+1
28775=0x1.d0851e78c2ce8p-4
28778=0x1.8adf1b962a04ep+0
28917=0x1.894297b51cd42p-1
28919=0x1.3799404750925p-3
28922=0x1.fd82edf58b005p-4
28925=0x1.47dbea19df145p-2
28929=0x1.90a0be422e0dfp-1
29241=0x1.46a691bc84e65p+1
29565=0x1.866d1992130d7p+1
29654=0x1.7051cd845cc58p+0
29752=0x1.4923ce21b2dedp+0
29889=0x1.14705577309b1p+0
30083=0x1.4cdf83b9ccf05p+1
30213=0x1.9f8631fa0a7dcp+0
30294=0x1.06455fbc73726p-2
30780=0x1.c53a5b20157a8p-7
30861=0x1.b6a1f9b6614a9p+0
31104=0x1.51c8c147745f3p-1
31266=0x1.d1c8b91562398p-1
31278=-0x1.0edf5e4574f48p-3
31347=0x1.0c6a58dd5f75fp+1
31359=-0x1.10a8f9e4744b2p-3
31428=0x1.43991445e6f47p-4
31509=0x1.55bee0f18eb69p+1
31671=0x1.779f8c2324334p-1
31752=0x1.a5bcd2ebc88d6p+1
31833=0x1.a3794b94f9163p-2
32006=0x1.5a437027bdbap-2
32167=0x1.a0929eb6014d4p-1
32256=0x1.8a0ebd4d0eaa9p+1
32336=0x1.739a6fabb1679p+0
32417=0x1.34f1e75b63273p+1
32562=0x1.3f89d126afffcp-2
32654=0x1.80ec71dc84ce5p-2
32724=0x1.887ff0868a56ap+1
32886=0x1.a49a2ef192f34p-3
32890=-0x1.3558f4936fe3dp-3
32901=0x1.587ee3735b6dbp+2
32902=-0x1.0201d759af653p-1
32967=0x1.63d57fd188ae4p+2
33048=0x1.95ac10e4a4a51p-1
33050=-0x1.b9039f16a80b4p-3
33061=0x1.fde6000b1e3b5p-2
33129=0x1.55d2ebece0dfep+0
33134=0x1.78317afb8fe3ap+0
33135=0x1.afbc5bbf91b99p-3
33189=0x1.164d149ae050ap-2
33210=0x1.39ce3b83ec46dp+2
33291=-0x1.506c957c948d6p-1
33297=0x1.8581677d8435ap+0
33302=0x1.278f986f7327p-1
33303=0x1.9d6d7fc072835p+1
33312=-0x1.51df14f2952dcp-1
33316=0x1.1bbf330de2fd9p+1
33322=0x1.660092e29db85p-1
33453=-0x1.e2c817137348ap-1
33472=0x1.ec417d3b68eaap+2
33777=0x1.0bdbb3178700bp+2
33858=0x1.88e735b6e1d71p-1
33871=0x1.41444d38d6102p+0
33907=0x1.c6c9f57499206p+1
33952=0x1.57bd842e5fe2p+0
33964=0x1.360b7ff3c598dp-2
33988=0x1.09f737e2c0e6dp-1
34020=0x1.432ebb9efba44p+1
34101=0x1.f066227d31c31p-1
34184=0x1.a76fe7805932fp-2
34283=0x1.611e4f6183c06p+3
34344=0x1.08377869d4ac5p-1
34443=0x1.006961077dcb6p-1
34464=-0x1.482aeb2739517p-4
34506=0x1.63a1f4546149dp+2
34587=0x1.0b14677bbccecp+3
34629=-0x1.fb3135a93059cp-4
34673=0x1.f8fc4813b5a4ep-2
34760=0x1.da1c790943f55p+0
34830=-0x1.91d8cacfb80e6p+0
34832=-0x1.6787d079ed781p+0
34834=-0x1.1ff8b86a71776p-13
34841=0x1.0c4f5deee5ffcp+2
34845=0x1.5ed2c48e75871p-1
34846=0x1.cea5cf3b4c617p+0
34852=0x1.c56e75e782c0bp-1
34857=0x1.c404c5b52208ap+1
34862=0x1.2b316c22d79e5p+1
34868=0x1.b25beb6d51d14p-2
34872=0x1.b5530cd71b1aap-1
34878=0x1.1aa185e1fc73p+1
34911=-0x1.84b72a93ba65bp-3
34915=-0x1.02d8ad2680b74p+1
34926=-0x1.320f151c93a56p-2
34927=0x1.86078cb9361f4p+1
34943=0x1.3c7d1eb1f54e5p+1
34964=0x1.85ff9f510f464p+0
35073=0x1.cc4f574169e3ep-1
35080=-0x1.80e7164ea7c58p-1
35083=-0x1.16f3980c62b4dp-5
35084=0x1.9c190c486178p-3
35085=0x1.57b3560083446p-2
35100=0x1.67c55b9abd488p+0
35105=0x1.450da5a5a2001p+1
35111=0x1.fdceba11f35b5p+0
35115=0x1.517eb57e8d85ep+0
35127=0x1.99a291a89014ap-1
35235=-0x1.310dadcfacbabp+0
35245=0x1.a6b537a5a887ap+1
35271=0x1.acbd388e37d53p+0
35277=0x1.391f59733d795p+1
35316=-0x1.21205e2962106p-2
35327=0x1.6b80d1afde657p+0
35343=0x1.cef3e81175b61p+0
35353=0x1.96ae3f20ee29dp+0
35397=0x1.489ecc2916d1bp+1
35465=0x1.787b32711d74ap-2
35478=-0x1.94ab109964424p-3
35486=0x1.c91dc0efa1633p+2
35561=0x1.e899164c5413fp-4
35721=-0x1.16b05f40b6433p-2
35729=0x1.4ec3032e157c1p+2
35964=-0x1.f6d4543253568p+0
35966=-0x1.4c18b38ad302fp-1
35976=0x1.c9fb1f11052bap+1
35985=0x1.eeb7b73aae065p+2
36027=0x1.1da2ea743d391p+2
36045=0x1.b94fb94856dccp-1
36057=-0x1.dcdfde20d625ep-5
36100=0x1.36b09a39ff7f6p-3
36126=0x1.7a6690a4a8d2p-5
36212=-0x1.5d5e5d9bbf2aap-1
36237=0x1.2c1641c2d1e89p-3
36262=0x1.61c5468a829ffp-1
36402=0x1.f0c60a1bc9611p+0
36450=0x1.0a5fd270a0356p+1
36521=0x1.d40813067060ap+1
36538=0x1.403524cfc0d4ap+0
36612=0x1.a9cc907b649a5p+1
36619=-0x1.0967861e9cfdp-1
36693=0x1.c42872985a856p+0
36774=0x1.87af08075d96ap+2
36778=-0x1.73afbb278bc1p-6
36855=0x1.48866b98d5a56p+0
36946=-0x1.076d63c400835p+0
36957=-0x1.d8439adf559e6p-6
36963=0x1.6a24663d4cabep-1
36978=0x1.cf01d6f49e685p+1
36990=0x1.9adad0ffb9713p-4
36999=0x1.1600d2672efa9p+0
37017=0x1.4b76893e6e283p-3
37098=0x1.695bacb19b2f4p-1
37100=-0x1.1dfbd55688ed4p-1
37102=0x1.03a58343b5a45p+2
37103=-0x1.12df2d5750705p+1
37108=-0x1.2c7c457624ff2p-4
37109=-0x1.3ddf21f5c65c3p+1
37113=-0x1.b05d3211f2c42p-2
37114=-0x1.132ed3af10065p-1
37125=0x1.0c96517ba7ecap-1
37128=0x1.15b9d1378b433p-1
37140=0x1.7aee3292c90e4p+0
37146=0x1.64a75ca3b53b1p+1
37153=0x1.8356add5cdb54p+0
37156=0x1.36ec4ac032233p+1
37183=-0x1.4639d4275e2d2p+0
37201=0x1.347f570f5f38ep+1
37211=0x1.72df9fe22fe31p+1
37227=0x1.896f612daf85ep+0
37424=0x1.b4d8f6a7c8aa3p-3
37426=0x1.79e44f7a01d75p+1
37503=-0x1.743c7ce649962p-1
37526=0x1.5d2a5497824eep+3
37590=-0x1.6df3e28c8b044p-3
37614=0x1.c26ac72766a19p+0
37667=-0x1.07765b2f292d4p-1
37669=0x1.820c4c28e91e1p+1
37728=0x1.13a5c04108bc7p+1
37989=0x1.dc0f4db10d4e4p-2
38232=-0x1.73fa08ccef669p-1
38240=-0x1.a699b8b8e670ep-3
38250=0x1.ca008dc9d842dp+1
38271=0x1.d2ca1b0f6e25bp+0
38278=0x1.cd74e9babee82p-2
38319=-0x1.05efd1d73543ap-1
38323=-0x1.09fbbb14e70dp-4
38331=0x1.e3e07e12c7f64p-5
38343=0x1.270a8af9de0d6p-1
38348=0x1.ffcab81453533p-1
38355=0x1.76f3a8b6dca48p-2
38411=0x1.f9553a815df33p+0
38492=0x1.58d3891e16e73p+0
38515=0x1.9fbeeee4fe4c5p+0
38522=0x1.9efc47ee0cfbap-2
38573=0x1.154736ad5e3fdp+0
38583=0x1.7d2a1394b2569p-2
38718=0x1.1b7dcfad8b837p+0
38730=-0x1.c994ac9077aeep-1
38735=0x1.a7cc36d1c6d5p+1
39123=0x1.5bb103ae2affap+2
39125=-0x1.0331d87053fbap-5
39204=0x1.97061132d7845p-3
39214=0x1.48369e2fc6fd1p-5
39215=0x1.b25a34fe863f6p-4
39223=0x1.19d1813e24fb5p-4
39225=0x1.afcb989a87b0ap-6
39235=0x1.b9a6e8d86c0a8p-2
39374=0x1.10c73b954adb5p+3
39451=0x1.9e3c7148b604ap+0
39476=0x1.c50c67256afa1p+0
39557=0x1.0e7d891c2efe9p+0
39690=0x1.0776a9fd44e99p+2
40095=-0x1.406dc8cf0efc3p-4
40106=0x1.7df1061ee2a5ep+1
40338=0x1.0c1f4a07c8106p+1
40500=0x1.4d9eb4c13430dp+0
40504=-0x1.abcadd2b3a0aep+0
40516=0x1.1e60a39a2695p+0
40581=-0x1.7806c42a4e6fep-3
40592=0x1.59f7e9b13ed9fp+1
40608=0x1.fd8ddbf014fbcp-1
40667=-0x1.4e789cf9d06e5p-2
40717=0x1.afe57609b5ccfp-1
40749=-0x1.947421a711378p-2
40773=0x1.2c6e159685253p-1
40824=0x1.9129a69d21fe2p+1
40988=0x1.c93129a514094p+1
41002=0x1.1c73e6af43f76p-1
41008=0x1.0720edd0801f7p+1
41067=0x1.9fc1b47276fcp+1
41229=0x1.6bdd16b97024dp-1
41391=-0x1.8b28e1c21afc7p-7
41395=0x1.0a8b712ef1cefp+0
41401=0x1.ec79ce4e6849fp+0
41555=-0x1.43a38fa08fc06p-4
41557=0x1.bce52cf2a091bp-1
41569=-0x1.6b6fd40927c2p-3
41601=0x1.4dacc6fdf709p+0
41634=0x1.99cfa2d70c72ep-2
41641=0x1.998afd330344bp+1
41683=0x1.a2571333f85d4p-1
41715=0x1.2334ba679ce5fp+0
41796=0x1.619ae90f2066dp+0
41887=0x1.90245281585edp-4
42039=0x1.177edae4a0ba9p+0
42120=0x1.b95677cd4f6f1p+1
42363=0x1.7c14fc496282p-1
42373=0x1.a0db8dfe05a57p+0
42405=0x1.0fe300da2a524p+1
42444=-0x1.2e7cf3bdfac06p-3
42455=0x1.8189a69a075d2p+0
42471=0x1.1153dc3e84fe7p+1
42606=0x1.1d30ed6b40f1p+2
42687=0x1.79e8f46166598p-1
42770=-0x1.df8c302fc4fccp-1
42772=0x1.efc2c30325d2p-5
42784=0x1.8246014a5ae6bp+0
43254=0x1.484f1a3791249p-1
43335=0x1.484f1a3791249p-1
43416=0x1.a3d543cfe5233p+0
43821=-0x1.a43bb3bfcbfa1p-4
43846=0x1.b6bcc8f9dfc9cp+1
44090=0x1.9339a672b70b6p+1
44145=-0x1.2b34fbb023514p+0
44151=0x1.57d9236bd5b33p+2
44388=0x1.909ff0ff566dbp+1
44494=0x1.be490fea84c6bp-5
44498=0x1.f4e5bcddc0738p-3
44550=0x1.176cd05980b5ep+0
44631=0x1.74396dc2128f4p-4
44643=-0x1.79caf0f4c72b1p-4
44651=0x1.5b155881bfd1ep+2
44664=0x1.6cf16e3cf749bp+2
44712=0x1.86689ea94785ap+0
44722=0x1.5723359e30a9ap-3
44804=0x1.5bda27549fbc6p-3
44820=-0x1.cbbc6d224603p-4
45117=-0x1.1157bdcb71b8p+0
45122=0x1.709dd0bd52fc1p+2
45125=-0x1.342e1eacf814bp-2
45172=0x1.b202c57f91074p+1
45198=0x1.56b42ef149668p+1
45205=0x1.5d7fbea6bc9cap+1
45249=0x1.ff6e36cae7302p+0
45285=0x1.5a6a585da54d9p+0
45297=0x1.3a376f3c1c9d9p-2
45360=0x1.1f1cbd9e15f7cp+2
45441=0x1.fce7cf5c546f2p-1
45446=0x1.5ef15e260abd5p-2
45475=0x1.6bafd3d14510bp+1
45539=0x1.8956a8a8d4725p-2
45565=0x1.91d3b200cc03ep+1
45603=0x1.20ef10efb899cp+1
45684=0x1.15d122fc55e75p+2
45818=0x1.ebc8a00a30d5ep+1
45862=0x1.3c6e8afb619f1p+0
45878=0x1.522c6e5c16ae9p-2
46010=0x1.ef901b3dba055p+0
46012=-0x1.816493bbbd2ccp+0
46024=0x1.b2cd211bf613cp+0
46040=0x1.098909b315fddp-1
46089=-0x1.6e6d1b4212484p+0
46103=0x1.1447c3a730e25p+2
46115=0x1.1c01a92130b87p+2
46251=-0x1.271a17f43a768p+0
46258=0x1.4ec967790d739p-8
46270=0x1.2018ffbebed92p+0
46358=0x1.15b847ba1338p+2
46413=0x1.72dee17e4925ap+1
46577=-0x1.47476a46a995bp-1
46579=-0x1.8f4d6ddb5b74dp+1
46591=0x1.cfaeff4d8a046p+0
46597=0x1.40763980deca9p-2
46618=0x1.1a9b225ca7d2ap+0
46656=0x1.0eba2d7e6943ep-1
46899=-0x1.7b8b5a1add75dp-3
46907=0x1.2e0a225ef74bep+3
47009=0x1.254f8651daa8cp+0
47090=0x1.3b659c6f2fa02p+1
47122=0x1.924a68f1a9ec9p-3
47412=0x1.1627cc666bb1bp+1
48033=0x1.e00bf663195fcp-1
48276=0x1.530ade2b3b72dp+1
48440=-0x1.d0a01343eed4dp-3
48442=-0x1.c4d884adfa59ep-2
48453=0x1.087420c23b7a4p+2
48454=-0x1.f94ac6fa9c4f7p-2
48510=0x1.4994dd869b10cp+1
48519=0x1.9c0730f2063fbp+1
48762=-0x1.d248489599c91p+0
48776=0x1.e960c8fcac96p+0
48786=0x1.301f5232bffcap+0
48788=0x1.96c41ef228deap+1
48882=0x1.f64cefa90f5dcp-4
48964=0x1.fbfdba0534626p-4
49005=0x1.70b7a0bec61bbp+2
49167=0x1.6f9dedd9b0596p-1
49210=0x1.8e6e946e07197p+0
49212=0x1.3fada11c407b8p-1
49220=0x1.204d0f2272452p+0
49329=0x1.4ac782dce09fcp+1
49330=0x1.aa41b23e1aae5p-1
49352=0x1.aa305ee30d6p+0
49378=0x1.37137aba614b6p-1
49410=-0x1.beaba82696f14p-2
49438=0x1.ed10f0bb14d9p+2
49572=0x1.3518de86c8069p+1
49628=-0x1.50da0b625af7p-2
49896=0x1.926bfa5f8144cp+0
49934=-0x1.0307cb012db18p-2
49952=0x1.411661bbe7bf7p+3
49977=-0x1.23e630f5359c2p+0
49978=0x1.f53efd374583ep+2
50058=0x1.1573b22655cfp+0
50060=0x1.6b24837fc914dp-2
50062=0x1.368dcad6714b9p+0
50063=0x1.4004592d7463cp-2
50064=0x1.1ffb7728acd5ap-4
50087=0x1.bf0587399cdaap-2
50223=-0x1.329ca32d06f75p-5
50284=0x1.2f7e624fee7b4p-3
50625=-0x1.8f24ce8c271dcp+0
50631=0x1.c461dd4ecbba7p+2
50655=0x1.047bb6313ed54p+2
50787=0x1.6183ee1c25d1p-1
50815=0x1.11dc40d9d48a7p+0
51122=0x1.877a0e523654ap-2
51221=0x1.2adb128f17acap-1
51695=0x1.51d08b02388fbp+0
51759=-0x1.4906f15bb7c8fp+1
51761=0x1.1963b0d2de2e2p+2
51763=0x1.698650fa8b082p+2
51775=0x1.37541cef1c0cbp+1
51840=-0x1.3ecca3075e6f7p-1
51848=0x1.03ffe2b19002bp+3
51970=0x1.5d6895ea15948p+0
52083=-0x1.0e1fe16ca6a3fp-1
52112=0x1.2798cc8ae735ap+1
52344=-0x1.284810d6cc11ap-1
52349=0x1.6c00ea95760e2p+1
52365=0x1.e9163d0dc6994p-1
52407=-0x1.c2fe285ca0a1bp-2
52409=-0x1.54a6fb1f6d8c7p-2
52411=0x1.ed0533f1ac889p-1
52412=0x1.4e0e25169b3f8p-4
52417=-0x1.bff464e3125e3p+0
52424=-0x1.57f6aad503db5p-1
52425=-0x1.0444d119796a6p+0
52430=0x1.42fb1575ab2dcp+0
52446=0x1.e28e17df2caf2p+0
52447=0x1.f4feef6ab9017p-1
52449=0x1.c191f00342243p-1
52465=0x1.4fd1d4a925bbp-2
52488=0x1.f5193b674fc89p+0
52731=0x1.aae8fdc4a8e2ep+1
52915=0x1.5833f8f2d4c8dp-1
52989=0x1.b6ea58c72b3ffp+2
53240=0x1.29f21849f5c0bp+1
53379=0x1.1bc0bc4d05051p+2
53622=0x1.02d6fe2e8016fp+1
54108=0x1.4cf14776896eep+2
54218=0x1.ae08888279d1ap+1
54270=0x1.c87a5b1609f78p-8
54272=-0x1.6e3091d52f9e6p+0
54292=0x1.43f45a2e94276p+1
54351=0x1.07237075ca089p-1
54369=0x1.7b63c81041de3p+1
54390=0x1.bb0a0b5e91ap+0
54397=0x1.0fb64f28ddd4dp+1
54449=0x1.ec072f978e7dbp-1
54472=0x1.bb07f6124f2bap+0
54479=0x1.09eb37da1909p+1
54865=0x1.6c9fe62d1fa15p+3
54918=0x1.fdf33d0e0f6f1p-2
55017=-0x1.16c8cd6315e94p+0
55038=0x1.1746719631fadp-1
55059=0x1.9b2cd03547e13p+0
55080=0x1.569d32e7a28a3p+2
55161=-0x1.55e765ccae09cp-3
55167=0x1.07f1bdbebce94p-5
55170=0x1.43960c268d97cp-5
55242=0x1.1704ecd6ea3dp-2
55247=0x1.29f2f5bb4236p+0
55248=0x1.73a6c3dbbf43p-1
55250=0x1.95175139468aep-2
55251=0x1.7f64a3c7be8e9p-4
55291=-0x1.53d27c13e27a7p-7
55323=0x1.bfa8c55ef2877p+0
55485=0x1.f7919d331d9e7p-2
55574=0x1.d58da93ffe708p+2
55647=-0x1.0f68d5b9d786p-10
55676=0x1.5a694343731a7p+1
55689=0x1.d1b5895c16d14p-2
55809=0x1.0ac61a787bf16p+2
55811=0x1.6b3362c920c44p+0
55890=-0x1.28480b9329aafp-2
55892=0x1.5b8f2b1589b63p+1
55894=-0x1.7371ca72c00ffp-1
55900=0x1.d570341326fa2p-1
55911=0x1.03dd557e69e7ap-2
55932=-0x1.55947787ecbd2p-5
55941=0x1.9dd38477d3689p-2
55971=-0x1.34dc40e459123p-3
55975=0x1.41248839345e2p+1
55976=0x1.0dcf25d1c49f6p-2
55982=0x1.67f1141964e99p-1
55998=-0x1.ffec5e3d67466p-2
56036=0x1.44e076fd23bb8p+0
56052=-0x1.58bc87e8c8e8ap+0
56059=0x1.25fe785cdab0bp-3
56062=0x1.0c6ca0b5f2122p+2
56094=0x1.24a1e7ef0d9e7p+1
56101=0x1.31ba6544129fbp+0
56225=0x1.5b30c14be7baap+1
56241=0x1.6ee6de0062b24p+0
56257=0x1.7fe4bb320565p-3
56381=0x1.26271e1276be1p-3
56387=0x1.49380c805d79cp-1
56427=0x1.6ea97de35ddap-5
56538=0x1.350d829a6f80cp+2
56619=0x1.b826b436b7175p+1
56700=0x1.d176240011b11p-1
56719=0x1.5cac11f0c6655p+1
56783=0x1.2a732df582ad2p+0
56791=0x1.038bf4b4909cfp-2
56802=0x1.3eb7a9446f274p-1
56836=0x1.7a7fd30b1b2d5p-4
56862=0x1.c5adc0f907142p-1
56864=0x1.5d3ad6402f67p-2
56872=0x1.d747d95ebde86p-2
56913=0x1.926812876b55ap-2
56949=-0x1.20900cee6d503p-1
56953=0x1.936fef628afb4p-3
56954=0x1.57ae3c6733ac7p+0
56973=0x1.90d5f957379dep-1
57267=-0x1.e12204acd5233p-1
57278=-0x1.a9c773f30870bp-6
57294=0x1.0c0379d71c1d4p+1
57326=0x1.355d0715e5d1ap-3
57333=0x1.568e1ab06672p-1
57434=-0x1.b3d1385bffe09p+0
57484=0x1.352543abc1934p+1
57511=0x1.0596198f02b45p+3
57998=0x1.6e146622ebdf5p-1
58002=-0x1.398b1acdcb961p-2
58006=-0x1.d7393d39cb3e9p-5
58026=0x1.df6fa0ceba8a6p-1
58071=0x1.0a29eeaacc8ffp-2
58077=-0x1.e3593e347778p-3
58094=0x1.0d1ad75ce0878p-7
58105=0x1.6a095337fb512p-1
58153=0x1.b8f46b5a7990fp-2
58158=0x1.51106e2395b2ap+1
58239=-0x1.035942408fcp-3
58262=0x1.805f1ba9c1917p+1
58288=0x1.f57dbfc87bbdfp-2
58320=-0x1.06ae89d42d16p-2
58343=0x1.681349e8f103fp+0
58369=0x1.8cc5c71665d78p+1
58401=0x1.e31ff6c71cf6bp+1
58563=0x1.e4428cacb488cp+1
58644=0x1.377d686e75c74p-1
58725=0x1.3967803a92d3fp+0
58748=0x1.36462a0217ceap-1
58887=-0x1.c55fd789b1726p-1
58907=0x1.6f45612810113p+3
58968=0x1.043c5ae066e36p+0
58970=0x1.028778f93ba8p+0
58996=0x1.fb3bd279718c8p-5
59051=0x1.bf4681188d2fbp-2
59373=-0x1.b4aaa312800b2p-4
59395=0x1.4e7b95ce76164p+1
59405=0x1.5588aef0754c8p+1
59454=0x1.cd17cdb6777bcp+1
59616=-0x1.ffb638a4840afp-3
59618=-0x1.5f48afcdf2c1cp+0
59620=0x1.e206d8810e22ep+1
59632=0x1.8654c62d24364p+0
59664=0x1.d72c301cd85b8p+0
59785=-0x1.8e0ac1147700dp-3
59832=0x1.11a4857d90e4ap-1
59890=0x1.3d07588ac895dp+1
60102=0x1.79cac6cee63afp+1
60202=0x1.714e23937f64p-2
60264=0x1.323a525fcddep+1
60345=0x1.defc0f8a44bfep+0
60509=-0x1.27dcffa83bf4cp-3
60529=0x1.ba25e8d2af947p-2
60588=0x1.16a5ee945ff37p+2
60831=0x1.62348189d004dp+2
60912=-0x1.353dcb3742521p-3
60924=0x1.e7efcb83869abp-1
60995=0x1.6fe9cde619898p+0
61001=0x1.0f96a2eb4edb7p-1
61074=-0x1.76c5aece0ce72p-5
61083=0x1.c151cf3f9285ap+1
61238=0x1.d56ab0e6c17e8p-2
61328=0x1.ea795b7a48ac2p+1
61572=0x1.e8dcf7b4073a8p+2
61641=-0x1.f91aea1dbbbap-5
61647=0x1.f023dc54adaccp+0
61755=0x1.d823f50c14637p-2
61814=0x1.1677abb011cf6p+1
62055=0x1.8468865851798p+2
62224=0x1.8885485b0f0d1p+1
62549=0x1.de61dc54ca739p+0
62631=0x1.8d8c61c5151bp+0
62652=0x1.0418ac7f3d067p+0
62711=0x1.6cf0edb8adf3fp+1
62792=0x1.0faca3188d393p+0
62815=0x1.8e1517e114ee3p-1
63099=-0x1.1862a01068214p-1
63133=0x1.92d6ee5529b76p+1
63214=0x1.0e7fe33a02ed5p+2
63261=0x1.fefd0d5bdd778p-10
63342=0x1.ce2e87e087f97p-1
63423=0x1.232c4dcd2c574p-2
63666=0x1.0e692cdbdaa18p+1
63828=0x1.8faad39368f35p-1
63990=0x1.95681163f3d7bp+0
64163=0x1.3fe17e528025ep+2
64476=0x1.57a4c7c6e2393p-1
64557=0x1.3fd930ce108d4p+1
64739=0x1.1dcb77e415a5p+0
64889=0x1.6e2791d830b4p-2
64970=0x1.a34fb4fc75bcdp+1
65205=0x1.77fb995e45f5bp-1
65228=0x1.0dc3922c90a64p+2
65382=0x1.633e1f9b82bc2p+2
65448=0x1.2ab711f417654p+2
65610=0x1.3a5a1e80b64c8p-6
65625=0x1.944c3953b3ca7p+2
65699=0x1.02c81e8be9184p+3
65772=0x1.c6e601f934d86p-1
65882=0x1.fb0839115451bp-2
66015=0x1.28f19048b94e3p+1
66025=0x1.23f7712a396ffp-1
66057=0x1.5071b97511b3ep+1
66096=-0x1.8024f267342efp+0
66104=0x1.10d7895dcac8ep+2
66183=0x1.02fa66b38a43cp+0
66185=0x1.e1b3b3b3412b9p+0
66204=0x1.219a6fc7b53cap+1
66671=0x1.2a994000f7984p+0
66906=0x1.98e3ed53ebb85p+1
66921=-0x1.d2a543754bd31p-2
67160=0x1.3cba443c8440fp+0
67176=-0x1.52550e0251dffp-4
67186=0x1.0edcd4ed471c7p+1
67252=0x1.27cdc10bc6a03p+1
67262=0x1.ce14728214f5ep-1
67473=0x1.4730d6fbfb65cp+0
67716=-0x1.d6450ac8f868ap-1
67738=0x1.1d6925ba291bap+1
67748=0x1.5b1fa3ecf7b96p+1
67764=0x1.bec64709ef928p+1
67959=0x1.3d91cefdffb4ep+2
68132=0x1.457d615b5b575p+0
68143=0x1.444cf99e51e17p+0
68202=0x1.9776033cea29ap+1
68402=0x1.c74f3d1d3a3cap+0
68483=0x1.51c97c89551adp+1
68688=0x1.5de7162814723p+2
68769=0x1.424b9d9a303ddp-1
68850=0x1.1018330cf0c7ep-1
68854=-0x1.c0d69ff2d3994p-1
68866=0x1.005b7b2889ba1p+1
68931=0x1.10bb5d5562016p+1
69455=0x1.cad5c4776ae6fp+0
69498=0x1.0f459d5612b0ep+1
69502=-0x1.a8345082a243p-3
69741=-0x1.64c59902ebbecp-2
69769=0x1.200b6d3091444p+3
70077=0x1.69bbbd664d643p+0
70308=0x1.81368c0a68d91p-4
70389=-0x1.922c25b311c7bp-1
70407=0x1.70f6898596123p+1
70428=0x1.79357ec0de5a9p+0
70464=0x1.828e245c3c329p+1
70470=-0x1.c8055fe7c5e15p-1
70487=0x1.08471c9f2a1fep+0
70510=0x1.ab4d56aacaa89p+0
70546=0x1.9fe8dc516960cp-1
70568=0x1.b98be6bd29aa5p+0
70591=0x1.700ff1fa4af93p+0
70627=0x1.7fe84b2368b01p+1
71118=0x1.a9f3145186735p-3
71233=0x1.5f01386faeec8p-1
71296=0x1.48c9ba9001f13p-2
71361=-0x1.7d23f8ad3c541p-1
71402=0x1.3cbb150eacf16p+3
71523=0x1.fe796f001b893p+0
71604=0x1.063e29ee6c071p+2
71823=0x1.0190369ddf4dap+2
71902=0x1.355bc1b1497e2p-6
71958=0x1.27a2d019e3615p-4
72252=0x1.1f44d87de8c91p+1
72520=0x1.5c069d83440f3p+2
72576=0x1.6b56bc782cd8dp+0
72838=0x1.f32abf1867226p+2
72981=0x1.ac4d66360e37cp+1
73000=-0x1.57d5c55575811p-2
73073=0x1.6b4e3ef8df1afp+0
73143=0x1.66da1a0ede361p+1
73236=-0x1.55ec93ef6c154p-1
73266=0x1.69cf9ef3e0aacp+1
73287=0x1.2d7263c9f68c6p+1
73305=0x1.883dbb265f945p-1
73309=0x1.bc102339eda93p+1
73332=0x1.12c771798ad6bp-1
73363=0x1.19fcb6deb1628p-1
73477=0x1.0a702b8a3be73p+1
73559=0x1.5c37fcf35e82cp+1
73640=0x1.4214c9aa56f2ap+0
73814=0x1.f5b3a0f396a32p-1
73872=0x1.c54744f110ed8p-1
73953=0x1.1ee91362c6fd9p+0
74147=0x1.188af96218b9cp+2
74239=0x1.e5eb232b6424p+0
74547=0x1.b690ee8675e1ap+0
74741=0x1.9a207c33a4532p-3
74763=0x1.1b96f6dd9214bp+0
74925=0x1.ad9e8beba4bf8p-3
75006=0x1.cc746d3452276p-1
75168=0x1.f966a161c8998p-2
75253=0x1.071a7f17056a3p-4
75415=0x1.4bf0aa2da03a2p+0
75747=0x1.60f4238e60dabp+1
76018=0x1.1f4af3c29f6e9p-3
76059=0x1.4e3c1026a7e68p+0
76140=-0x1.c3b9b12b94affp-1
76183=0x1.17ee6f34fb563p+3
76221=0x1.32f2c1167ba72p+1
76383=0x1.c170af269a91dp+1
76707=-0x1.68575d9a988ddp+1
76719=0x1.54344b96b60f4p+2
76724=0x1.e891f27543e57p+0
76735=0x1.b848159185244p+1
76747=0x1.41b1c386cc91dp-3
76822=0x1.5f9b0c0995cd5p+0
76877=0x1.91ad93e7394bdp-1
76950=-0x1.e2472d1504103p-1
76952=-0x1.abe489483dedcp-2
76956=0x1.259d77cb28477p+2
76980=0x1.0549d7ce54a5ap+2
77031=0x1.0c210cd17d7cp+1
77285=0x1.fc0c7df9d67b4p-2
77355=0x1.403563805167ap+0
77610=0x1.87c515980d6c1p+1
78086=0x1.d2b755d0765d5p+1
78651=0x1.a9b2c0e7c7387p+1
78732=0x1.0576ef04325efp+1
78830=0x1.1cfdf7ab0a09cp-1
79542=0x1.022f65823cddep+2
79544=-0x1.b5e9e7e2abd5ap-4
79623=0x1.51d6628995d9fp-4
79785=-0x1.9dc05c85abd26p-4
79810=0x1.28f2e522b3c02p+2
80190=0x1.3ec457cb2fc56p-2
80194=-0x1.efb45ed3ac608p-5
80271=0x1.3ec457cb2fc56p-2
80275=-0x1.efb45ed3ac608p-5
80531=0x1.a1c2c4e614887p+1
80554=0x1.70cd871b8c5ap-1
80693=0x1.90282c814ed4p+0
80757=-0x1.851a270099a91p-1
80763=0x1.80eb81d9fc1c9p+2
80787=0x1.14799ede8076fp+1
81000=-0x1.8b6578c69e3c7p+0
81011=0x1.2fda000eca0f5p+2
81364=0x1.7df31f62a185bp-1
81405=0x1.b41cd0af89d14p-7
81583=0x1.fa5fb07b7d5cap+0
81648=-0x1.5653ce0b4e1d5p-1
81649=0x1.11ff693439d5ap+3
81820=0x1.4ea97d7183d3ap-2
81891=-0x1.009df702bab1ap+0
81895=0x1.09ecca491bf4ap+2
81907=0x1.eb9f4a8b4f755p+1
82647=0x1.51e81e213d6bp-9
82701=-0x1.66399ad101aa2p-1
82709=0x1.90c15e520168bp+2
82892=0x1.00aeb6f881b63p+0
82973=0x1.ff6b59a38ff34p-1
83196=0x1.df5b8bd7e50e8p+1
83441=0x1.750c5b23681eep-1
83684=0x1.5530a7b690227p-1
83700=0x1.2585f4a4db67bp-3
83732=0x1.c9474481748dp-3
83738=0x1.b0cfad0827a5cp+0
83739=0x1.b27f1d92556bep-3
83754=-0x1.556d82458e0a5p-4
83758=-0x1.aeb25d6d915e2p-1
83765=0x1.da52757bc96cbp+0
83781=0x1.03e9ae641c04ep+2
83813=0x1.b8223771c88b8p-4
84095=0x1.1a9d65d81c0fap+2
84321=0x1.bbc8b0dbe1fa3p+1
84406=0x1.dbcb3180737cap-2
84483=0x1.8c8490ef53415p-2
84604=0x1.7c4ac8355c61dp+0
85050=-0x1.dfcf131ede575p-4
