#mdl#2#3223
#rdr#3/0/0
10:u0:%x[0,0],
12:u-1:%x[-1,0],
12:u-2:%x[-2,0],
#qrk#81
1:O,
15:B-cost_relative,
19:B-fromloc.city_name,
20:B-fromloc.state_code,
17:B-toloc.city_name,
22:B-depart_date.day_name,
27:B-depart_time.period_of_day,
27:B-depart_date.date_relative,
14:B-airline_name,
13:B-flight_time,
27:B-depart_time.time_relative,
18:B-depart_time.time,
12:B-flight_mod,
14:B-airline_code,
20:B-fromloc.state_name,
19:B-stoploc.city_name,
11:B-city_name,
24:B-depart_date.day_number,
24:B-depart_date.month_name,
9:B-connect,
12:B-round_trip,
24:B-depart_time.period_mod,
22:B-fromloc.airport_name,
13:B-flight_stop,
12:B-state_name,
15:B-aircraft_code,
18:B-toloc.state_name,
18:B-arrive_time.time,
12:B-class_type,
15:B-flight_number,
27:B-arrive_time.period_of_day,
16:B-transport_type,
14:B-airport_name,
8:B-return,
18:B-depart_date.year,
15:B-period_of_day,
15:B-time_relative,
6:B-time,
13:B-fare_amount,
24:B-arrive_date.month_name,
24:B-arrive_date.day_number,
6:B-meal,
27:B-arrive_time.time_relative,
18:B-meal_description,
12:B-state_code,
9:B-economy,
24:B-return_date.month_name,
24:B-return_date.day_number,
20:B-toloc.airport_name,
5:B-mod,
13:B-flight_days,
28:B-depart_date.today_relative,
18:B-restriction_code,
17:B-fare_basis_code,
27:B-arrive_date.date_relative,
22:B-arrive_date.day_name,
4:B-or,
11:B-meal_code,
24:B-arrive_time.start_time,
22:B-arrive_time.end_time,
22:B-fromloc.airport_code,
20:B-toloc.airport_code,
14:B-airport_code,
24:B-arrive_time.period_mod,
18:B-toloc.state_code,
24:B-depart_time.start_time,
22:B-depart_time.end_time,
16:B-today_relative,
28:B-arrive_date.today_relative,
10:B-day_name,
20:B-stoploc.state_code,
27:B-return_date.date_relative,
22:B-stoploc.airport_name,
22:B-return_date.day_name,
11:B-days_code,
12:B-month_name,
12:B-day_number,
20:B-toloc.country_name,
28:B-return_date.today_relative,
24:B-return_time.period_mod,
27:B-return_time.period_of_day,
#qrk#2836
6:u0:i'd,
8:u-1:_x-1,
8:u-2:_x-2,
7:u0:like,
7:u-1:i'd,
8:u-2:_x-1,
5:u0:to,
8:u-1:like,
7:u-2:i'd,
7:u0:find,
6:u-1:to,
8:u-2:like,
6:u0:the,
8:u-1:find,
6:u-2:to,
11:u0:cheapest,
7:u-1:the,
8:u-2:find,
9:u0:flight,
12:u-1:cheapest,
7:u-2:the,
7:u0:from,
10:u-1:flight,
12:u-2:cheapest,
13:u0:washington,
8:u-1:from,
10:u-2:flight,
5:u0:dc,
14:u-1:washington,
8:u-2:from,
6:u-1:dc,
14:u-2:washington,
10:u0:atlanta,
6:u-2:dc,
6:u0:i'm,
12:u0:traveling,
7:u-1:i'm,
13:u-1:traveling,
7:u-2:i'm,
9:u0:dallas,
13:u-2:traveling,
10:u-1:dallas,
15:u0:philadelphia,
10:u-2:dallas,
4:u0:i,
7:u0:also,
5:u-1:i,
7:u0:need,
8:u-1:also,
5:u-2:i,
8:u-1:need,
8:u-2:also,
5:u0:go,
8:u-2:need,
6:u-1:go,
16:u0:san-francisco,
6:u-2:go,
5:u0:on,
17:u-1:san-francisco,
12:u0:wednesday,
6:u-1:on,
17:u-2:san-francisco,
10:u0:evening,
13:u-1:wednesday,
6:u-2:on,
11:u-1:evening,
13:u-2:wednesday,
11:u-2:evening,
8:u0:thank,
6:u0:you,
9:u-1:thank,
7:u-1:you,
9:u-2:thank,
7:u-2:you,
9:u0:travel,
7:u0:next,
10:u-1:travel,
8:u-1:next,
10:u-2:travel,
8:u-2:next,
6:u0:fly,
23:u0:continental-airlines,
7:u-1:fly,
10:u0:between,
24:u-1:continental-airlines,
7:u-2:fly,
9:u0:boston,
11:u-1:between,
24:u-2:continental-airlines,
6:u0:and,
10:u-1:boston,
11:u-2:between,
7:u-1:and,
10:u-2:boston,
9:u0:please,
7:u0:tell,
10:u-1:please,
5:u0:me,
8:u-1:tell,
10:u-2:please,
6:u-1:me,
8:u-2:tell,
10:u0:flights,
6:u-2:me,
11:u-1:flights,
11:u-2:flights,
16:u-1:philadelphia,
7:u-2:and,
11:u0:thursday,
16:u-2:philadelphia,
8:u0:would,
9:u-1:would,
9:u-2:would,
7:u0:fare,
8:u-1:fare,
8:u-2:fare,
11:u-1:atlanta,
11:u-2:atlanta,
4:u0:a,
5:u-1:a,
5:u-2:a,
7:u0:give,
8:u-1:give,
8:u-2:give,
15:u0:flight-times,
16:u-1:flight-times,
16:u-2:flight-times,
12:u0:baltimore,
5:u0:in,
13:u-1:baltimore,
6:u-1:in,
13:u-2:baltimore,
10:u0:morning,
6:u-2:in,
9:u0:before,
11:u-1:morning,
4:u0:8,
10:u-1:before,
11:u-2:morning,
24:u0:times-of-your-flights,
25:u-1:times-of-your-flights,
25:u-2:times-of-your-flights,
12:u0:8-o'clock,
10:u0:leaving,
11:u-1:leaving,
11:u-2:leaving,
7:u0:what,
8:u-1:what,
5:u0:do,
8:u-2:what,
6:u-1:do,
7:u0:have,
6:u-2:do,
8:u-1:have,
9:u0:denver,
8:u-2:have,
10:u-1:denver,
11:u0:arriving,
10:u-2:denver,
12:u-1:arriving,
12:u-2:arriving,
5:u0:is,
7:u0:your,
6:u-1:is,
7:u0:last,
8:u-1:your,
6:u-2:is,
8:u-1:last,
8:u-2:your,
8:u-2:last,
8:u0:there,
9:u-1:there,
9:u-2:there,
7:u0:does,
20:u0:american-airlines,
8:u-1:does,
21:u-1:american-airlines,
8:u-2:does,
21:u-2:american-airlines,
7:u0:time,
8:u-1:time,
11:u0:earliest,
8:u-2:time,
12:u-1:earliest,
12:u-2:earliest,
5:u0:of,
6:u-1:of,
6:u-2:of,
8:u0:could,
9:u-1:could,
9:u-2:could,
14:u0:information,
13:u0:concerning,
15:u-1:information,
14:u-1:concerning,
15:u-2:information,
14:u-2:concerning,
6:u0:one,
7:u-1:one,
7:u-2:one,
5:u0:as,
11:u0:possible,
6:u-1:as,
19:u0:american-airline,
20:u-1:american-airline,
20:u-2:american-airline,
16:u0:early-morning,
18:u0:times-of-flight,
17:u-1:early-morning,
6:u0:twa,
7:u-1:twa,
7:u-2:twa,
13:u0:fort-worth,
8:u0:texas,
14:u-1:fort-worth,
9:u-1:texas,
14:u-2:fort-worth,
9:u-2:texas,
13:u0:interested,
14:u-1:interested,
14:u-2:interested,
7:u0:that,
8:u-1:that,
7:u0:stop,
8:u-2:that,
8:u-1:stop,
8:u-2:stop,
13:u0:pittsburgh,
6:u0:for,
7:u-1:for,
7:u-2:for,
14:u-1:pittsburgh,
14:u-2:pittsburgh,
7:u0:want,
8:u-1:want,
8:u-2:want,
9:u0:monday,
11:u0:airlines,
12:u-1:airlines,
12:u-2:airlines,
9:u0:ground,
17:u0:transportation,
10:u-1:ground,
18:u-1:transportation,
10:u-2:ground,
18:u-2:transportation,
10:u0:airport,
11:u-1:airport,
11:u-2:airport,
11:u0:downtown,
10:u0:tuesday,
15:u0:twenty-first,
12:u0:repeating,
13:u-1:repeating,
13:u-2:repeating,
7:u0:10am,
8:u-1:10am,
10:u-2:before,
7:u0:type,
8:u-2:10am,
8:u-1:type,
11:u0:aircraft,
8:u-2:type,
12:u-1:aircraft,
7:u0:used,
12:u-2:aircraft,
9:u0:flying,
10:u-1:flying,
10:u-2:flying,
18:u0:united-airlines,
19:u-1:united-airlines,
19:u-2:united-airlines,
6:u0:all,
8:u0:right,
7:u-1:all,
9:u-1:right,
7:u-2:all,
9:u-2:right,
6:u0:let,
7:u-1:let,
7:u0:know,
7:u-2:let,
8:u-1:know,
8:u-2:know,
8:u0:using,
9:u-1:using,
9:u-2:using,
7:u0:they,
6:u0:use,
8:u-1:they,
7:u-1:use,
8:u-2:they,
8:u0:these,
7:u-2:use,
9:u-1:these,
9:u-2:these,
5:u0:10,
6:u-1:10,
6:u-2:10,
7:u0:well,
7:u0:i'll,
8:u-1:well,
6:u0:try,
8:u-1:i'll,
8:u-2:well,
7:u-1:try,
8:u-2:i'll,
7:u-2:try,
7:u0:kind,
8:u-1:kind,
8:u-2:kind,
8:u0:flies,
9:u-1:flies,
9:u-2:flies,
13:u0:10-o'clock,
14:u-1:10-o'clock,
14:u-2:10-o'clock,
12:u0:september,
12:u0:twentieth,
13:u-1:september,
13:u-1:twentieth,
13:u-2:september,
13:u-2:twentieth,
11:u0:stopover,
12:u-1:stopover,
12:u-2:stopover,
6:u0:are,
7:u-1:are,
7:u-2:are,
5:u0:an,
6:u-1:an,
6:u-2:an,
13:u0:connecting,
7:u0:wish,
8:u-1:wish,
8:u-2:wish,
10:u0:airline,
11:u-1:airline,
11:u-2:airline,
8:u0:plane,
9:u-1:plane,
9:u-2:plane,
10:u0:one-way,
11:u-1:one-way,
11:u-2:one-way,
12:u0:available,
5:u0:at,
13:u-1:available,
11:u0:noontime,
6:u-1:at,
13:u-2:available,
12:u-1:noontime,
6:u-2:at,
12:u-2:noontime,
9:u0:around,
10:u-1:around,
10:u-2:around,
17:u0:delta-airlines,
18:u-1:delta-airlines,
18:u-2:delta-airlines,
19:u0:eastern-airlines,
20:u-1:eastern-airlines,
20:u-2:eastern-airlines,
8:u0:early,
9:u-1:early,
6:u-2:as,
9:u-2:early,
12:u-1:possible,
12:u-2:possible,
6:u0:day,
7:u-1:day,
7:u-2:day,
7:u0:will,
9:u0:arrive,
8:u-1:will,
10:u-1:arrive,
8:u-2:will,
10:u-2:arrive,
17:u0:denver-airport,
18:u-1:denver-airport,
18:u-2:denver-airport,
12:u-1:downtown,
10:u0:nonstop,
11:u-1:nonstop,
11:u-2:nonstop,
9:u0:repeat,
10:u-1:repeat,
10:u-2:repeat,
13:u0:departures,
14:u-1:departures,
14:u-2:departures,
9:u0:august,
10:u-1:monday,
13:u0:nineteenth,
10:u-1:august,
10:u-2:monday,
14:u-1:nineteenth,
10:u-2:august,
14:u-2:nineteenth,
7:u0:rate,
8:u-1:rate,
8:u-2:rate,
6:u0:any,
7:u-1:any,
7:u-2:any,
9:u0:us-air,
10:u-1:us-air,
10:u-2:us-air,
8:u0:we're,
8:u0:going,
9:u-1:we're,
9:u-1:going,
9:u-2:we're,
9:u-2:going,
6:u0:819,
7:u-1:819,
7:u-2:819,
7:u0:take,
8:u-1:take,
8:u-2:take,
12:u0:9-o'clock,
13:u-1:9-o'clock,
13:u-2:9-o'clock,
6:u0:out,
7:u-1:out,
7:u-2:out,
5:u0:be,
10:u0:staying,
6:u-1:be,
11:u-1:staying,
6:u-2:be,
11:u-2:staying,
12:u-2:downtown,
6:u0:two,
8:u0:hours,
7:u-1:two,
9:u-1:hours,
7:u-2:two,
9:u-2:hours,
6:u0:can,
7:u-1:can,
7:u-2:can,
8:u0:about,
9:u-1:about,
9:u-2:about,
7:u0:city,
8:u-1:city,
8:u-2:city,
7:u0:very,
8:u-1:very,
8:u-2:very,
10:u0:working,
11:u-1:working,
11:u0:scenario,
11:u-2:working,
8:u0:three,
12:u-1:scenario,
9:u-1:three,
12:u-2:scenario,
9:u-2:three,
6:u0:727,
7:u-1:727,
7:u-2:727,
10:u0:georgia,
5:u0:am,
6:u-1:am,
6:u-2:am,
9:u0:number,
10:u-1:number,
10:u-2:number,
9:u0:return,
10:u-1:return,
10:u-2:return,
8:u0:bound,
9:u-1:bound,
9:u-2:bound,
9:u0:friday,
7:u0:this,
10:u-1:friday,
7:u0:week,
8:u-1:this,
10:u-2:friday,
8:u0:class,
10:u0:service,
9:u-1:class,
11:u-1:service,
9:u-2:class,
11:u-2:service,
13:u0:california,
14:u-1:california,
14:u-2:california,
15:u0:pennsylvania,
6:u0:get,
7:u-1:get,
7:u-2:get,
6:u0:yes,
7:u-1:yes,
7:u-2:yes,
8:u0:delta,
9:u-1:delta,
9:u-2:delta,
8:u0:225pm,
9:u-1:225pm,
9:u-2:225pm,
9:u0:1158pm,
10:u-1:1158pm,
10:u-2:1158pm,
12:u0:equipment,
13:u-1:equipment,
13:u-2:equipment,
8:u-1:used,
8:u-2:used,
10:u0:looking,
11:u-1:looking,
11:u-2:looking,
11:u0:stopping,
12:u-1:stopping,
12:u-2:stopping,
9:u0:ticket,
10:u-1:ticket,
10:u-2:ticket,
11:u0:colorado,
12:u-1:colorado,
12:u-2:colorado,
7:u0:with,
11:u-1:georgia,
8:u-1:with,
11:u-2:georgia,
8:u-2:with,
14:u0:coach-class,
7:u0:seat,
15:u-1:coach-class,
8:u-1:seat,
15:u-2:coach-class,
8:u-2:seat,
5:u0:or,
9:u0:lowest,
6:u-1:or,
10:u-1:lowest,
6:u-2:or,
10:u-2:lowest,
6:u0:buy,
7:u-1:buy,
7:u-2:buy,
12:u0:afternoon,
13:u-1:afternoon,
13:u-2:afternoon,
6:u0:230,
7:u-1:230,
7:u-2:230,
8:u0:324pm,
6:u0:324,
7:u-1:324,
7:u-2:324,
8:u0:110pm,
9:u-1:110pm,
9:u-2:110pm,
14:u0:seventeenth,
10:u0:oakland,
11:u0:american,
12:u-1:american,
6:u0:813,
12:u-2:american,
7:u-1:813,
7:u-2:813,
11:u-1:oakland,
11:u-2:oakland,
7:u0:goes,
11:u0:straight,
8:u-1:goes,
10:u0:through,
12:u-1:straight,
8:u-2:goes,
11:u-1:through,
12:u-2:straight,
11:u-2:through,
19:u0:without-stopping,
20:u-1:without-stopping,
10:u0:another,
20:u-2:without-stopping,
11:u-1:another,
5:u0:if,
6:u-1:if,
6:u-2:if,
10:u0:enroute,
11:u-1:enroute,
11:u-2:enroute,
5:u0:it,
6:u-1:it,
6:u-2:it,
6:u0:may,
7:u-1:may,
7:u-2:may,
7:u0:2153,
8:u-1:2153,
8:u-2:2153,
14:u0:first-class,
15:u-1:first-class,
15:u-2:first-class,
7:u0:list,
8:u-1:list,
8:u-2:list,
9:u0:making,
10:u-1:making,
10:u-2:making,
14:u0:continental,
15:u-1:continental,
15:u-2:continental,
8:u0:leave,
9:u-1:leave,
9:u-2:leave,
8:u0:after,
13:u0:12-o'clock,
9:u-1:after,
14:u-1:12-o'clock,
9:u-2:after,
14:u-2:12-o'clock,
8:u0:which,
9:u0:leaves,
9:u-1:which,
10:u-1:leaves,
9:u-2:which,
10:u-2:leaves,
9:u0:1220pm,
10:u-1:1220pm,
10:u-2:1220pm,
12:u0:5-o'clock,
13:u-1:5-o'clock,
13:u-2:5-o'clock,
14:u0:lowest-cost,
15:u-1:lowest-cost,
15:u-2:lowest-cost,
8:u0:645am,
9:u-1:645am,
9:u-2:645am,
11:u-1:tuesday,
11:u-2:tuesday,
6:u0:has,
7:u-1:has,
7:u-2:has,
6:u0:how,
7:u0:much,
7:u-1:how,
8:u-1:much,
7:u-2:how,
8:u-2:much,
13:u0:round-trip,
14:u-1:round-trip,
14:u-2:round-trip,
7:u0:long,
8:u-1:long,
8:u-2:long,
18:u0:atlanta-airport,
7:u0:into,
19:u-1:atlanta-airport,
8:u-1:into,
19:u-2:atlanta-airport,
8:u-2:into,
20:u0:airport-limousine,
21:u-1:airport-limousine,
21:u-2:airport-limousine,
7:u0:make,
8:u-1:make,
7:u0:trip,
8:u-2:make,
8:u-1:trip,
8:u-2:trip,
8:u0:again,
9:u-1:again,
9:u-2:again,
8:u0:fares,
9:u-1:fares,
9:u-2:fares,
15:u0:arrival-time,
16:u-1:arrival-time,
16:u-2:arrival-time,
8:u0:755am,
9:u-1:755am,
9:u-2:755am,
9:u0:latest,
10:u-1:latest,
10:u-2:latest,
6:u0:755,
7:u-1:755,
7:u-2:755,
11:u0:schedule,
12:u-1:schedule,
12:u-2:schedule,
6:u0:9pm,
7:u-1:9pm,
7:u-2:9pm,
15:u0:twenty-ninth,
11:u0:november,
15:u0:twenty-third,
12:u-1:november,
16:u-1:twenty-third,
12:u-2:november,
16:u-2:twenty-third,
7:u0:year,
7:u0:1991,
8:u-1:year,
8:u-2:this,
8:u-1:1991,
8:u-2:year,
8:u-2:1991,
7:u0:okay,
7:u0:just,
8:u-1:okay,
8:u-1:just,
8:u-2:okay,
8:u-2:just,
6:u0:8am,
8:u0:hello,
9:u-1:hello,
9:u-2:hello,
8:u0:let's,
6:u0:see,
9:u-1:let's,
7:u-1:see,
9:u-2:let's,
7:u-2:see,
16:u0:delta-airline,
17:u-1:delta-airline,
17:u-2:delta-airline,
8:u0:stops,
9:u-1:stops,
9:u-2:stops,
6:u0:way,
7:u-1:way,
7:u-2:way,
9:u0:united,
10:u-1:united,
10:u-2:united,
8:u0:815am,
5:u0:by,
17:u0:united-airline,
6:u-1:by,
18:u-1:united-airline,
18:u-2:united-airline,
5:u0:oh,
6:u-1:oh,
6:u-2:oh,
18:u0:eastern-airline,
19:u-1:eastern-airline,
19:u-2:eastern-airline,
7:u0:some,
8:u-1:some,
8:u-2:some,
6:u0:9am,
17:u0:dallas-airport,
18:u-1:dallas-airport,
18:u-2:dallas-airport,
15:u0:arrangements,
16:u-1:arrangements,
16:u-2:arrangements,
17:u0:boston-airport,
18:u-1:boston-airport,
18:u-2:boston-airport,
12:u0:departing,
13:u-1:departing,
13:u-2:departing,
10:u0:airfare,
11:u-1:airfare,
11:u-2:airfare,
14:u0:329-dollars,
15:u-1:329-dollars,
15:u-2:329-dollars,
7:u0:cost,
8:u-1:cost,
8:u-2:cost,
6:u0:air,
15:u0:restrictions,
7:u-1:air,
16:u-1:restrictions,
7:u-2:air,
16:u-2:restrictions,
14:u0:416-dollars,
7:u0:book,
8:u-1:book,
8:u-2:book,
8:u0:coach,
11:u0:discount,
9:u-1:coach,
12:u-1:discount,
9:u-2:coach,
10:u0:arrange,
11:u-1:arrange,
11:u-2:arrange,
7:u0:july,
10:u0:seventh,
8:u-1:july,
7:u0:sure,
8:u-1:sure,
8:u-2:sure,
12:u0:determine,
13:u-1:determine,
13:u-2:determine,
11:u-1:seventh,
8:u-2:july,
11:u-2:seventh,
7:u0:meal,
8:u0:being,
8:u-1:meal,
9:u0:served,
9:u-1:being,
8:u-2:meal,
7:u-1:8am,
7:u-2:8am,
7:u0:such,
8:u-1:such,
8:u-2:such,
8:u0:types,
9:u-1:types,
9:u-2:types,
7:u0:dc10,
11:u0:sometime,
12:u-1:sometime,
12:u-2:sometime,
9:u0:direct,
10:u-1:direct,
10:u-2:direct,
10:u0:12-noon,
10:u0:arrives,
11:u-1:arrives,
11:u-2:arrives,
17:u-2:early-morning,
16:u0:approximately,
6:u0:1pm,
17:u-1:approximately,
7:u0:many,
8:u-1:many,
8:u-2:many,
8:u0:where,
9:u-1:where,
9:u-2:where,
14:u0:dinner-meal,
6:u0:420,
7:u-1:420,
7:u-2:420,
4:u0:5,
5:u-1:5,
5:u-2:5,
5:u0:my,
8:u0:final,
6:u-1:my,
14:u0:destination,
9:u-1:final,
6:u-2:my,
15:u-1:destination,
9:u-2:final,
15:u-2:destination,
12:u0:originate,
13:u-1:originate,
13:u-2:originate,
23:u0:latest-time-possible,
24:u-1:latest-time-possible,
24:u-2:latest-time-possible,
12:u0:fifteenth,
9:u0:during,
12:u0:breakfast,
10:u-1:during,
6:u0:296,
9:u0:serves,
7:u-1:296,
10:u-1:serves,
7:u-2:296,
8:u0:first,
9:u-1:first,
9:u-2:first,
18:u0:early-afternoon,
9:u0:should,
10:u-1:should,
10:u-2:should,
8:u0:615pm,
8:u0:their,
9:u-1:their,
9:u-2:their,
25:u0:earliest-possible-time,
11:u0:question,
12:u-1:question,
12:u-2:question,
7:u0:live,
8:u-1:live,
8:u-2:live,
9:u0:trying,
10:u-1:trying,
10:u-2:trying,
13:u0:connection,
14:u-1:connection,
14:u-2:connection,
8:u0:those,
9:u-1:those,
12:u0:thirtieth,
13:u-1:thirtieth,
13:u-2:thirtieth,
7:u0:fine,
8:u-1:fine,
8:u-2:fine,
7:u0:help,
8:u-1:help,
8:u-2:help,
6:u0:now,
7:u-1:now,
7:u-2:now,
6:u0:747,
7:u-1:747,
7:u-2:747,
7:u0:able,
8:u-1:able,
6:u0:put,
8:u-2:able,
7:u-1:put,
7:u-2:put,
17:u0:twenty-seventh,
18:u-1:twenty-seventh,
18:u-2:twenty-seventh,
8:u0:night,
9:u-1:night,
9:u-2:night,
8:u0:630am,
9:u-1:630am,
9:u-2:630am,
6:u0:650,
8:u0:third,
8:u0:rates,
9:u-1:rates,
9:u-2:rates,
18:u0:least-expensive,
19:u-1:least-expensive,
19:u-2:least-expensive,
17:u0:city-of-boston,
18:u-1:city-of-boston,
18:u-2:city-of-boston,
9:u0:kindly,
10:u-1:kindly,
10:u-2:kindly,
9:u0:inform,
10:u-1:inform,
10:u-2:inform,
18:u0:12-o'clock-noon,
10:u0:eastern,
11:u-1:eastern,
6:u0:825,
11:u-2:eastern,
7:u-1:825,
7:u-2:825,
7:u0:when,
8:u-1:when,
8:u-2:when,
6:u0:555,
7:u-1:555,
7:u-2:555,
6:u0:6pm,
6:u0:5pm,
8:u0:sorry,
9:u-1:sorry,
9:u-2:sorry,
15:u0:thirty-first,
16:u-1:thirty-first,
16:u-2:thirty-first,
7:u0:then,
8:u-1:then,
8:u-2:then,
9:u0:fourth,
10:u-1:fourth,
10:u-2:fourth,
7:u0:plan,
8:u-1:plan,
8:u-2:plan,
11:u0:no-stops,
12:u-1:no-stops,
12:u-2:no-stops,
10:u0:economy,
11:u-1:economy,
11:u-2:economy,
12:u-1:thursday,
8:u0:fifth,
12:u-2:thursday,
9:u-1:fifth,
9:u-2:fifth,
16:u0:twenty-eighth,
10:u0:october,
11:u-1:october,
10:u0:twelfth,
10:u0:numbers,
10:u0:connect,
11:u-1:connect,
11:u-2:connect,
9:u0:cities,
9:u-2:those,
11:u0:planning,
12:u-1:planning,
12:u-2:planning,
6:u0:269,
7:u-1:269,
7:u-2:269,
6:u0:428,
7:u-1:428,
7:u-2:428,
8:u0:times,
9:u-1:times,
9:u-2:times,
8:u0:makes,
9:u-1:makes,
9:u-2:makes,
11:u0:one-stop,
12:u-1:one-stop,
12:u-2:one-stop,
8:u0:april,
9:u-1:april,
16:u-1:twenty-first,
9:u-2:april,
16:u-2:twenty-first,
12:u0:beginning,
13:u-1:beginning,
13:u-2:beginning,
15:u0:twenty-fifth,
16:u-1:twenty-fifth,
12:u0:returning,
16:u-2:twenty-fifth,
13:u-1:returning,
13:u-2:returning,
8:u0:sixth,
12:u0:7-o'clock,
13:u-1:7-o'clock,
13:u-2:7-o'clock,
13:u-1:fifteenth,
13:u-2:fifteenth,
10:u0:sixteen,
11:u-1:sixteen,
11:u-2:sixteen,
12:u0:seventeen,
13:u-1:seventeen,
13:u-2:seventeen,
9:u0:twenty,
10:u-1:twenty,
10:u-2:twenty,
13:u-1:8-o'clock,
13:u-2:8-o'clock,
7:u0:four,
8:u-1:four,
8:u-2:four,
7:u0:1039,
8:u-1:1039,
8:u-2:1039,
6:u0:257,
8:u0:great,
9:u-1:great,
9:u-2:great,
9:u0:depart,
10:u-1:depart,
10:u-2:depart,
9:u0:sounds,
10:u-1:sounds,
10:u-2:sounds,
13:u0:twenty-one,
14:u-1:twenty-one,
14:u-2:twenty-one,
8:u0:one's,
9:u-1:one's,
6:u0:too,
9:u-2:one's,
7:u-1:too,
7:u-2:too,
16:u0:twenty-second,
17:u-1:twenty-second,
17:u-2:twenty-second,
12:u0:nighttime,
12:u0:departure,
13:u-1:nighttime,
13:u-1:departure,
13:u-2:nighttime,
7:u0:show,
8:u-1:show,
8:u-2:show,
20:u0:dallas-fort-worth,
21:u-1:dallas-fort-worth,
30:u0:san-francisco-international,
21:u-2:dallas-fort-worth,
11:u0:arrivals,
12:u-1:arrivals,
12:u-2:arrivals,
7:u0:most,
8:u-1:most,
8:u-2:most,
14:u0:connections,
15:u-1:connections,
15:u-2:connections,
8:u0:tenth,
9:u-1:tenth,
11:u0:eleventh,
7:u0:june,
8:u-1:june,
8:u-2:june,
17:u0:business-class,
8:u0:daily,
9:u-1:daily,
9:u-2:daily,
20:u0:stapleton-airport,
21:u-1:stapleton-airport,
11:u0:tomorrow,
21:u-2:stapleton-airport,
12:u-1:tomorrow,
9:u0:thrift,
10:u-1:thrift,
10:u-2:thrift,
10:u0:explain,
14:u0:restriction,
11:u-1:explain,
7:u0:ap80,
15:u-1:restriction,
11:u-2:explain,
7:u0:code,
5:u0:qx,
8:u-1:code,
14:u0:represented,
15:u-1:represented,
15:u-2:represented,
11:u0:database,
6:u0:7pm,
7:u-1:7pm,
7:u-2:7pm,
6:u0:315,
5:u0:aa,
6:u0:459,
6:u-1:aa,
7:u-1:459,
6:u-2:aa,
6:u0:m80,
10:u-1:cities,
10:u-2:cities,
10:u0:besides,
11:u-1:besides,
11:u-2:besides,
10:u0:provide,
11:u-1:provide,
11:u-2:provide,
6:u0:jet,
7:u-1:jet,
7:u-2:jet,
7:u0:only,
8:u-1:only,
8:u-2:only,
8:u0:today,
5:u0:dl,
12:u0:different,
13:u-1:different,
10:u0:classes,
13:u-2:different,
11:u-1:classes,
11:u-2:classes,
4:u0:b,
5:u-1:b,
8:u-2:code,
7:u0:same,
5:u-2:b,
8:u-1:same,
8:u-2:same,
4:u0:c,
10:u0:booking,
11:u-1:booking,
11:u-2:booking,
5:u0:yn,
16:u0:no-later-than,
6:u0:2pm,
17:u-1:no-later-than,
7:u-1:2pm,
17:u-2:no-later-than,
7:u-2:2pm,
9:u0:what's,
10:u-1:what's,
10:u-2:what's,
7:u0:ap57,
8:u0:codes,
9:u0:belong,
9:u-1:codes,
10:u-1:belong,
9:u-2:codes,
16:u0:economy-class,
10:u-2:belong,
6:u0:via,
7:u-1:via,
10:u0:layover,
11:u-1:layover,
11:u-2:layover,
7:u0:more,
8:u-1:more,
18:u-1:business-class,
8:u-2:more,
7:u0:than,
18:u-2:business-class,
8:u-1:than,
8:u0:other,
8:u-2:than,
9:u-1:other,
17:u-1:economy-class,
17:u-2:economy-class,
17:u0:late-afternoon,
18:u-1:late-afternoon,
18:u-2:late-afternoon,
7:u-1:1pm,
7:u-2:1pm,
12:u0:3-o'clock,
13:u-1:3-o'clock,
13:u-2:3-o'clock,
11:u-1:12-noon,
11:u-2:12-noon,
10:u0:delta's,
11:u-1:delta's,
11:u-2:delta's,
13:u0:rental-car,
14:u-1:rental-car,
14:u-2:rental-car,
6:u0:far,
7:u-1:far,
7:u-2:far,
11:u0:saturday,
12:u-1:saturday,
7:u0:come,
8:u-1:come,
8:u-2:come,
11:u0:smallest,
10:u0:seating,
12:u-1:smallest,
11:u0:capacity,
11:u-1:seating,
12:u-2:smallest,
17:u0:most-expensive,
18:u-1:most-expensive,
10:u0:tickets,
18:u-2:most-expensive,
11:u-1:tickets,
11:u-2:tickets,
12:u0:atlanta's,
13:u-1:atlanta's,
7:u0:noon,
8:u-1:noon,
8:u-2:noon,
14:u0:originating,
15:u-1:originating,
15:u-2:originating,
8:u0:210pm,
9:u0:eighth,
8:u0:ninth,
9:u0:offers,
10:u-1:offers,
10:u-2:offers,
10:u0:heading,
11:u-1:heading,
11:u-2:heading,
6:u0:279,
7:u-1:279,
7:u-2:279,
9:u0:137338,
4:u0:3,
5:u-1:3,
5:u-2:3,
12:u0:1-o'clock,
9:u0:toward,
10:u-1:toward,
10:u-2:toward,
18:u0:oakland-airport,
7:u0:each,
8:u-1:each,
8:u-2:each,
4:u0:k,
12:u0:lufthansa,
13:u-1:lufthansa,
13:u-2:lufthansa,
15:u0:twenty-sixth,
16:u-1:twenty-sixth,
7:u0:name,
8:u-1:name,
8:u-2:name,
23:u0:philadelphia-airport,
24:u-1:philadelphia-airport,
24:u-2:philadelphia-airport,
4:u0:1,
5:u-1:1,
5:u-2:1,
4:u0:4,
5:u-1:4,
5:u-2:4,
17:u0:departure-time,
18:u-1:departure-time,
18:u-2:departure-time,
19:u-1:early-afternoon,
19:u-2:early-afternoon,
12:u0:limousine,
8:u0:total,
9:u-1:total,
9:u-2:total,
12:u-1:capacity,
11:u-2:seating,
12:u-2:capacity,
13:u0:advertises,
9:u0:having,
14:u-1:advertises,
10:u-1:having,
14:u-2:advertises,
10:u-2:having,
4:u0:f,
16:u0:logan-airport,
13:u-2:departure,
21:u0:pittsburgh-airport,
22:u-1:pittsburgh-airport,
22:u-2:pittsburgh-airport,
7:u0:town,
8:u0:kinds,
9:u-1:kinds,
9:u-2:kinds,
13:u-1:limousine,
42:u0:dallas-fort-worth-international-airport,
13:u-2:limousine,
43:u-1:dallas-fort-worth-international-airport,
43:u-2:dallas-fort-worth-international-airport,
8:u0:eight,
9:u0:within,
10:u-1:within,
23:u0:schedule-for-flights,
24:u-1:schedule-for-flights,
24:u-2:schedule-for-flights,
5:u0:s-,
12:u0:designate,
6:u-1:s-,
13:u-1:designate,
6:u-2:s-,
13:u-2:designate,
8:u0:takes,
9:u-1:takes,
8:u0:least,
9:u-2:takes,
9:u0:amount,
9:u-1:least,
10:u-1:amount,
9:u-2:least,
10:u-2:amount,
9:u0:planes,
10:u-1:planes,
10:u-2:planes,
10:u0:usa-air,
11:u-1:usa-air,
11:u-2:usa-air,
9:u0:prices,
10:u-1:prices,
10:u-2:prices,
10:u0:various,
12:u0:airplanes,
11:u-1:various,
13:u-1:airplanes,
11:u-2:various,
13:u-2:airplanes,
7:u0:uses,
6:u0:who,
7:u-1:who,
7:u-1:9am,
7:u-2:9am,
18:u0:time-of-arrival,
19:u-1:time-of-arrival,
19:u-2:time-of-arrival,
18:u0:departure-times,
19:u-1:departure-times,
19:u-2:departure-times,
6:u0:8pm,
20:u0:baltimore-airport,
12:u0:including,
13:u-1:including,
13:u-2:including,
8:u0:offer,
9:u-1:offer,
8:u-1:dc10,
9:u-2:offer,
8:u-2:dc10,
9:u0:eleven,
10:u-1:eleven,
10:u-2:eleven,
10:u0:any-day,
11:u-1:any-day,
11:u-2:any-day,
6:u0:352,
7:u-1:352,
7:u-2:352,
8:u0:price,
9:u-1:price,
9:u-2:price,
12:u0:operating,
13:u-1:operating,
10:u0:sundays,
13:u-2:operating,
11:u0:services,
12:u-1:services,
12:u-2:services,
15:u0:reservations,
16:u-1:reservations,
16:u-2:reservations,
7:u0:1765,
8:u-1:1765,
8:u-2:1765,
18:u0:flight-schedule,
19:u-1:flight-schedule,
19:u-2:flight-schedule,
6:u0:f28,
7:u-1:f28,
7:u-2:f28,
21:u0:air-taxi-operation,
22:u-1:air-taxi-operation,
37:u0:philadelphia-international-airport,
22:u-2:air-taxi-operation,
5:u0:pm,
6:u-1:pm,
6:u-2:pm,
10:u0:serving,
11:u-1:serving,
11:u-2:serving,
13:u-1:breakfast,
10:u-1:served,
13:u-2:breakfast,
10:u-2:served,
11:u0:anything,
12:u-1:anything,
12:u-2:anything,
6:u0:say,
7:u-1:say,
11:u0:mealtime,
7:u-2:say,
6:u0:run,
7:u-1:run,
7:u-2:run,
8:u0:seats,
9:u-1:seats,
9:u-2:seats,
9:u-2:other,
10:u0:earlier,
11:u-1:earlier,
7:u0:1017,
11:u-2:earlier,
8:u-1:1017,
8:u-2:1017,
6:u0:630,
15:u0:5-o'clock-pm,
15:u0:4-o'clock-pm,
8:u0:later,
9:u-1:later,
9:u-2:later,
15:u0:6-o'clock-pm,
7:u-1:6pm,
7:u-2:6pm,
11:u0:serviced,
12:u-1:serviced,
12:u-2:serviced,
6:u0:dfw,
7:u-1:dfw,
7:u-2:dfw,
9:u0:1133am,
10:u-1:1133am,
7:u0:43pm,
10:u-2:1133am,
11:u0:provided,
12:u-1:provided,
12:u-2:provided,
6:u-2:by,
11:u0:provides,
12:u-1:provides,
12:u-2:provides,
7:u0:both,
8:u-1:both,
8:u-2:both,
8:u0:meals,
9:u-1:meals,
9:u-2:meals,
11:u0:airplane,
12:u-1:airplane,
12:u-2:airplane,
12:u0:6-o'clock,
9:u0:sunday,
13:u-1:6-o'clock,
10:u-1:sunday,
13:u-2:6-o'clock,
7:u0:mean,
5:u-1:8,
5:u-2:8,
16:u-1:twenty-ninth,
16:u-2:twenty-ninth,
9:u-1:third,
9:u-2:third,
13:u0:american's,
14:u-1:american's,
14:u-2:american's,
6:u0:bwi,
7:u-1:bwi,
7:u-2:bwi,
8:u0:still,
9:u-1:still,
9:u-2:still,
8:u0:cover,
9:u-1:cover,
9:u-2:cover,
7:u0:less,
8:u-1:less,
14:u0:200-dollars,
8:u-2:less,
15:u-1:200-dollars,
6:u0:oak,
7:u-1:oak,
6:u0:atl,
7:u-2:oak,
10:u0:qx-fare,
11:u-1:qx-fare,
11:u-2:qx-fare,
15:u0:lowest-price,
16:u-1:lowest-price,
16:u-2:lowest-price,
5:u0:82,
6:u-1:82,
6:u-2:82,
6:u0:139,
10:u0:q-fares,
11:u-1:q-fares,
11:u-2:q-fares,
14:u0:124-dollars,
15:u-1:124-dollars,
15:u-2:124-dollars,
5:u0:ls,
8:u0:stand,
6:u-1:ls,
9:u-1:stand,
6:u-2:ls,
8:u0:level,
10:u0:carries,
11:u-1:carries,
11:u-2:carries,
13:u0:passengers,
7:u0:1505,
8:u-1:1505,
8:u-2:1505,
8:u0:serve,
8:u0:lunch,
9:u-1:serve,
12:u0:itinerary,
13:u-1:itinerary,
13:u-2:itinerary,
14:u-1:connecting,
14:u-2:connecting,
10:u0:departs,
11:u-1:departs,
11:u-2:departs,
8:u0:local,
9:u-1:local,
9:u0:either,
10:u-1:either,
10:u-2:either,
28:u0:dallas-fort-worth-airport,
29:u-1:dallas-fort-worth-airport,
29:u-2:dallas-fort-worth-airport,
7:u0:1940,
14:u-1:passengers,
14:u-2:passengers,
9:u0:boeing,
6:u0:737,
10:u-1:boeing,
7:u0:hold,
7:u-1:737,
10:u-2:boeing,
4:u0:6,
5:u-1:6,
5:u-2:6,
10:u0:qualify,
11:u-1:qualify,
11:u-2:qualify,
11:u0:describe,
12:u-1:describe,
12:u-2:describe,
6:u0:j31,
7:u-1:j31,
6:u0:733,
6:u0:72s,
6:u0:734,
6:u0:100,
14:u0:415-dollars,
6:u0:705,
7:u-1:705,
7:u-2:705,
5:u0:71,
6:u-1:71,
6:u-2:71,
11:u0:directly,
12:u-1:directly,
12:u-2:directly,
12:u0:scheduled,
13:u-1:scheduled,
11:u0:december,
13:u-2:scheduled,
12:u-1:december,
12:u0:turboprop,
13:u-1:turboprop,
13:u-2:turboprop,
10:u0:doesn't,
8:u0:catch,
9:u-1:catch,
9:u-2:catch,
21:u0:lufthansa-airlines,
22:u-1:lufthansa-airlines,
22:u-2:lufthansa-airlines,
12:u-2:saturday,
8:u0:logan,
9:u-1:logan,
9:u-2:logan,
12:u0:2-o'clock,
13:u-1:2-o'clock,
13:u-2:2-o'clock,
11:u0:distance,
12:u-1:distance,
12:u-2:distance,
11:u0:tuesdays,
12:u0:companies,
13:u-1:companies,
13:u-2:companies,
10:u-2:serves,
9:u0:people,
10:u-1:people,
10:u-2:people,
10:u0:carried,
11:u-1:carried,
11:u-2:carried,
11:u0:shortest,
12:u-1:shortest,
12:u-2:shortest,
10:u0:january,
11:u-1:january,
8:u0:cheap,
9:u-1:cheap,
9:u-2:cheap,
7:u0:back,
10:u0:reverse,
11:u-1:reverse,
11:u-2:reverse,
11:u0:airports,
12:u-1:airports,
12:u-2:airports,
13:u0:everywhere,
14:u-1:everywhere,
14:u-2:everywhere,
11:u0:day-time,
12:u-1:day-time,
12:u-2:day-time,
7:u0:10pm,
8:u-1:10pm,
8:u-2:10pm,
18:u0:midway-airlines,
19:u-1:midway-airlines,
19:u-2:midway-airlines,
9:u-2:tenth,
9:u0:twelve,
13:u0:capacities,
14:u-1:capacities,
14:u-2:capacities,
10:u0:largest,
11:u-1:largest,
11:u-2:largest,
11:u0:greatest,
12:u-1:greatest,
12:u-2:greatest,
6:u0:767,
9:u0:dinner,
8:u0:snack,
6:u0:3pm,
7:u-1:3pm,
7:u-2:3pm,
5:u0:12,
6:u-1:12,
4:u0:2,
6:u-2:12,
5:u-1:2,
5:u-2:2,
9:u-1:sixth,
9:u-2:sixth,
13:u0:car-rental,
14:u-1:car-rental,
14:u-2:car-rental,
7:u0:limo,
8:u-1:limo,
8:u-2:limo,
9:u0:coming,
9:u-1:ninth,
10:u-1:coming,
9:u-2:ninth,
8:u-1:back,
10:u-2:coming,
8:u-2:back,
6:u0:fit,
7:u-1:fit,
7:u-2:fit,
7:u-1:72s,
6:u0:d9s,
6:u0:73s,
7:u0:once,
8:u-1:once,
8:u-2:once,
12:u0:expensive,
13:u-1:expensive,
13:u-2:expensive,
9:u-1:eight,
6:u0:sfo,
10:u0:charges,
11:u-1:charges,
11:u-2:charges,
5:u0:no,
6:u-1:no,
6:u-2:no,
6:u0:4pm,
5:u0:so,
6:u-1:so,
6:u-2:so,
7:u0:here,
8:u-1:here,
7:u0:11am,
8:u-2:here,
15:u0:abbreviation,
5:u0:ua,
16:u-1:abbreviation,
6:u-1:ua,
16:u-2:abbreviation,
5:u0:co,
6:u-1:co,
6:u-1:dl,
10:u0:weekday,
4:u0:y,
5:u-1:y,
13:u0:1300-hours,
13:u0:1600-hours,
6:u0:7am,
13:u0:1700-hours,
14:u-1:1700-hours,
14:u-2:1700-hours,
8:u0:under,
14:u0:500-dollars,
9:u-1:under,
15:u-1:500-dollars,
9:u-2:under,
15:u-2:500-dollars,
11:u0:airfares,
12:u-1:airfares,
12:u-2:airfares,
10:u0:options,
11:u-1:options,
11:u-2:options,
9:u0:philly,
10:u0:arrival,
11:u-1:arrival,
11:u-2:arrival,
13:u-1:1-o'clock,
13:u-2:1-o'clock,
12:u0:regarding,
24:u0:san-francisco-airport,
13:u-1:regarding,
17:u-1:twenty-eighth,
10:u0:display,
11:u-1:display,
11:u-2:display,
9:u0:second,
8:u0:seven,
7:u0:12pm,
8:u-1:12pm,
8:u-2:12pm,
11:u0:economic,
12:u-1:economic,
5:u0:98,
5:u0:us,
6:u0:345,
6:u-1:us,
7:u-1:345,
6:u-2:us,
7:u-2:345,
7:u0:rent,
8:u-1:rent,
6:u0:car,
8:u-2:rent,
7:u-1:car,
34:u0:stapleton-international-airport,
7:u-2:car,
35:u-1:stapleton-international-airport,
35:u-2:stapleton-international-airport,
10:u-2:sunday,
7:u0:1083,
8:u-1:1083,
6:u-2:dl,
8:u-2:1083,
12:u0:saturdays,
6:u0:201,
7:u-1:201,
6:u-2:ua,
7:u-2:201,
6:u0:343,
7:u-1:343,
7:u-2:343,
6:u0:323,
7:u-1:323,
6:u0:229,
7:u-2:323,
7:u-1:229,
7:u-2:229,
8:u-1:week,
8:u-2:week,
10:u0:meaning,
11:u-1:meaning,
11:u-2:meaning,
6:u-1:qx,
5:u0:qw,
6:u-2:qx,
11:u-1:weekday,
11:u-2:weekday,
12:u-2:tomorrow,
8:u0:costs,
9:u-1:costs,
9:u-2:costs,
25:u0:the-day-after-tomorrow,
12:u0:transport,
13:u-1:transport,
6:u0:210,
14:u0:car-rentals,
15:u-1:car-rentals,
15:u-2:car-rentals,
13:u-1:saturdays,
13:u-2:saturdays,
6:u0:d-s,
7:u-1:d-s,
7:u-2:d-s,
9:u-2:stand,
6:u0:106,
7:u-1:106,
7:u-2:106,
10:u0:grounds,
11:u-1:grounds,
11:u-2:grounds,
6:u0:838,
7:u-1:838,
7:u-2:838,
14:u0:reservation,
15:u-1:reservation,
15:u-2:reservation,
13:u0:requesting,
14:u-1:requesting,
14:u-2:requesting,
11:u0:starting,
12:u-1:starting,
12:u-2:starting,
13:u0:afterwards,
6:u0:402,
7:u-1:402,
7:u-2:402,
6:u0:270,
7:u-1:270,
7:u-2:270,
6:u0:297,
7:u-1:297,
7:u-2:297,
6:u0:281,
7:u-1:281,
7:u-2:281,
12:u-1:tuesdays,
13:u0:wednesdays,
12:u-2:tuesdays,
12:u0:thursdays,
13:u0:fourteenth,
8:u0:ap-80,
9:u-1:ap-80,
15:u-2:restriction,
8:u0:ap-57,
7:u-1:4pm,
7:u-2:4pm,
7:u-1:8pm,
7:u-2:8pm,
15:u0:2-o'clock-pm,
15:u0:9-o'clock-am,
16:u-1:9-o'clock-am,
16:u-1:5-o'clock-pm,
26:u-1:the-day-after-tomorrow,
26:u-2:the-day-after-tomorrow,
15:u0:3-o'clock-pm,
16:u-1:3-o'clock-pm,
16:u-2:3-o'clock-pm,
15:u0:8-o'clock-pm,
15:u0:8-o'clock-am,
16:u-1:8-o'clock-am,
16:u-2:8-o'clock-am,
16:u-2:5-o'clock-pm,
9:u-2:serve,
14:u0:us-airlines,
15:u-1:us-airlines,
15:u-2:us-airlines,
16:u0:11-o'clock-am,
5:u-2:y,
13:u-2:transport,
4:u0:m,
5:u-1:m,
7:u0:ap68,
13:u0:continuing,
14:u-1:continuing,
14:u-2:continuing,
13:u0:limousines,
14:u-1:limousines,
7:u0:taxi,
14:u-2:limousines,
8:u-1:taxi,
8:u-2:taxi,
7:u0:1209,
8:u0:names,
9:u-1:names,
9:u-2:names,
14:u0:rental-cars,
6:u-1:qw,
6:u-2:qw,
7:u0:sd-d,
9:u0:listed,
10:u-1:listed,
7:u0:1055,
10:u-2:listed,
8:u-1:1055,
6:u0:405,
8:u-2:1055,
5:u0:ea,
6:u-1:ea,
6:u-2:ea,
7:u0:look,
8:u-1:look,
8:u-2:look,
9:u-1:today,
9:u-2:today,
10:u0:what're,
11:u-1:what're,
11:u-2:what're,
10:u-1:second,
10:u-2:second,
8:u-1:11am,
8:u-2:11am,
10:u-2:during,
13:u0:eighteenth,
9:u0:1045am,
6:u0:430,
7:u-1:430,
8:u0:530pm,
7:u-2:430,
9:u0:1145am,
8:u0:838am,
9:u-1:838am,
9:u-2:838am,
7:u-2:via,
9:u0:thanks,
10:u-1:thanks,
10:u-2:thanks,
7:u0:near,
8:u-1:near,
7:u-1:5pm,
8:u-2:near,
7:u-2:5pm,
8:u0:close,
9:u-1:close,
9:u-2:close,
7:u0:1110,
8:u-1:1110,
8:u-2:1110,
25:u-1:san-francisco-airport,
25:u-2:san-francisco-airport,
10:u0:fifteen,
8:u0:while,
9:u-1:while,
9:u-2:while,
9:u0:wanted,
10:u-1:wanted,
10:u-2:wanted,
13:u0:afternoons,
10:u0:maximum,
11:u-1:maximum,
11:u-2:maximum,
8:u0:spend,
9:u-1:spend,
9:u-2:spend,
10:u0:lastest,
11:u-1:lastest,
11:u-2:lastest,
10:u0:longest,
11:u-1:longest,
11:u-2:longest,
6:u0:but,
7:u-1:but,
7:u-2:but,
10:u-2:within,
7:u0:1059,
7:u0:over,
8:u-1:over,
8:u-2:over,
5:u0:21,
6:u0:852,
7:u-1:852,
7:u-2:852,
6:u0:928,
7:u-1:928,
7:u-2:928,
8:u0:start,
9:u-1:start,
9:u-2:start,
11:u0:bay-area,
8:u0:order,
7:u0:it's,
8:u-1:it's,
6:u0:445,
7:u-1:445,
8:u0:515pm,
7:u-2:445,
21:u0:washington-airport,
22:u-1:washington-airport,
22:u-2:washington-airport,
26:u0:maximum-number-of-stops,
9:u0:locate,
10:u-1:locate,
10:u-2:locate,
12:u0:hartfield,
10:u0:travels,
11:u-1:travels,
11:u-2:travels,
7:u0:late,
8:u-1:late,
8:u-2:late,
7:u0:zone,
8:u-1:zone,
8:u-2:zone,
14:u0:inexpensive,
15:u-1:inexpensive,
15:u-2:inexpensive,
12:u0:currently,
13:u-1:currently,
13:u-2:currently,
6:u0:530,
7:u0:must,
8:u-1:must,
8:u-2:must,
11:u0:midnight,
12:u-1:midnight,
12:u-2:midnight,
7:u0:land,
8:u-1:land,
8:u-2:land,
8:u0:place,
19:u-1:oakland-airport,
19:u-2:oakland-airport,
8:u0:730pm,
19:u0:transcontinental,
20:u-1:transcontinental,
20:u-2:transcontinental,
9:u0:across,
10:u-1:across,
12:u0:continent,
10:u-2:across,
13:u-1:continent,
13:u-2:continent,
8:u0:430pm,
9:u-1:430pm,
8:u0:630pm,
9:u-2:430pm,
7:u0:gets,
8:u-1:gets,
8:u-2:gets,
8:u0:month,
9:u-1:month,
9:u-2:month,
12:u-2:december,
11:u0:connects,
12:u-1:connects,
12:u-2:connects,
15:u0:7-o'clock-pm,
11:u0:vicinity,
12:u-1:vicinity,
12:u-2:vicinity,
9:u0:begins,
10:u-1:begins,
10:u-2:begins,
8:u0:lands,
9:u-1:lands,
9:u-2:lands,
8:u0:don't,
9:u-1:don't,
9:u-2:don't,
12:u0:stopovers,
13:u-1:stopovers,
13:u-2:stopovers,
17:u0:city-in-dallas,
6:u0:757,
7:u-1:757,
7:u-2:757,
7:u0:1992,
11:u-2:january,
8:u-1:1992,
8:u-2:1992,
11:u-2:october,
16:u-1:8-o'clock-pm,
16:u0:10-o'clock-pm,
16:u-2:8-o'clock-pm,
9:u0:define,
10:u-1:define,
10:u-2:define,
5:u0:fn,
8:u0:ap-55,
12:u0:sixteenth,
7:u-1:atl,
7:u-2:atl,
10:u0:listing,
11:u-1:listing,
11:u-2:listing,
7:u0:2100,
12:u0:4-o'clock,
13:u-1:4-o'clock,
13:u-2:4-o'clock,
16:u0:twenty-fourth,
6:u0:746,
7:u-1:746,
5:u0:hi,
6:u-1:hi,
6:u-2:hi,
4:u0:q,
12:u0:overnight,
13:u-1:overnight,
13:u-2:overnight,
10:u0:without,
11:u-1:without,
11:u-2:without,
16:u-1:pennsylvania,
16:u-2:pennsylvania,
14:u-1:wednesdays,
14:u-2:wednesdays,
7:u0:1291,
8:u-1:1291,
8:u-2:1291,
6:u0:271,
7:u-1:271,
7:u-2:271,
7:u0:sort,
8:u-1:sort,
8:u-2:sort,
16:u-1:6-o'clock-pm,
16:u-2:6-o'clock-pm,
15:u0:7-o'clock-am,
16:u-1:7-o'clock-am,
16:u-2:7-o'clock-am,
15:u0:5-o'clock-am,
16:u-1:5-o'clock-am,
16:u-2:5-o'clock-am,
7:u-1:7am,
7:u-2:7am,
15:u0:1500-dollars,
16:u-1:1500-dollars,
15:u0:1100-dollars,
5:u0:up,
6:u-1:up,
6:u-2:up,
10:u0:mondays,
16:u0:only-weekdays,
17:u-1:only-weekdays,
17:u-2:only-weekdays,
5:u0:ap,
6:u-1:ap,
7:u0:area,
9:u0:proper,
9:u-1:ap-57,
5:u-1:f,
5:u-2:f,
6:u-1:fn,
15:u-1:rental-cars,
15:u-2:rental-cars,
12:u-1:eleventh,
12:u-2:eleventh,
11:u-1:twelfth,
9:u0:priced,
10:u-1:priced,
10:u-2:priced,
6:u0:212,
7:u-1:212,
7:u-2:212,
11:u0:anywhere,
12:u-1:anywhere,
7:u0:1850,
12:u-2:anywhere,
8:u-1:1850,
8:u-2:1850,
7:u0:1700,
8:u-1:1700,
8:u-2:1700,
6:u0:217,
7:u-1:217,
7:u-2:217,
14:u0:300-dollars,
14:u0:400-dollars,
15:u-1:400-dollars,
15:u-2:400-dollars,
7:u0:3357,
8:u-1:3357,
8:u-2:3357,
7:u-1:sfo,
7:u-2:sfo,
9:u0:summer,
6:u0:non,
7:u-1:non,
7:u-2:non,
6:u-2:fn,
11:u0:mornings,
6:u-1:yn,
13:u-1:sixteenth,
13:u-2:sixteenth,
15:u0:1000-dollars,
7:u0:0900,
7:u0:3724,
8:u-1:3724,
8:u-2:3724,
6:u0:771,
7:u-1:771,
7:u-2:771,
19:u0:flight-schedules,
20:u-1:flight-schedules,
20:u-2:flight-schedules,
10:u0:include,
11:u-1:include,
8:u-1:ap57,
16:u-1:1000-dollars,
16:u-2:1000-dollars,
12:u-1:mornings,
12:u-2:mornings,
10:u0:whether,
11:u-1:whether,
11:u-2:include,
11:u-2:whether,
10:u0:offered,
11:u-1:offered,
11:u-2:offered,
14:u0:round-trips,
15:u-1:round-trips,
15:u-2:round-trips,
10:u0:toronto,
11:u-1:toronto,
11:u-2:toronto,
5:u0:ac,
6:u-1:ac,
6:u-2:ac,
11:u0:new-york,
12:u-1:new-york,
12:u-2:new-york,
16:u0:new-york-city,
12:u0:milwaukee,
13:u-1:milwaukee,
10:u0:orlando,
13:u-2:milwaukee,
11:u-1:orlando,
11:u-2:orlando,
10:u0:ontario,
11:u-1:ontario,
9:u0:tacoma,
11:u-2:ontario,
10:u-1:tacoma,
10:u-2:tacoma,
14:u0:minneapolis,
15:u-1:minneapolis,
12:u0:san-diego,
15:u-2:minneapolis,
13:u-1:san-diego,
13:u-2:san-diego,
17:u0:salt-lake-city,
18:u-1:salt-lake-city,
13:u0:cincinnati,
18:u-2:salt-lake-city,
14:u-1:cincinnati,
14:u-2:cincinnati,
8:u0:miami,
9:u-1:miami,
9:u-2:miami,
21:u0:southwest-airlines,
22:u-1:southwest-airlines,
22:u-2:southwest-airlines,
10:u0:phoenix,
11:u-1:phoenix,
11:u-2:phoenix,
13:u0:la-guardia,
14:u-1:la-guardia,
9:u0:dulles,
10:u-1:dulles,
10:u-2:dulles,
14:u0:los-angeles,
12:u0:las-vegas,
8:u0:equal,
9:u-1:equal,
14:u0:466-dollars,
9:u-2:equal,
15:u-1:466-dollars,
15:u-2:466-dollars,
14:u0:932-dollars,
8:u0:along,
9:u-1:along,
9:u-2:along,
15:u0:indianapolis,
16:u-1:indianapolis,
10:u0:memphis,
16:u-2:indianapolis,
10:u0:burbank,
11:u-1:burbank,
11:u-2:burbank,
17:u0:st.-petersburg,
18:u-1:st.-petersburg,
18:u-2:st.-petersburg,
16:u0:abbreviations,
11:u0:san-jose,
12:u-1:san-jose,
12:u-2:san-jose,
25:u0:salt-lake-city-airport,
26:u-1:salt-lake-city-airport,
26:u-2:salt-lake-city-airport,
8:u0:tampa,
9:u-1:tampa,
12:u0:st.-louis,
9:u-2:tampa,
13:u-1:st.-louis,
13:u-2:st.-louis,
10:u0:houston,
11:u-1:houston,
11:u-2:houston,
10:u0:symbols,
11:u-1:symbols,
11:u-2:symbols,
6:u-2:yn,
5:u0:hp,
18:u0:orlando-airport,
19:u-1:orlando-airport,
19:u-2:orlando-airport,
24:u0:orlando-international,
25:u-1:orlando-international,
25:u-2:orlando-international,
6:u0:417,
7:u-1:417,
7:u-2:417,
8:u0:718am,
15:u-1:los-angeles,
15:u-2:los-angeles,
26:u0:minimum-connection-time,
27:u-1:minimum-connection-time,
27:u0:houston-intercontinental,
27:u-2:minimum-connection-time,
7:u0:4400,
8:u-1:4400,
8:u-2:4400,
7:u0:1026,
9:u0:o'hare,
10:u-1:o'hare,
10:u-2:o'hare,
9:u-1:718am,
10:u0:chicago,
11:u-1:chicago,
11:u-2:chicago,
11:u0:montreal,
12:u-1:montreal,
12:u-2:montreal,
14:u0:150-dollars,
11:u0:columbus,
12:u-1:columbus,
12:u-2:columbus,
11:u0:st.-paul,
9:u0:newark,
10:u-1:newark,
12:u0:cleveland,
10:u-2:newark,
13:u-1:cleveland,
13:u-2:cleveland,
13:u0:new-jersey,
14:u-1:new-jersey,
14:u-2:new-jersey,
6:u0:jfk,
7:u-1:jfk,
7:u-2:jfk,
14:u-2:la-guardia,
12:u0:nashville,
13:u-1:nashville,
13:u-2:nashville,
11:u0:weekdays,
21:u0:westchester-county,
22:u-1:westchester-county,
22:u-2:westchester-county,
13:u-1:las-vegas,
13:u-2:las-vegas,
5:u0:ff,
12:u0:tower-air,
13:u-1:tower-air,
13:u-2:tower-air,
13:u0:long-beach,
14:u-1:long-beach,
14:u-2:long-beach,
7:u0:ohio,
5:u0:sa,
10:u0:seattle,
11:u-1:seattle,
11:u-2:seattle,
7:u0:1993,
5:u0:nw,
8:u0:bring,
9:u-1:bring,
9:u-2:bring,
6:u0:mco,
10:u0:calling,
11:u-1:calling,
11:u-2:calling,
5:u0:la,
7:u-1:mco,
7:u-2:mco,
11:u-1:memphis,
11:u-2:memphis,
7:u0:i've,
6:u0:got,
8:u-1:i've,
11:u0:somebody,
7:u-1:got,
8:u-2:i've,
7:u0:else,
12:u-1:somebody,
7:u-2:got,
8:u-1:else,
12:u-2:somebody,
8:u0:wants,
8:u-2:else,
9:u-1:wants,
7:u-2:who,
9:u-2:wants,
12:u0:charlotte,
13:u-1:charlotte,
13:u-2:charlotte,
14:u0:kansas-city,
5:u-1:q,
13:u0:difference,
14:u-1:difference,
14:u-2:difference,
5:u-2:q,
12:u0:tennessee,
13:u-1:tennessee,
13:u-2:tennessee,
17:u0:north-carolina,
5:u0:qo,
6:u-1:qo,
6:u-1:ff,
6:u0:ewr,
7:u-1:ewr,
6:u0:bur,
8:u0:train,
9:u-1:train,
9:u-2:train,
9:u0:laying,
10:u-1:laying,
10:u-2:laying,
13:u0:air-canada,
14:u-1:air-canada,
14:u-2:air-canada,
12:u0:minnesota,
9:u0:stands,
10:u-1:stands,
10:u-2:stands,
15:u-1:kansas-city,
15:u-2:kansas-city,
10:u0:florida,
11:u-1:florida,
11:u-2:florida,
10:u0:landing,
11:u-1:landing,
11:u-2:landing,
7:u0:soon,
8:u-1:soon,
8:u-2:soon,
6:u0:ten,
7:u-1:ten,
7:u-2:ten,
18:u0:during-the-week,
19:u0:during-week-days,
20:u0:san-diego-airport,
21:u-1:san-diego-airport,
21:u-2:san-diego-airport,
10:u0:instead,
11:u-1:instead,
11:u-2:instead,
33:u0:as-soon-thereafter-as-possible,
6:u-1:nw,
6:u-2:nw,
18:u0:phoenix-airport,
19:u-1:phoenix-airport,
19:u-2:phoenix-airport,
14:u0:meal-code-s,
8:u-1:uses,
8:u-2:uses,
6:u0:lax,
7:u-1:lax,
7:u-2:lax,
11:u-1:numbers,
11:u-2:numbers,
8:u-1:ohio,
8:u-2:ohio,
13:u-1:minnesota,
13:u-2:minnesota,
17:u-1:new-york-city,
17:u-2:new-york-city,
9:u0:canada,
10:u-1:canada,
10:u-2:canada,
11:u0:listings,
12:u-1:listings,
12:u-2:listings,
11:u0:missouri,
12:u-1:missouri,
12:u-2:missouri,
7:u0:utah,
8:u-1:utah,
8:u-2:utah,
7:u0:1222,
8:u-1:1222,
8:u-2:1222,
13:u0:preferably,
14:u-1:preferably,
14:u-2:preferably,
9:u0:497766,
10:u-1:497766,
10:u-2:497766,
8:u0:810pm,
9:u-1:810pm,
9:u-2:810pm,
18:u-1:north-carolina,
18:u-2:north-carolina,
7:u0:runs,
8:u-1:runs,
8:u-2:runs,
6:u0:505,
7:u-1:505,
7:u-2:505,
9:u0:that's,
10:u-1:dinner,
10:u-1:that's,
10:u-2:dinner,
10:u-2:that's,
6:u0:163,
13:u0:thirteenth,
10:u-1:eighth,
10:u-2:eighth,
11:u0:includes,
12:u-1:includes,
12:u-2:includes,
18:u0:alaska-airlines,
19:u-1:alaska-airlines,
19:u-2:alaska-airlines,
9:u0:nevada,
10:u-1:nevada,
10:u-2:nevada,
10:u0:detroit,
11:u0:michigan,
11:u-1:detroit,
12:u-1:michigan,
11:u-2:detroit,
12:u-2:michigan,
11:u0:actually,
12:u-1:actually,
12:u-2:actually,
14:u0:westchester,
15:u-1:westchester,
15:u-2:westchester,
8:u0:thing,
9:u-1:thing,
9:u-2:thing,
6:u0:130,
7:u-1:130,
7:u-2:130,
11:u-2:another,
20:u0:milwaukee-airport,
21:u-1:milwaukee-airport,
21:u-2:milwaukee-airport,
20:u0:the-following-day,
13:u0:twenty-six,
9:u0:prefer,
10:u-1:prefer,
10:u-2:prefer,
9:u0:quebec,
10:u-1:quebec,
10:u-2:quebec,
10:u0:indiana,
11:u-1:indiana,
11:u-2:indiana,
11:u0:reaching,
12:u-1:reaching,
12:u-2:reaching,
10:u0:reaches,
11:u-1:reaches,
11:u-2:reaches,
4:u0:7,
5:u-1:7,
5:u-2:7,
12:u0:following,
13:u-1:following,
13:u-2:following,
8:u0:route,
15:u-1:seventeenth,
15:u-2:seventeenth,
14:u-1:fourteenth,
14:u-2:fourteenth,
14:u-1:thirteenth,
14:u-2:thirteenth,
7:u0:date,
8:u-1:date,
8:u-2:date,
12:u0:hopefully,
13:u-1:hopefully,
13:u-2:hopefully,
7:u0:home,
21:u0:northwest-airlines,
22:u-1:northwest-airlines,
22:u-2:northwest-airlines,
7:u0:days,
8:u-1:days,
8:u-2:days,
6:u0:415,
7:u-1:415,
7:u-2:415,
10:u0:arizona,
11:u-1:arizona,
11:u-2:arizona,
12:u-1:st.-paul,
12:u-2:st.-paul,
12:u0:northwest,
13:u-1:northwest,
13:u-2:northwest,
24:u0:ontario-international,
25:u-1:ontario-international,
25:u-2:ontario-international,
10:u0:friends,
11:u-1:friends,
11:u-2:friends,
18:u0:toronto-airport,
16:u-2:twenty-sixth,
21:u0:la-guardia-airport,
22:u-1:la-guardia-airport,
22:u-2:la-guardia-airport,
6:u-1:la,
6:u-2:la,
9:u0:single,
10:u-1:single,
10:u-2:single,
14:u-1:eighteenth,
14:u-2:eighteenth,
10:u0:red-eye,
11:u-1:red-eye,
11:u-2:red-eye,
11:u-2:twelfth,
13:u0:twenty-two,
15:u0:america-west,
16:u-1:america-west,
12:u0:southwest,
16:u-2:america-west,
13:u-1:southwest,
13:u-2:southwest,
14:u-1:twenty-two,
14:u-2:twenty-two,
6:u0:six,
7:u-1:six,
7:u-2:six,
12:u0:salt-lake,
10:u0:tonight,
11:u-1:tonight,
11:u-2:tonight,
8:u0:visit,
9:u-1:visit,
9:u-2:visit,
7:u0:them,
8:u0:lives,
8:u-1:them,
9:u-1:lives,
8:u-2:them,
9:u-2:lives,
7:u-1:530,
7:u-2:530,
25:u0:st.-petersburg-airport,
6:u0:539,
22:u0:trans-world-airline,
23:u-1:trans-world-airline,
23:u-2:trans-world-airline,
9:u0:1030am,
10:u-1:1030am,
9:u0:1130am,
10:u-2:1030am,
9:u0:1115am,
10:u-1:1115am,
9:u0:1245pm,
10:u-2:1115am,
4:u0:9,
5:u-1:9,
5:u-2:9,
19:u0:at-the-same-time,
13:u0:new-york's,
14:u-1:new-york's,
32:u0:toronto-international-airport,
33:u-1:toronto-international-airport,
33:u-2:toronto-international-airport,
36:u0:los-angeles-international-airport,
37:u-1:los-angeles-international-airport,
37:u-2:los-angeles-international-airport,
38:u0:san-francisco-international-airport,
39:u-1:san-francisco-international-airport,
39:u-2:san-francisco-international-airport,
10:u0:closest,
11:u-1:closest,
11:u-2:closest,
5:u0:19,
6:u-1:19,
6:u-2:19,
6:u0:845,
7:u-1:845,
7:u-2:845,
8:u0:230pm,
9:u-1:lunch,
9:u0:supper,
10:u-1:supper,
6:u0:823,
7:u-1:823,
7:u-2:823,
7:u0:1024,
8:u-1:1024,
8:u-2:1024,
7:u0:1205,
8:u-1:1205,
8:u-2:1205,
6:u0:305,
7:u-1:305,
7:u-2:305,
8:u0:723pm,
9:u0:1020pm,
9:u0:nights,
10:u0:fridays,
9:u0:1230pm,
8:u0:934pm,
7:u0:2134,
9:u0:taking,
10:u-1:taking,
10:u-2:taking,
6:u0:311,
7:u-2:ewr,
15:u0:9-o'clock-pm,
16:u-1:9-o'clock-pm,
16:u-2:9-o'clock-pm,
11:u0:nonstops,
12:u-1:nonstops,
12:u-2:nonstops,
8:u0:vegas,
9:u-1:vegas,
9:u-2:vegas,
4:u0:h,
13:u0:1200-hours,
11:u0:sunday's,
12:u-1:sunday's,
12:u-2:sunday's,
14:u0:wednesday's,
15:u-1:wednesday's,
15:u-2:wednesday's,
11:u0:friday's,
12:u-1:friday's,
12:u-2:friday's,
17:u-2:twenty-eighth,
19:u-1:12-o'clock-noon,
19:u-2:12-o'clock-noon,
6:u0:mia,
6:u0:bna,
6:u0:ord,
7:u-1:ord,
7:u0:11pm,
11:u0:february,
12:u-1:february,
22:u0:continental-airline,
8:u0:march,
9:u-1:march,
12:u-2:february,
9:u-2:march,
13:u0:love-field,
20:u0:northwest-airline,
21:u-1:northwest-airline,
21:u-2:northwest-airline,
6:u0:iah,
7:u-1:iah,
6:u0:hou,
7:u-1:hou,
14:u-1:love-field,
14:u-2:love-field,
34:u0:canadian-airlines-international,
5:u0:cp,
6:u-1:cp,
20:u0:canadian-airlines,
21:u-1:canadian-airlines,
10:u0:choices,
11:u-1:choices,
11:u-2:choices,
9:u-2:718am,
13:u0:dinnertime,
14:u-1:dinnertime,
7:u0:1288,
6:u0:d10,
11:u0:takeoffs,
12:u-1:takeoffs,
11:u0:landings,
12:u-2:takeoffs,
12:u-1:landings,
33:u0:general-mitchell-international,
12:u-2:landings,
41:u0:general-mitchell-international-airport,
6:u0:off,
7:u-1:off,
7:u-2:off,
10:u0:takeoff,
11:u-1:takeoff,
11:u-2:takeoff,
27:u0:general-mitchell-airport,
34:u-1:general-mitchell-international,
34:u-2:general-mitchell-international,
10:u0:located,
19:u0:general-mitchell,
13:u0:lunch-time,
9:u-2:lunch,
12:u0:nationair,
13:u-1:nationair,
13:u-2:nationair,
6:u0:yyz,
25:u0:lester-pearson-airport,
21:u-2:canadian-airlines,
35:u-1:canadian-airlines-international,
35:u-2:canadian-airlines-international,
10:u0:midwest,
10:u0:express,
11:u-1:midwest,
11:u-1:express,
11:u-2:midwest,
11:u-2:express,
8:u0:720am,
10:u0:highest,
11:u-1:highest,
11:u-2:highest,
0=0x1.b20b35d3065fp+2
81=0x1.cd15a583aea04p+1
82=0x1.074376447e0dcp-1
83=0x1.cd3f89b4d9ccap+0
85=-0x1.47027c292541dp-8
86=0x1.35385d844fbdap+0
87=0x1.20d0cadb1b766p+0
88=0x1.81ed7623b261cp-3
89=0x1.1eaf4230b3c5cp+0
90=0x1.08a7f007e32c5p+0
92=0x1.1857b76b91fc1p+0
93=0x1.1332a811afb9ep+0
94=0x1.1e456b4779694p-1
97=0x1.ab595083a05a5p+0
104=0x1.aff89598b9bccp-4
109=0x1.7e047cd986cb3p-1
112=0x1.8b1a336672cffp+0
130=0x1.28977994b67aap+0
141=0x1.784f523f8f2dp-5
162=0x1.cd15a583ae51bp+1
163=0x1.074376447e03cp-1
164=0x1.cd3f89b4d9cc2p+0
166=-0x1.47027c292541dp-8
167=0x1.35385d844fb5ep+0
168=0x1.20d0cadb1b6f6p+0
169=0x1.81ed7623b27bep-3
170=0x1.1eaf4230b3c5ep+0
171=0x1.08a7f007e32c5p+0
173=0x1.1857b76b91fc1p+0
174=0x1.1332a811afba7p+0
175=0x1.1e456b4779694p-1
178=0x1.ab595083a05a5p+0
185=0x1.aff89598b9bcep-4
190=0x1.7e047cd986cb5p-1
193=0x1.8b1a336672cf3p+0
211=0x1.28977994b6893p+0
222=0x1.784f523f8f2dp-5
243=0x1.7b4e839e2b08cp+2
324=0x1.5ea9e11c66f27p+1
405=0x1.2faf689d84ce4p+2
406=0x1.bd80d9ac0c00ep-3
407=0x1.3af0055eb13d7p+0
410=0x1.6745a8a08441ep-1
411=0x1.6051b6fae5501p+1
413=0x1.72b0405f518b7p+1
414=0x1.38b6039e6e65fp+1
417=0x1.7a92c16368925p-1
418=0x1.3333ea096cc47p-3
421=0x1.896d97e360c86p+1
423=0x1.49d1859b041cp+0
428=0x1.07d216b498104p+1
433=0x1.69e9cad5f90bcp-4
434=0x1.6d71130876d8bp+1
436=0x1.df88a51bdf17p-2
437=0x1.5e351a9a8b318p-1
467=0x1.d0a871c547b2cp+0
486=0x1.2e69ba1c363abp+5
567=0x1.936ea520393e4p+1
690=0x1.2bae40b81a4adp-1
729=0x1.80c043d0588fbp+2
810=0x1.fd8e9dba31bd2p+2
812=0x1.8f8c137b3b0c3p+0
814=0x1.527961812eb1fp+3
825=0x1.8935144d7d9ffp+1
826=0x1.4710d40b5f82ep+2
836=0x1.1f384bd902148p+2
837=0x1.0dec67de9a688p+1
848=0x1.fd7778bf4171dp+1
855=0x1.2e8b6c3e5ac46p-2
858=0x1.e2d31646d6129p+2
871=0x1.8ffe8a7e33402p+2
874=0x1.e173994d77b64p+1
879=0x1.fbf6d288446f4p+1
891=0x1.25efa72f8ec34p+2
895=-0x1.b525e38410745p+0
897=0x1.1ee7d54dddfb3p-1
900=0x1.018790f0c6668p+1
903=0x1.bbad18f5657d4p-1
907=0x1.24819647e9864p+0
922=0x1.02affd29df65p-4
972=0x1.511eda84ab049p+3
1053=0x1.e13376479efb8p-4
1134=0x1.1152c457d734p+2
1135=0x1.5e680d820388cp-2
1137=-0x1.50d3f0fbf23ffp+1
1138=0x1.05d2d9377c884p+1
1139=0x1.1bb637f596b8ap+1
1140=0x1.3fbfc971b390bp-3
1141=0x1.a80b4d00d3bbcp+0
1142=0x1.0d05ca84182f2p-4
1144=0x1.412ae96a22229p-1
1145=0x1.2c729663aa3cep-1
1146=0x1.b7fd7aed054cap-2
1148=-0x1.f996c738fcec4p-2
1150=0x1.da34afbd66531p-3
1154=0x1.2eace7e5d7d24p-3
1155=0x1.fcf03abedadb5p+0
1157=0x1.9246e93b818b2p+0
1160=0x1.0dd2da0aa7df5p+2
1173=0x1.4287d4dd3a032p-1
1176=-0x1.5b256034c794dp-1
1178=-0x1.f46d3c60bf44ep-2
1182=0x1.8eeb9bbf4475ap+0
1183=0x1.51d113b1d45e6p-3
1185=0x1.981ab22749ce9p+0
1188=-0x1.b2ff65662d672p-3
1189=-0x1.0a87e18ce197cp-2
1190=0x1.0226c9a7c977bp-1
1198=0x1.fec02664348bp+0
1215=-0x1.43041fe64a535p-2
1216=0x1.44393b7156504p+3
1296=0x1.8e9031496fc96p+0
1297=0x1.26871d6d49891p+1
1298=0x1.aef5d3784fa47p-1
1300=0x1.6a7ff353c4bd9p-1
1301=0x1.c3924f58aec69p-2
1302=0x1.4f0f08ed6ddebp+0
1303=0x1.36ebbc9f713c6p-1
1304=0x1.32810d8d32029p+0
1305=0x1.41a883a282c0fp+1
1307=0x1.cb344ba54b16ep+0
1308=0x1.9fa79ddc26e6ap+1
1310=-0x1.3b68a2a712b6dp-1
1312=0x1.3f206a627b2eep+0
1313=0x1.7312417d3fcc3p+1
1318=0x1.1a6edcb766b01p+1
1319=0x1.b856569192039p-2
1322=-0x1.1fe2b7027bf69p-1
1325=-0x1.b8b919c5fcc9ap-4
1326=0x1.f834ac01eb3d8p-1
1327=0x1.7400641914cc7p+0
1328=0x1.3d07d5724f09p+1
1331=0x1.38763aa96bb47p-2
1336=-0x1.88c4af7e7e59fp-2
1338=-0x1.b2bfb58813345p-2
1344=0x1.1f8ff5473ff8fp-1
1345=0x1.6c70f05e4afe1p+1
1348=0x1.33a2bef9da37ep-3
1349=0x1.2017ecde3d679p+0
1350=-0x1.096ceffbdb964p-1
1351=-0x1.07cf26b841d2cp-2
1375=0x1.5eedd478f7053p-1
1377=0x1.7b9732372d8eep+2
1458=0x1.b967748ee2955p+3
1539=0x1.714869a12eeb8p-2
1559=0x1.8938fd020e682p+0
1620=0x1.25efc7a88da49p+2
1622=0x1.58fd56e61e03bp-4
1625=0x1.67f217802b308p-4
1626=0x1.501189e3d2551p-1
1627=0x1.fbfc9d0285334p-2
1628=0x1.307831799002ap-1
1629=0x1.a4fbd9bd3c0c5p-1
1630=0x1.493edc4d5d429p-7
1632=0x1.706b5975a8ec9p+0
1640=-0x1.768aaf8cf9b5p-2
1645=0x1.9163146dc343cp-1
1653=0x1.bef9a0ed24a8cp-1
1656=0x1.c17e2f43bb25ep+0
1657=0x1.f4a1aa76725b8p-1
1662=-0x1.730a029b04ae4p-1
1676=0x1.cce9432aece45p-6
1680=0x1.9f32825615936p-1
1691=0x1.126d8a976d195p-1
1700=0x1.b2012d2264c67p-1
1701=0x1.3c242318644bdp+5
1782=0x1.9de7c23fc6dacp+1
1790=0x1.d07e5fcdf04d4p-1
1792=0x1.6964c7e35843p+0
1795=0x1.69000dafbd85bp+1
1811=0x1.7691eda4ecaf2p+2
1833=0x1.ea01674189ea8p+0
1863=0x1.6024d47c95d4cp+0
1944=-0x1.27fec446b8c29p-3
1946=0x1.1bffb42dad8eap+2
1948=0x1.060f6711df193p+2
1960=0x1.109e2b94594efp+1
1970=0x1.a39269216a0fcp+1
2025=0x1.7b48397ee02efp+3
2027=0x1.068194030c442p+4
2028=0x1.0fb425a56f48cp+3
2041=0x1.1073c6e11dc73p+2
2047=0x1.c55f94bb7a5c6p+3
2076=0x1.1ec34aad9663p+0
2085=0x1.81602d10323fdp+3
2106=0x1.51bae668b52a7p+1
2108=0x1.5b9af0b57cc7cp+1
2109=0x1.5aa4819c5df91p-3
2111=0x1.a541c99cb7849p-1
2114=0x1.924108ffef3cap-1
2117=0x1.0d72c0c7cdc36p-1
2118=0x1.344b8cbfe9234p-1
2124=0x1.e8cac6e135b06p-3
2135=0x1.019b599db34e8p+2
2161=-0x1.20c6374835cep-1
2166=0x1.d2f31bfd1208fp-3
2187=-0x1.e781e701160c5p+0
2189=-0x1.c4aaaecfd1422p+1
2190=0x1.1da0247e6d465p+3
2191=-0x1.4aec1ec301ae7p+1
2231=0x1.c9e8fbdedc6ap+1
2251=0x1.ec54283fff2e5p+2
2257=0x1.5d7f55f9559cp+2
2268=0x1.25aedd207287ep-2
2286=0x1.9f03f5b52dc34p-4
2312=0x1.a956372c4378cp+1
2332=0x1.92109d65f5a48p+0
2338=0x1.0ffeb3e4654c8p-2
2349=0x1.70aa2e7373ad7p+2
2351=0x1.5517835348a2bp+0
2352=0x1.bd7bbccfed3ebp+1
2353=-0x1.2f6ca020557a7p+0
2363=0x1.8829f69e20d08p+2
2367=0x1.d067d9ced6e56p-1
2371=0x1.348c1ef8a1812p+2
2381=0x1.0d071df3ba9f1p+0
2391=0x1.bf5fffe417d92p+0
2404=0x1.9629fd78a981ap+0
2405=0x1.3d9fe80e2d952p+1
2413=-0x1.f178b8c9ed899p-1
2430=0x1.3dfab39d579cfp+0
2432=0x1.31ff84875ff7fp+0
2434=-0x1.cdc2e30541d9fp-4
2511=0x1.57d560d0a130dp+1
2513=-0x1.686fd3d5b9e64p-1
2515=0x1.d5462ff265393p+0
2516=0x1.bd4ff206000b7p-2
2538=0x1.45d40e68cf6ap-1
2592=-0x1.55ed001adc144p+0
2594=0x1.a0ad6d54eb549p+2
2596=0x1.5e6d1285d9a95p+2
2607=0x1.2791664e9d1dp+1
2608=0x1.7ecfa268a4d5ap+1
2673=0x1.dfd591f87bd44p-1
2677=-0x1.1af1b0b705b4ap-2
2678=0x1.1b29484b45a0ap-1
2684=0x1.925a09769e495p-1
2688=-0x1.63bff4ac850dep-2
2691=0x1.46ff427e7f632p-2
2699=0x1.467a6e99ffe55p-1
2712=-0x1.7cc1e74caff83p-4
2754=0x1.3baf80e2ad8bp+2
2835=0x1.38fd5a54f76aap+1
2916=0x1.84f3855aff6d4p+2
3078=0x1.0ea0d28fb5376p+0
3082=-0x1.57daf6aec853p-4
3094=0x1.7997091ea7801p-4
3159=-0x1.4753e49e6173p-4
3161=0x1.a01d387b5af57p+2
3163=0x1.29828f4f7a5bfp+2
3174=0x1.0642837eba41dp+2
3175=0x1.04af652c43871p+2
3321=0x1.000e4206dbb6ep+1
3328=-0x1.a7431ef9028a1p+0
3363=0x1.f1c4979a5f285p-1
3372=-0x1.14d1145b2893p-2
3388=0x1.53365b816c341p+1
3402=-0x1.dd60d77763029p-1
3404=0x1.886e71607354cp+2
3406=0x1.383f2ac2758bp+2
3417=0x1.2bab62bdd8bcbp+1
3418=0x1.8ce7906531eb4p+1
3483=0x1.da38655ed6d91p+0
3485=-0x1.6b411e4b10142p-2
3487=0x1.95cecac25867p-1
3488=0x1.34c44a71146bbp-3
3499=0x1.753b5d9f7f15bp-2
3501=0x1.63773dd1dae23p-1
3510=0x1.6a9026ae5b351p-2
3538=-0x1.af14e718c76a6p-1
3564=0x1.05e5c7e3ccbd6p+3
3645=0x1.1820b518fe402p+2
3726=0x1.c604d463fd032p+2
3732=0x1.cb18e5ca833e6p-1
3807=0x1.5ecf976f3da26p+0
3888=0x1.ae959dc496fd6p+1
3969=0x1.957165a70d7fcp+2
3981=0x1.8dfa2e20be477p+0
4062=0x1.1d166756817eep+1
4131=0x1.765256618c0f1p-1
4212=0x1.484a141a818b3p+2
4293=0x1.263b1e2fc1ed3p+2
4297=-0x1.7f48d160739dbp-8
4305=0x1.3659bfc6f9e1dp+1
4324=0x1.07365bffedfa9p-3
4455=-0x1.376fecedcde3cp+0
4457=0x1.9901fbbe016c4p+2
4459=0x1.7db7aef6747a4p+2
4470=0x1.5a2e0066bef14p-2
4471=0x1.d149c9545feccp+1
4617=0x1.373bfceafa89ap+3
4698=0x1.f680063f74eddp-2
4700=0x1.105d9e3999418p+0
4710=0x1.75edafe582b8ep+0
4724=-0x1.bf2551b54a117p-1
4747=0x1.972d55182cbp+1
4779=-0x1.8e69e03a5697ep-1
4783=-0x1.3489aedfcff54p+0
4784=0x1.035fc6b7dd691p+3
4834=0x1.50013fd856494p+2
4848=0x1.ba45551374e56p+1
4860=0x1.f8697eae22f75p+0
4865=0x1.a8b419c17c4cep+1
4867=0x1.931238fc1df8ep-1
4868=0x1.f88ea2f2d5079p+1
4872=0x1.9ee87fc79b272p-2
4876=-0x1.eb85170dad393p-2
4877=0x1.5e828021df895p+0
4878=0x1.e38f365b5310ap+1
4882=0x1.6d9ac81e52b2ep-3
4887=0x1.7c8c490721d8ap-2
4899=0x1.8f262c6b954f4p+1
4906=0x1.a731f2fb8fec9p-1
4915=0x1.8da2761f1bca1p+1
4929=0x1.1a6db9521cc09p+1
4933=0x1.7585db0d9f9a2p+0
4941=0x1.07d2c5b1a8cb9p+0
4943=-0x1.0d863b534caccp-1
4945=0x1.c6dc729faeaa2p-1
4946=0x1.d3f82b4f9358bp-2
4949=0x1.352f9ee151d4ap-4
4952=0x1.08c7c83b433ap+0
4957=-0x1.bba45aac1cd42p-5
4959=0x1.18bb71dc1acp-15
4960=0x1.2f82b265e94aap+0
4961=0x1.66652a555946cp+0
4968=0x1.770ca6beb7443p-4
4980=-0x1.4872e79f3ef35p-1
4983=0x1.020d50afc7fp-4
4989=0x1.15a539b480368p-1
4996=-0x1.34a1831186c7ep-3
5010=0x1.1485a7fe9f0b5p+0
5022=-0x1.7b33b890bf821p+0
5028=0x1.d06c2fef48fcp+2
5049=0x1.84584877d12b6p+1
5052=0x1.03db720cb1128p+2
5057=0x1.8693ac5fe3a25p+1
5102=0x1.059ef3370153dp+2
5109=0x1.0a090e41b8b32p-1
5121=-0x1.4a80b91050011p-3
5133=0x1.c7d0b78af7d87p+0
5142=0x1.f711b56bf6f2p-1
5145=0x1.85c32770f214bp-1
5178=0x1.1fe51095ef585p+1
5184=0x1.8fda83920a8p+1
5189=0x1.2a4638e894993p+0
5190=0x1.2ab47a7ba8917p+0
5191=0x1.252bd9e2d8f65p+1
5194=0x1.88105ae56df3cp-6
5195=0x1.b944615723dd2p-3
5196=-0x1.254e235d03555p-7
5201=0x1.ba753e2917588p+1
5202=0x1.75fce7077575p+0
5209=0x1.3bc2106ef4b22p+0
5213=0x1.f14aaafd6de12p-1
5214=0x1.f773cf75ad656p-1
5219=0x1.30c854bb89ae3p+0
5223=0x1.f2be386829f9cp+0
5224=0x1.64c1a409c4ac8p+1
5226=0x1.a5863d990e726p-2
5239=0x1.dcbcaea958c67p+0
5265=0x1.6ee0510485e8fp-2
5346=0x1.cd1e990c66f25p-1
5353=0x1.0d062658092fdp-2
5356=0x1.a98d361f8d87ap-3
5363=0x1.714c99b107723p+0
5373=0x1.14719155fac39p-1
5386=0x1.342d0f8318129p+1
5388=-0x1.9d492bfd10ab6p-1
5422=0x1.443f77f2c5198p+1
5424=0x1.3c787a4069d72p+0
5427=0x1.0ff3a6fb4c692p+0
5431=0x1.8c3581342b6d9p+0
5443=-0x1.29f26fbb70416p-3
5473=0x1.3b2745d47e28ep+1
5508=0x1.7e8925a12e68dp+1
5589=0x1.01bd435c90b23p+3
5751=0x1.914637cf5513ep+2
5913=0x1.13e31a87faf2bp+2
5994=0x1.0ed181a8bc0d7p+2
5998=-0x1.16bffdbbed655p-2
6082=0x1.06bac912d160ep+3
6087=0x1.ab98a6fb0b6ep+0
6129=0x1.64e5c3efd7e4ap+2
6146=0x1.2800d4b36084cp+1
6156=0x1.be8d31270d765p-2
6237=0x1.df0fa81887513p+0
6242=0x1.2292a2167c5eap+1
6292=0x1.459fe244b2a5ap+1
6320=-0x1.dbe237fc528bfp-3
6340=0x1.b5fdf730a947ap-2
6399=0x1.ba2700dd16559p+0
6429=0x1.1d43b116662d3p-2
6480=0x1.a0cf307782ccbp+2
6569=0x1.a64198998b662p+2
6644=0x1.50f40c65b83b5p+1
6646=-0x1.24d3bd3844886p-3
6650=0x1.0e406a6102b63p+0
6665=0x1.b55ba31d91009p+0
6723=0x1.23dbe4b3559aap+3
6885=0x1.9ff813a962f67p+0
6887=0x1.4a0df90462d54p-2
6968=0x1.e1c0f0ccafe88p+2
6970=0x1.59a41666ce2d9p+2
6981=0x1.cadf2f39aac4dp-5
6982=0x1.09e593e79cf63p+2
7047=0x1.02e02312eef2fp+0
7049=0x1.3180d6669277fp+2
7051=-0x1.225580b290e48p-4
7063=-0x1.76a5b8ed3ccf6p-2
7069=0x1.be065b98ccbdap+1
7074=-0x1.ea3fc6c362997p-2
7105=0x1.620910b378ed8p+2
7107=0x1.3f96e7d25548cp+1
7112=0x1.5466c0ce077p+2
7209=0x1.2bdb227c6e324p+3
7290=0x1.3a6141128c717p-1
7294=0x1.2e0e5320a7406p+1
7332=0x1.c5256b33cb9c6p-1
7338=0x1.6a17e04390bb3p+0
7371=0x1.8fc583a6eceb9p+1
7374=0x1.883b8d8a960f2p+0
7385=0x1.86f1993a2817bp+0
7393=0x1.633865d3764c4p+1
7435=-0x1.1866bf26def0cp-1
7452=0x1.144055ae36c44p+2
7454=0x1.e50827c94b479p-1
7455=-0x1.bb900d8818a97p-2
7456=0x1.135b86591967ap+2
7457=0x1.1490f70ec028p+1
7460=0x1.3e85a97717e49p+0
7461=0x1.9ebd4bd14a747p+0
7462=0x1.96c11c34d61f9p-1
7465=0x1.156055ab59905p-1
7467=-0x1.14b4c70aebe75p-3
7468=0x1.1619333324963p-4
7469=0x1.42215276bc298p-4
7471=-0x1.4676666d58af2p+0
7472=0x1.9ac6b6c13d714p-1
7482=0x1.324dd1527d8f4p-2
7485=0x1.29492320ac8a3p+1
7494=0x1.31155f043856dp-2
7505=0x1.a6a62160df9efp-1
7511=0x1.1209516edab9bp+2
7513=0x1.d7b935c3402f7p+0
7518=0x1.e79836d4ef87ap+1
7533=0x1.a6c433ef7f9bbp+0
7535=-0x1.02a935a367645p-4
7537=0x1.a7cc38f86ebacp+0
7538=0x1.657fd7b4042d4p-1
7544=0x1.0f82ebbc1179ap+1
7548=0x1.f5e9905183df2p-2
7550=0x1.6e64bb5019673p-1
7551=-0x1.dff95051e3d3ap-5
7554=0x1.b33e3a2588903p-4
7560=0x1.18674bbea90dep+1
7572=0x1.2ef7fa0ac3995p-2
7581=0x1.ded7271a2e9cap-2
7589=-0x1.51e25b819305cp+2
7594=0x1.f50eaf614333fp-1
7597=0x1.a5f71807d6f1dp+0
7614=0x1.c82546ce94d13p+2
7695=0x1.8bdca58b78744p+1
7776=0x1.8b409f85a9131p+2
7857=0x1.5e78749ba58f2p+3
8019=0x1.d52b51caae4f7p+1
8025=0x1.133563f0bfd2p-4
8100=0x1.53fd8628aef84p+2
8102=0x1.3edfd2c6a2a76p-4
8104=-0x1.5b7ad3cf49625p-4
8105=0x1.862c3ff8cf9cfp-5
8108=0x1.d19eb6883a82dp-3
8109=0x1.e834e4631330fp+0
8116=0x1.229ab8aee2307p+0
8120=0x1.d7a7d54cd591dp+0
8135=0x1.7384e2f7f3274p+0
8181=0x1.877a30f06514ap+1
8262=0x1.a68312873f5e5p+4
8343=0x1.df6fb138526e9p+1
8344=0x1.3692106d268d3p-2
8345=0x1.5f78e74b382cap-1
8348=0x1.924bdb219747dp+0
8349=0x1.153f7587cbe4ep-1
8351=0x1.7889e1acc567ap+0
8352=0x1.0e080d2accad5p+0
8355=0x1.4b119a44df286p-2
8359=0x1.40f2529a363eep-3
8363=0x1.39e02e1b6cf4bp+0
8366=0x1.c1179ad0ca1ffp-1
8376=-0x1.dd9187fddebaep-12
8392=-0x1.841cd7da9fcbap-2
8396=0x1.b93cf9e6ce044p+0
8424=0x1.c8fe0d2168b9dp+1
8426=0x1.3c6493f201684p+1
8428=0x1.9ff33b2c73ed2p+0
8431=0x1.fce0cf58ec222p-2
8432=0x1.4fbb84cc26728p-2
8434=0x1.9846a48892635p-1
8436=0x1.5d0051f49adddp+1
8443=-0x1.c7dbe7040b784p-4
8466=-0x1.4ff6d20937bf6p-4
8487=0x1.1f9336ac74512p+0
8505=0x1.84b971f796a09p+1
8507=0x1.79c3ed9075796p+1
8508=0x1.4923e11de7078p-3
8511=0x1.6acbc1afaa925p-1
8513=0x1.db8388b289a8ep+0
8514=0x1.37704729458d2p+1
8516=0x1.e47e2d54f93bbp+0
8527=0x1.f35916111c25ap-1
8560=0x1.86b5e0b89e5ep+0
8561=-0x1.c99087c6ea54ep-1
8563=-0x1.60ac82d4a0378p-10
8565=0x1.ea072015ec689p-1
8586=0x1.0746cd4a16c88p+1
8587=0x1.4d991ef0ee406p+1
8593=0x1.75f4c94c398bfp+0
8613=0x1.676fd3f41a2dbp-1
8667=0x1.0878d10062599p+2
8670=-0x1.a5dc874f9ae75p-1
8671=0x1.47ca3db6a5d0ep-2
8678=0x1.9e2b3fe457a63p-1
8679=0x1.9c906ad2ccd1ap-2
8683=0x1.1ef5e0ec5565dp-3
8693=0x1.18c00f2d6d0aap+1
8696=0x1.2812e0623da0bp-3
8700=0x1.be7f0c9cde9bap+0
8713=0x1.961f25667f8cfp+0
8731=0x1.747581e2a5ae8p-1
8738=0x1.2226a3cbcba95p+0
8748=-0x1.e2a389d340743p-1
8753=0x1.d8ba0ee3ef636p+2
8803=0x1.0b08002bdcc7p+2
8817=0x1.656d3a26c355ep+1
8829=0x1.c84ffd328b7ecp-1
8831=-0x1.2461aac68f468p-1
8833=0x1.78dd7801a1bdap+0
8836=0x1.1864543b32c1ap+1
8838=0x1.3a8cb37737a02p+0
8856=0x1.146449017b46p+0
8862=-0x1.37765eafdb854p-1
8871=0x1.9f8522f7336b1p-2
8877=0x1.6b6a61582b80ep+0
8898=0x1.6b967744812a7p+0
8910=0x1.29b742d1bbfbfp+2
8991=0x1.afcd67b05ad3cp-1
9072=0x1.29782125e1ec4p+0
9153=0x1.0f4fc8b12aadcp+3
9234=0x1.5303bc079025ap+1
9315=0x1.9c26a053d8589p+1
9317=0x1.56db2578893fep-6
9326=0x1.45c11639cf6adp-4
9342=-0x1.0bb7fa2ef807ap+0
9353=0x1.c335862867732p+1
9368=0x1.7167c5b015524p+1
9396=0x1.7334ee088f59ep+0
9398=-0x1.fb43d990e8a97p-2
9406=0x1.c67708ceff28bp-1
9447=0x1.92d90f69d917dp+1
9477=0x1.35ce39de75d4bp+1
9481=0x1.4a4157867bf7bp+0
9487=0x1.733d9da3c2041p-1
9488=0x1.c2ca799a9b3fcp-1
9495=-0x1.55c2c4feda42ep-1
9496=0x1.1f41cb9d513a8p-6
9504=-0x1.19ff03540bd4p-9
9510=0x1.a066f98a10b74p+0
9516=0x1.6b4512cc683bp-1
9538=0x1.946504844ab6fp+0
9542=0x1.b7cebfeb310b7p-3
9558=0x1.0ef64e0e365dcp+3
9639=0x1.dce1b0d756f6ap+0
9641=0x1.404fe19ed5297p+0
9644=0x1.4dbd57c7fa602p+0
9645=0x1.51cfe40435e6cp-6
9647=0x1.f35f4bc3b7dafp-2
9648=0x1.9e08d87860828p-2
9650=0x1.3ad314c7fa507p+0
9651=0x1.2849133f89d85p+1
9658=0x1.04252ec3d337ep-3
9659=0x1.25c830269db0cp-2
9664=0x1.d8c181a12c3cfp+1
9667=0x1.590e5fe4e1e37p-3
9670=0x1.56b2fe6dd8857p+0
9672=-0x1.0ca95491a69dp+0
9677=0x1.d8071e93a888dp-1
9682=0x1.02682f5a200ap+1
9694=0x1.e2989ddca1ce6p+0
9720=0x1.f78a5ac3537c7p+1
9730=0x1.1f73f2a492b52p+0
9745=0x1.1ec0f762284b4p+0
9749=-0x1.be141e614afc8p-1
9769=0x1.64c3f5f91dca5p+1
9771=0x1.ad5eb6acc5804p+0
9776=-0x1.593f421000d02p-1
9801=0x1.fa66225c5ee94p+1
9882=0x1.7a8dd00e36832p-1
9972=0x1.1836f76dd694cp+0
10053=0x1.6baf28a97bc6p+2
10208=0x1.9f8c0975f416ap-1
10210=-0x1.6e8b162cee4ap-3
10287=-0x1.ccbdafea824a7p-2
10289=0x1.4f24524f2b443p+2
10291=0x1.7c71eb8ef69d1p+2
10303=0x1.b92da2d8f5e3fp+1
10368=0x1.4086065c52173p+3
10449=0x1.35e6758834ee6p+1
10463=-0x1.0244d0d317fdbp-3
10488=0x1.18a0dc03b9a64p+0
10491=0x1.1b9c06c239f26p-1
10505=0x1.f93a6603feb49p-1
10530=0x1.27380e35e9f38p+1
10532=0x1.5f32e9cd24286p-1
10534=0x1.6d02622fb4de6p+1
10545=0x1.0297ce36193a9p+2
10546=0x1.1234e5ab9e0ddp+2
10562=0x1.0a09e901bbfc7p+0
10572=0x1.adaa888304487p-5
10600=0x1.0f975d623cecap+0
10602=0x1.4b9329340a13ap+0
10611=0x1.9087f69d79439p+0
10613=-0x1.265178328ec14p-4
10615=0x1.61612cd568c9dp+0
10622=0x1.4ee995bbba187p-1
10629=-0x1.be8d1db9edf0bp-3
10638=0x1.1bc1d8f7e6724p+1
10650=0x1.e4113f0094495p+0
10651=0x1.ee1ee21db04f7p-7
10676=0x1.0867f3c76d1bcp-2
10678=0x1.3a678be105228p+1
10698=0x1.164b85e7c471fp+3
10722=0x1.0f606dcd64e93p+2
10727=0x1.1b47a21694debp+2
10773=0x1.771e97dfabe8ap+1
10775=-0x1.192f78ed97328p-5
10776=-0x1.101694e70eb1fp+1
10777=0x1.6d180a85758dap-1
10778=-0x1.056f518c6687dp+1
10780=0x1.11fccff60f326p-4
10782=-0x1.1c6d0b6d7b29cp-4
10785=-0x1.b431e1e001703p+0
10788=0x1.01dc6c6a0aa94p-1
10789=0x1.c4e003b463028p-8
10790=-0x1.8f8246d21f6ebp-3
10797=0x1.a337a646e11f2p-1
10798=0x1.fb1555367b7cfp+0
10799=0x1.466c73f2dd0c4p+1
10800=0x1.764996a166bep+0
10803=0x1.a597739e5e15bp+1
10808=0x1.215c751e0a447p+0
10815=0x1.d6da593379582p+1
10817=0x1.33fbd23e25df9p+0
10822=-0x1.20a9efe811607p-1
10824=-0x1.1b1917a66184cp+0
10827=0x1.fb4fdc59c722cp-2
10828=0x1.ecccb221be3aap+0
10837=-0x1.1355c1177f6fep+1
10840=0x1.e4b94c41bcb78p+0
10843=0x1.3fd84a06ebc83p+0
10852=0x1.6a3bb2582f21p+0
10853=0x1.5958a82585d65p-1
10864=0x1.75bf4a417c2a8p+3
10896=0x1.4b35de1dfd77ep+3
10935=0x1.c44efceef0326p-1
10945=0x1.b06e63c783995p-1
10946=0x1.2bb2c2916c3acp+1
10971=0x1.386c84a71e285p+1
10977=-0x1.1f077aa4f895p-5
11027=0x1.0afaefccc3adfp+0
11097=0x1.e65d21f644c55p-1
11108=0x1.c347183416a2ap+2
11124=0x1.93c0211a4e919p+2
11127=0x1.8a39778173316p-1
11183=-0x1.ea2c44209a7e4p-2
11190=0x1.01c29c4c1a9fcp-3
11205=-0x1.41c1d4c91faabp-2
11215=0x1.3d39838160f88p+1
11247=0x1.a89bab9406dc8p+1
11268=0x1.522de6eae0d85p+1
11513=0x1.1bcaa79095f54p+1
11583=0x1.fb4dd99a62e51p+2
11664=0x1.3dceed1977592p+1
11666=0x1.e2a2459c3d03cp+1
11668=-0x1.b6c0526377d06p-2
11669=0x1.0cf9f538c776cp+1
11670=0x1.afe9cf0984f48p-2
11671=0x1.2c6af0eee3f7ap+0
11674=0x1.9221e0593f8bep+0
11682=0x1.eead6e4e00a41p+0
11685=0x1.20244df76bc9ap+0
11720=-0x1.2e143e489d9b6p-1
11745=0x1.6885d9df5aa2fp+1
11747=0x1.6c5277d7a769fp-1
11750=0x1.78bba6662efcep-2
11751=0x1.abbdf9013dfdbp+0
11755=0x1.324a0077d8f86p+0
11756=0x1.d15fc0d685d1fp+0
11759=0x1.9a71852e6a58ep-1
11762=0x1.4b719a71a29fep+0
11763=0x1.727643e71fac2p-1
11772=0x1.c0e9bc710add2p-6
11787=-0x1.00614a63992bcp+0
11809=-0x1.21ebb30967e45p-1
11810=0x1.2db72c5d7066ap+0
11826=0x1.bd4faedd4a7fp+2
11907=0x1.4acdaf155fcb2p+1
11913=0x1.7dbd2eeb1bc21p-2
11915=0x1.b21621dfc0a12p-1
11916=0x1.1211d22dc02cbp+1
11930=0x1.c5cf0ceb9518ap+0
11938=0x1.4eb16b2ef5978p+0
11988=0x1.4f8d0b2689104p+2
12069=0x1.9fda1b7b2ecd3p+1
12070=0x1.97d2ac028bc1p-9
12077=0x1.09dd359e44eedp+0
12082=0x1.4fec1675e86cdp+1
12118=0x1.118d579faebbdp-1
12121=0x1.b1053fa50e145p-4
12122=0x1.4de17f50ce42p+0
12126=0x1.9178c3cb7311ep+0
12131=0x1.c5bae5a30fff4p+1
12143=0x1.0431a2b10e349p+0
12150=0x1.600558f8e3d5dp-1
12231=0x1.8972de767e527p+2
12312=0x1.3f813c16e888ap-2
12314=0x1.4b967803594e3p+1
12393=0x1.4b0e738c223c3p+1
12421=0x1.e9c411744c4f1p+0
12474=-0x1.7098ddb2b7bep-6
12476=0x1.b2c6c798ead0bp+2
12478=0x1.472f2f5adea5cp+2
12489=0x1.cfc2550d44382p+1
12490=0x1.1ba4739b50906p+2
12555=0x1.f66a1b9915478p+1
12557=0x1.1d8cb768e10ep-1
12561=0x1.5a884c175d5c8p-3
12566=0x1.3a07a099a8029p+1
12636=0x1.3b6d61d9403c8p+0
12646=0x1.2bc6375525b21p+1
12650=0x1.aa07a8108ac15p-3
12660=0x1.44ec70ace913bp+0
12662=0x1.189f843b864d2p-4
12691=0x1.cd3377b8d71bep-1
12717=0x1.c68287f1bac3fp+2
12729=0x1.c6399aa0a4249p+1
12798=0x1.9e796828ae34fp+0
12802=0x1.3c76b536b9e89p+0
12803=0x1.6575b3f56c1c2p+0
12808=-0x1.5d7c2fe05b3fap+0
12809=0x1.704a1900a3012p+1
12810=0x1.0561186d3b332p-5
12814=-0x1.11de12ae904aep-7
12815=0x1.09444383073cap-3
12816=-0x1.e7fed67dc8a18p-2
12825=0x1.3def45263253fp+0
12831=-0x1.025a4ac76d974p-5
12837=0x1.ec5080bff6431p-6
12840=0x1.c0ef1818add94p-1
12853=-0x1.6024bc6bee59cp-2
12859=0x1.ce13135c1f2aap-2
12879=0x1.92999221d73ffp+0
12881=-0x1.e622c9a120704p-1
12883=0x1.c4c7a936849c5p+1
12889=-0x1.9ead3e393a8ap+0
12918=0x1.84bdbe53e3885p+1
12921=0x1.2da6e923da0bp+2
12962=-0x1.50684512fe339p-1
12964=0x1.1c502d509f7a7p+2
12965=-0x1.26b730a2596c2p+1
12970=-0x1.54adf15fa1a52p+0
12971=-0x1.b06635357cf78p+1
12975=-0x1.7f9c1bbadb142p+0
12976=-0x1.3fc4ba08ba117p+0
12977=-0x1.8e7f119165f96p-6
12978=-0x1.83d532e6a41eap+1
12987=0x1.a17bb3617316p+1
12990=0x1.03b5afd954b39p+2
12999=0x1.3366a2c543048p+1
13000=0x1.7b8a919d3afb4p+1
13002=0x1.04888ced64aa8p+1
13008=0x1.7c122b46fba3dp+0
13015=0x1.0428afd2dc12dp+1
13018=0x1.69dd01019132cp+1
13041=0x1.c067bd87f0c47p+2
13122=0x1.d861c06f4a5a2p+1
13203=0x1.3e1eb210cf636p+1
13204=0x1.9f5e4a6c1e949p-2
13211=0x1.430f2f9553756p+0
13216=0x1.0bdf3af1cb61p+1
13219=0x1.6f764142df6e5p-4
13235=0x1.20bdcedf184bp+0
13252=0x1.23987c8b93244p+0
13265=0x1.6e9540da2b04bp+1
13277=0x1.aadeff82074e6p-1
13296=0x1.a3c70a20b4017p+2
13446=0x1.f2978fe79c496p+1
13447=0x1.2669641c4faddp-1
13448=-0x1.949ddd16b954p-3
13453=-0x1.03759b6d9a52dp+1
13455=0x1.64ff27dd2cf11p+0
13457=0x1.21c7222ff22afp-3
13458=0x1.2b05f840a2d4bp+0
13459=0x1.96d356657b886p+0
13462=0x1.517c800088181p+1
13463=-0x1.5311d57ccaaf6p-3
13471=0x1.361cf1fd653ccp-1
13475=0x1.52787ac17bd08p+1
13495=0x1.9d95869f1577fp-6
13498=0x1.e869a7415e35cp+0
13499=0x1.250c89977b0bp-7
13527=0x1.e51e91ff901a3p+1
13689=0x1.af1f85f4f51f6p+0
13770=0x1.5fb14ec1d6d16p+2
13851=0x1.5f8c42e86feaap+0
13861=0x1.3fb83c32d2a5ap+1
13882=0x1.2ef5f33b4a1f3p-1
13932=0x1.543bed5643df4p-1
13936=-0x1.ad528a84b765p+0
13937=0x1.972c63616a691p-5
13938=0x1.9a10acd39d834p+0
13943=0x1.2dce051d60c58p-1
13948=0x1.66ba470b24a3cp+1
13959=0x1.f3cfa1a2eefap-3
13963=0x1.c635e748d716fp+0
13980=0x1.4a0117756ee2p-1
14013=0x1.6fb127c55a601p+2
14094=-0x1.1af9c71cd515ap+0
14102=0x1.387808c7b4906p+3
14175=0x1.410a670d13dbcp-3
14183=0x1.182339e9d70ep+1
14188=0x1.18bf969ee5559p-1
14227=0x1.3361e6e791377p-4
14228=0x1.f82b3dbe7df7bp+0
14232=0x1.1f480b0bb68c5p+1
14237=0x1.98cc3a3e7d16cp+0
14337=0x1.39111d8b1138ap+2
14338=-0x1.59b807de08c3bp-3
14350=0x1.0133c1ec31cfep+1
14369=0x1.09f4c4adb45a1p+1
14447=0x1.1f7d6fe373cb9p-1
14499=0x1.a55e3e76ea635p-3
14508=0x1.2c2a3cfda1f23p+2
14526=0x1.32035fb31afffp+0
14536=0x1.3b70da62b989cp+1
14580=0x1.e0481ad0f7de3p+0
14673=0x1.ff6df21d06534p+2
14724=0x1.479003746b84ep+1
14775=0x1.bc8a1799e251fp-4
14904=0x1.b3c51e784ff4ap+0
14985=0x1.0eb80ffa2257cp+3
15066=0x1.dc6836c2d6c02p+1
15072=0x1.757a777de4aedp-1
15073=0x1.dbf787cea6926p-2
15074=0x1.4f738a7141f5dp+0
15081=0x1.42de991f3c4e9p-2
15082=0x1.2fc0b680fa755p+1
15084=0x1.2b76fed52ce27p+1
15088=0x1.4fd20a0054efep-2
15097=0x1.207343d5f638ep-1
15104=0x1.f86d5102fdafcp+0
15112=0x1.8ed5bf363a90ep-1
15114=-0x1.a254b305afd77p-2
15123=0x1.972ff614179f8p-1
15147=0x1.b77b0d4be9cebp+1
15149=0x1.30ff403e0b01fp-1
15157=0x1.1e48bb421fc3ep+0
15164=0x1.98fcfee3c3035p+0
15172=0x1.4fd3bc31bfbf6p+0
15178=0x1.c9982ef1d194p+0
15181=0x1.23e43721d0a9ap+0
15194=0x1.08d5dce1425f7p+0
15228=0x1.2d7a31203807p+2
15471=0x1.8f55f9d6e0322p+2
15633=0x1.28995ff9fae48p+1
15795=0x1.87c42803eefdbp+0
15799=-0x1.a77a59b28a1bap+0
15811=0x1.b0c666bf8af6ap+1
15827=0x1.5e379bae14b4ep+0
15957=0x1.5bba1024e23e4p+1
15968=0x1.976b5584ae8bp+0
15974=0x1.79233ccb05d7p-3
16038=0x1.11f11ce8c2afep+1
16119=0x1.086917bc085ecp+2
16200=0x1.ebc3a650053e7p+1
16213=0x1.11592e21af102p+2
16281=0x1.56b76f94b847ap+2
16362=0x1.527d371ca2a91p+2
16374=0x1.4192303d8c6fep+1
16383=-0x1.03ebc74d16349p+0
16451=0x1.a7ef8661b1ef6p+2
16686=0x1.bbb20dbdcb94p-7
16692=0x1.f6eb58e2b8a9p+2
16776=0x1.b215a2c22165dp+0
16857=0x1.70a223ac7c091p+0
16942=0x1.4f2bf3a4b3457p+3
17120=0x1.c3f74dd32a124p-1
17172=-0x1.25063571659f4p+0
17174=0x1.088aa084888a7p+1
17176=0x1.7f9dc1099ae63p+0
17188=0x1.4da3204b71456p+0
17253=-0x1.b40e467b999afp+0
17267=0x1.488048d4089e3p-9
17277=0x1.4c213987cfc31p+1
17279=0x1.1c3b427201d9bp+0
17348=0x1.d952ba2f33792p-9
17349=0x1.a933e0f6fa4e1p+1
17358=0x1.4896f90ad2ae8p+1
17507=-0x1.5c875485a1f97p-2
17523=0x1.b183867f34707p-1
17658=0x1.f9339ecba04ccp+0
17820=0x1.4b71433a3a3aep+1
17901=0x1.0cb79501b1c4fp+3
17982=0x1.76af6537e507dp+2
17990=0x1.5805b211867c5p+1
17995=0x1.91d027b3344dfp-1
18001=0x1.bb941f3d79556p-5
18005=0x1.1383fc27ae7abp-1
18063=0x1.12c09dc03ceafp+2
18086=0x1.34e0c58d72a7ap+2
18144=0x1.16567216b202p+2
18146=0x1.add461e05c155p-1
18155=0x1.7c81f3e23d517p-2
18160=0x1.86bac1fdda9aap-3
18167=0x1.86d229b7a10ebp-1
18176=0x1.9eeac09e74903p+0
18186=0x1.0dabb3ddfd5e6p-6
18192=-0x1.e36af141b0fe4p-3
18193=0x1.146a9403cb514p+1
18207=0x1.4f7ae54e5f648p-3
18225=0x1.fdbb02acc635ep+0
18227=-0x1.03cb2c57317p-7
18229=-0x1.74259bc758becp-3
18240=0x1.1446cc8211f46p+2
18306=0x1.1580603d3c552p-4
18321=0x1.acc2363479bf8p+2
18322=-0x1.a55f5ce90c5b7p-5
18387=-0x1.913c1fbc2f95p+1
18389=0x1.cf13019468847p+2
18391=0x1.e689159078935p+1
18402=0x1.89cb9b8fbd8b5p+1
18403=0x1.eb4df5187a22fp+1
18468=0x1.0a7f97e92e5d2p+3
18472=0x1.67c6785fe66e4p+1
18549=0x1.1e6120754fcb2p+1
18551=-0x1.4e26ffda76b68p-10
18553=0x1.85590a12f8b07p+1
18554=0x1.2ef1ac9f372ebp-1
18556=0x1.90b5c9a848307p-4
18557=0x1.473a3a9884222p-1
18565=0x1.6f9b2d0e3f66ap+0
18567=0x1.e22b0379c6658p+0
18581=0x1.11102f93a2c73p+0
18600=0x1.c024be4aa55eep-3
18616=0x1.e36facdcd207cp-1
18618=0x1.e5b4106230946p-1
18630=0x1.7c1be04f8df7dp+0
18632=0x1.45d7bc21e5f9p+0
18635=0x1.001c0984758edp-5
18641=0x1.22845332a3131p+0
18647=0x1.9bdadbd7cc992p+0
18648=-0x1.9d9963367b6adp-3
18705=0x1.26a6490d077c1p+0
18711=0x1.159b024bb2c72p+1
18721=-0x1.a0e344b7bd1fdp-6
18730=0x1.ac3bef5f1bd49p-2
18753=0x1.3c638d1678dbbp+0
18765=0x1.302158d5b6cf4p+0
18792=0x1.ee76604be87d2p-1
18794=-0x1.19c480e9fececp-4
18796=0x1.edf4344c0ded2p-1
18802=0x1.b273b96d3689ep-5
18803=-0x1.08fb13cd4819ep-4
18804=-0x1.55681e6f7c0d9p+0
18809=0x1.f6cfaa8946d7dp-4
18810=-0x1.2c58e0def6badp-4
18819=0x1.399fc42f4546fp-1
18822=0x1.8c86fbc89f81dp-1
18831=0x1.2a76cd8d6afb4p-8
18840=0x1.cdafd89c6705dp-3
18847=0x1.d4a277d40b471p-5
18855=0x1.370208f67ae82p+0
18857=0x1.bb4db5edca84ap-1
18873=0x1.c9368fd4b1ap-1
19035=0x1.5ae49f26bcb8dp+1
19039=-0x1.2f4c25b481998p-1
19055=0x1.2e499c8113f3p-2
19116=-0x1.230155f3fe047p+2
19121=0x1.d4e2f22df78f6p+2
19171=0x1.1980c61d6cf32p+2
19185=0x1.719ce698395cap+1
19197=0x1.75330ccfb7841p+2
19278=0x1.9195e37f5398bp+1
19359=0x1.4e8ad14095072p+1
19372=0x1.3f23f1edf7b93p+0
19375=0x1.04ac4f3f23b37p+1
19391=0x1.b84f8453514bap-2
19440=0x1.c150834dc874cp+2
19521=0x1.6b56952d0aa33p+2
19602=0x1.024ecb2fb31f3p+2
19618=0x1.3480de73f0f71p+0
19683=0x1.0463039eaa8dp-2
19687=-0x1.33b7b7225205p+0
19692=-0x1.63b153b962348p+0
19699=0x1.d6ef140a3d2dbp+1
19720=0x1.40bee8eaace5cp+1
19745=0x1.568ae5221044fp+0
19764=0x1.909716554c235p+2
19766=-0x1.92b90d636497ap-1
19768=0x1.57df63d4facbp+0
19780=0x1.cfcada6177c5dp+0
19826=0x1.52ce71576d529p+0
19845=0x1.f73eb2a93a126p+0
19847=-0x1.63205061b671cp+0
19849=-0x1.819db33767a23p+0
19850=-0x1.2e590880071aep+0
19861=0x1.26ef5f9e6cafdp+2
19867=0x1.27ee376bf77cp+1
19869=0x1.3fdd1a4c94024p+1
19877=0x1.88f19e82af912p+1
19914=0x1.90e4a88992da8p+1
19926=0x1.e94f825eafd93p+2
20067=0x1.51633eda92922p+1
20090=0x1.743917d8e4aebp+1
20092=-0x1.8bd0da5af78d4p+0
20103=-0x1.bc88bf3dd2e74p-3
20104=0x1.ca26d7d57c0e8p-1
20169=0x1.0ebd0e3b85ae6p+3
20171=-0x1.726dd3eefa1bdp-3
20250=-0x1.42f0e85c42768p+2
20255=0x1.ddb7eacc09d5p+2
20305=0x1.3476f81ab3939p+2
20319=0x1.346fa135a16bep+1
20348=0x1.b5e46981402b9p+0
20655=0x1.68874d4440b8p+0
20666=0x1.9e0099cbf271bp-2
20682=-0x1.7ba23557579afp-6
20720=0x1.8fad385dcb9f5p+1
20736=0x1.1688aa3fdc375p+0
20817=0x1.b43f47c3e77c2p+1
20868=-0x1.d4ab7c064d5bp-2
20872=0x1.90206f3bb495cp-5
20885=0x1.5c4227a8b0456p+0
20898=0x1.38292b44edbadp+2
20981=0x1.58e1c8ac7f9fdp-2
20983=-0x1.18351ec6458eap-1
20997=-0x1.398b66b89aa08p+1
21006=0x1.87fb110d50e56p+0
21018=0x1.c71fd1e1a1581p-1
21034=0x1.53705a6da03ffp+1
21045=0x1.6b51e1f90e03dp+1
21141=0x1.2ca746a2d21b7p+2
21222=0x1.d65c3c012812dp+0
21303=0x1.4c2ef4c719825p+0
21384=0x1.4f761c3137d85p+2
21465=0x1.9213d274dbe86p-1
21478=0x1.07cc0b15a3619p+0
21490=0x1.39c9f7d287618p+0
21546=0x1.80399c4fe769p+2
21708=0x1.eb73d1f9a1becp-6
21737=0x1.bcd4b0d75642p-2
21797=0x1.25272adfe195bp+3
21870=0x1.9f4c3c181725bp-1
21951=0x1.bf8ccbbf1d86p-6
21959=0x1.a717ff2f4f294p-6
21980=0x1.1758b604b5004p-3
22032=0x1.761afc3c12f1fp+2
22034=-0x1.20d0a0e0f380cp-2
22113=0x1.123c99d42a69ap+1
22194=0x1.810e20fec005p+0
22200=-0x1.6a1f3931664fap+0
22202=0x1.deca7176868c5p+0
22206=0x1.88307273a3d2ep+1
22213=0x1.10df073d64cbdp-4
22214=0x1.778bcb293b751p-3
22217=0x1.9ead6a97c6782p+0
22356=0x1.b3046c5fdc4dp+1
22361=0x1.71a7b073356c8p-5
22364=0x1.76ad08dbb6284p+0
22368=0x1.375952021998ep+0
22680=0x1.407a3342e8adep+1
22684=-0x1.4eb87053cee74p-1
22842=0x1.ff52b343c165p+0
22923=0x1.1cfaf2fe3bb81p+1
23004=0x1.eee61e3a58112p+1
23093=0x1.abc0e3972b6bfp+0
23110=0x1.0333b7aabaf72p-3
23191=0x1.1f38ad6699c77p-1
23328=0x1.c4bd59bc77f57p+0
23522=0x1.6371e761a4b82p+1
23652=0x1.ace4e79a94458p+1
23733=0x1.06d5347f27a24p+0
23744=0x1.5f2ee30770547p-1
23760=-0x1.02ba1325d27ap-3
24219=0x1.5fde83ebbff29p-1
24300=0x1.b8aba7ae607bcp+1
24381=0x1.8ae77d46691d1p-3
24543=0x1.4cea6d0b2cf3bp+2
24705=0x1.b77ce29d00362p+0
24717=-0x1.5fa3f70525b79p-1
24786=0x1.c57f507514p+1
24798=-0x1.628910a7c79c5p-1
24867=0x1.753eae29a885dp+0
24948=0x1.51c8d2e354b0bp+1
25110=0x1.ff7438d83c7c7p+0
25191=0x1.43b4bdd1a4bc4p+2
25272=0x1.055245e024395p+1
25353=0x1.8544e02a253b6p-1
25445=0x1.b31d5ee31a9a5p-1
25606=0x1.acbeb98b247bdp-1
25695=0x1.c779ea5a11f6ap+2
25775=0x1.a20f5291d3181p+0
25856=0x1.9ad860e9915d9p+2
26001=0x1.fc11076385424p-1
26093=0x1.c24b0993b6a0cp-6
26163=0x1.26ea4e7f1b3efp+2
26325=0x1.9a2e458af2caep+0
26329=-0x1.9e8b3c0b3c82ap-2
26340=0x1.652a74e6da235p+2
26341=-0x1.16f09f7fef6a4p-1
26406=0x1.a260d47b073p+2
26487=0x1.f53569ef8f0bbp+1
26497=0x1.f236ca16f7f53p-2
26500=0x1.58ef9f9e426b9p+0
26568=0x1.10b7860c3dba5p+2
26573=0x1.74aaec598e4edp+0
26574=0x1.5f560217dd4bep-3
26589=-0x1.5026696aa74fp-12
26610=-0x1.420edece27c9cp-5
26617=0x1.0ee5ebdfc9d9dp-1
26628=0x1.7be8e896333acp-3
26649=0x1.69a89b3337509p+2
26730=0x1.02abb5f07e999p-1
26736=0x1.36bbdff008cd1p+0
26741=0x1.c0138aa507d2fp-1
26742=0x1.d34aeeb0216c4p+1
26751=-0x1.7ebd3c8cc797p+0
26755=0x1.ecb3dd46d5d6p+0
26761=0x1.cf8ec213b0754p-1
26811=0x1.aeafbe9f2c2c3p+0
26911=0x1.1f171a78b3b04p+3
27135=0x1.43015dcc7c55p-1
27139=-0x1.513d3b8f5082ap-3
27216=0x1.7200c4861f873p+2
27297=0x1.0d82926ccbe01p+1
27310=0x1.af077feca7814p+0
27346=0x1.f1406218e58efp+1
27378=0x1.3377f26fa84adp-1
27391=0x1.d15dd14bd7da2p+0
27427=0x1.3ed6ba634b4fap-3
27459=0x1.08290d72f44dfp+2
27540=0x1.fc186b9020ac6p+1
27550=-0x1.c2353ed4d9729p-1
27623=0x1.91fe045aa4b5cp+0
27702=-0x1.99537c4e60d8p-4
27722=0x1.4ce0e5227ee32p+3
27783=0x1.0400ccd951e9p+1
27785=0x1.b46515c759a5ap-5
27882=0x1.81434657776d2p-2
27945=0x1.dfc1037cc8e8dp+2
28026=0x1.2686e3a0856dcp+3
28112=0x1.c0167eb4671a6p-4
28117=0x1.5b125a54dc069p-2
28199=0x1.0f3ba9d032cdbp+1
28269=0x1.5e6b26ff9ff4ap-1
28271=-0x1.dbfa93512f1e5p-1
28273=0x1.791761c6da5a8p-1
28279=0x1.4471f9cc121bbp-1
28280=0x1.49426ab61c321p+2
28284=0x1.985c48c8d12a4p-1
28285=0x1.5ff83db935004p+1
28291=0x1.33d25c01d4d1p+0
28296=0x1.cd8933e3a86cfp+1
28301=0x1.b52892303cf42p+1
28307=0x1.26069da343dbp-1
28311=0x1.db061a6ec770fp+0
28317=0x1.40f37da6640b4p+1
28350=0x1.47a28fe0f54bap-3
28354=-0x1.1ff554ec06686p+1
28356=0x1.bafb63d85dc0dp-3
28365=-0x1.3f896572b4e4ap-4
28366=0x1.d2775f5a520dcp+1
28382=0x1.13418b02eb019p+1
28403=0x1.8863d2aac74eep+0
28512=0x1.aae1225627ee5p+1
28519=-0x1.1c79cadfdd187p+1
28522=-0x1.49b882b124daep+0
28523=0x1.1a1a2e189c283p-1
28524=0x1.1730f8fa6c9bp-1
28539=0x1.24377822090ffp+1
28544=0x1.6443502d58036p+1
28550=0x1.05db4568af672p+1
28554=0x1.5a9ae6a51fc28p+1
28566=0x1.14904dccffa2ap+1
28674=-0x1.8ed09cd5f79e4p-3
28684=0x1.d459b59ba56bcp+2
28710=0x1.72f305f2cae5bp+1
28716=0x1.a6b301d542981p+2
28761=0x1.e4f742b80010ep-1
28766=0x1.869015f3cb16p+2
28782=0x1.55270b2b1767p+2
28792=0x1.0dc1ac66f3e96p+1
28836=0x1.e5a8b533fa5fdp+1
28843=-0x1.b5da422d25b56p-1
28887=-0x1.d54d6ecaa8c44p-2
28890=0x1.5135bb2391085p+1
28904=0x1.5f4d4ec674f8dp+0
28925=0x1.f77a2001af4c1p+2
29000=0x1.4c70af4e28c68p-7
29168=0x1.5fdef1d1e6b0dp+2
29403=-0x1.a2346206c44b6p-4
29415=0x1.251847e6c6279p+2
29424=0x1.fa114803b6afep+2
29466=0x1.2b04fd99b4de3p+2
29484=0x1.ca97ee026a84bp+0
29490=0x1.f463f62ed264p-2
29496=-0x1.117da3c8d6b6p-5
29565=0x1.70cffcec0a74ep+1
29651=-0x1.8a54f1a5ba9d8p-1
29663=0x1.e49f6a8e62e0cp-4
29676=0x1.0ff096888f52fp-2
29701=0x1.d31500be9d47p-1
29841=0x1.4da33379cbea8p-2
29889=0x1.649724abf4c94p+1
29960=0x1.233d3eb1c2409p+2
29977=0x1.75b1e36d61c94p-1
30051=0x1.30a9986d210f5p+2
30058=-0x1.5bf068f6e68abp-1
30132=0x1.1ddf218ca8f3fp+1
30213=0x1.900da174dda28p+2
30294=0x1.b4bb8a0a1401p+1
30379=0x1.2b3de96d36653p+0
30385=-0x1.402e4ac0834p+1
30396=-0x1.cc04f3675b908p-2
30402=0x1.b9876b4162c04p+0
30417=0x1.116fd03a11842p+2
30429=0x1.ab5ac0565ec93p-1
30438=0x1.2b3708f5eb7ebp+1
30456=0x1.b2faa98e4ef53p+1
30537=0x1.0e9e8b4444b32p+1
30541=0x1.4541de961ed47p+2
30542=-0x1.0ac887eedcbd9p+1
30547=-0x1.6d5c39e8416ep-1
30548=-0x1.0dc51834428ebp+2
30552=-0x1.304a2db7524b3p-1
30553=-0x1.227cf8a3334ap-7
30564=0x1.4a050fae5bbedp+1
30567=0x1.426cd2393667ep+0
30579=0x1.fa964b8c9e709p+0
30585=0x1.45762f3f6108bp+1
30592=0x1.0a15819b0eacdp+1
30595=0x1.1a2cd307656ddp+1
30618=-0x1.3aa7e2925ad84p-1
30620=-0x1.39f9f8b0136adp-3
30622=-0x1.e856028abf126p+0
30640=0x1.536cc00e5ea3cp+1
30650=0x1.bcc7b93a9a528p+1
30666=0x1.2a414ae90423dp+1
30865=0x1.e7bbac039e852p+1
30942=-0x1.578f028b2fddbp+1
30965=0x1.49fd5f1971371p+3
31029=-0x1.c782dd50770a4p-1
31053=0x1.e182a3ac0f563p+1
31106=-0x1.60fd42ebe6425p-1
31108=0x1.af4118ee2c427p+1
31167=0x1.f5fac6724b3fbp+0
31428=0x1.115e09ec4664ep-1
31671=-0x1.4804f0f90ff9bp+1
31689=0x1.c537f6477f4c1p+2
31710=0x1.15e562ac6d155p+2
31717=0x1.4e62bc3d68e18p+1
31758=-0x1.e708e7d07a7ddp-7
31762=-0x1.00c1f4a759507p-1
31770=0x1.bf3e6c53326b4p+0
31782=0x1.19efb67dd067ap+0
31787=0x1.f614a37aa6d2fp-2
31794=0x1.284f869f40e4cp+0
31850=0x1.236958277da19p+1
31931=0x1.80d144372567ap+2
31954=0x1.d2c104f9fbfe7p+1
31961=0x1.21170d6cae16bp-1
32006=-0x1.fa25d551a7b4ap-5
32012=0x1.2c49cc65ac66cp+1
32022=0x1.2a157bf1db5d2p-1
32157=0x1.dea234d391b6ap+0
32169=-0x1.75b3900b68be8p+0
32174=0x1.85dfab8928405p+1
32319=0x1.5dce8f3b7a61p-1
32562=0x1.b3bd51b7f62a7p+2
32643=0x1.8cab81b32906p+1
32654=0x1.7d153ae16fb1cp-1
32662=0x1.a6533818d4595p-2
32674=0x1.9b392cd8a0d9ap-1
32724=0x1.76d7056f0b19dp+0
32805=-0x1.64a736fa890bdp-2
32813=0x1.2a3f959956cf5p+3
32886=0x1.8a39b34f7ac71p-2
32890=0x1.bfbc38ebbd814p-1
32896=0x1.1f74ba8f29c96p-4
32915=0x1.d990d495363ep+1
32967=0x1.3a03e5a3e87c3p+0
32996=0x1.72e518e9618e2p-1
33048=0x1.d1af771a740afp+0
33129=0x1.c6ebafc1526ecp+2
33545=0x1.393068133783ep+1
33777=0x1.c4dd841589237p+1
33781=-0x1.4c044d7975dcp-6
33858=0x1.860acc8bacb36p+0
33939=0x1.0b9130e0c264dp+2
33943=-0x1.04e2625fe84c2p+1
33955=0x1.a6f798c6bb9ccp+0
34031=0x1.4156f9d35f784p+1
34047=0x1.7c522df0befc5p+1
34156=0x1.43231ea80c2acp+0
34188=-0x1.de183c2b08768p-1
34212=0x1.78d9932eabcf3p+1
34263=0x1.3020ac884a21p+2
34427=0x1.9cc0e14cc97dp+1
34441=0x1.1486ad9fc58d1p-2
34447=0x1.9a132ab782b43p-1
34473=-0x1.f886eca901f92p-3
34506=0x1.215a09254649dp+2
34668=0x1.86496d5fe5c4dp+1
34834=0x1.dd482a9891adp+0
34840=0x1.596a2985802ecp+1
34994=-0x1.f07773949f652p-1
34996=0x1.2d832aed34ec3p-1
35040=0x1.5e57573f444f7p+0
35073=0x1.f4e15e6c6edb8p-1
35080=0x1.f19cc9e0f82c7p+1
35122=0x1.89b07ee857ebep+1
35154=0x1.86efd14750b7p+1
35235=0x1.034b6bd7e81dap+2
35240=0x1.d47fabb4c567fp-4
35478=0x1.720a49f95dd04p-4
35559=0x1.0c9fa6a70a8dap+2
35640=0x1.2e3e4a8544ad8p-5
35721=0x1.0a5dd8d707ec7p+1
35802=0x1.d3a472ae089dep+0
35812=0x1.6eece71d3dc57p+2
35844=0x1.34147b1892b78p+2
35894=0x1.ec1445fa38428p+1
35910=0x1.1ac2a86ce6654p+2
36045=0x1.2eb79a10120adp+2
36126=0x1.f65a2a097103fp-1
36209=-0x1.00994a05b14e5p+0
36211=0x1.0ad23d5023d28p+0
36223=0x1.48cd3db46dc8p+0
36369=0x1.0a5ad37f46a3bp-6
36693=0x1.d51b466ae9676p+0
36774=0x1.d51b466ae9676p+0
36855=0x1.238cb1c0695c4p+1
37285=0x1.99c39c0f8366bp+1
37503=-0x1.f3e7a523398c6p-2
37529=0x1.dc9e21df81fafp+1
37584=-0x1.ad7d3ef356a3dp-3
37590=0x1.9404b4f2e2536p+2
37827=0x1.b7d771f0af673p+1
37908=0x1.a6700367824a2p+0
37933=0x1.e526410319e0cp-4
37989=0x1.f2d6c31fb7f6ap-1
38070=0x1.59e65b9dd8501p+0
38090=0x1.90c6bf15b9a1ap+2
38103=0x1.91a2f117c847dp+2
38151=0x1.063eef82c4023p+1
38161=0x1.4fd74c99ff8c6p-5
38232=0x1.6d1d36088ec81p+0
38243=0x1.b14466a537d9fp-2
38259=-0x1.b8e109564c8ccp-5
38313=0x1.26d4f5d97717ep-4
38561=0x1.d180ee24577e2p+2
38611=0x1.25cb17be792e2p+2
38637=0x1.149c03a9214fp+2
38644=0x1.cd65e828394ddp+1
38688=0x1.0abb46a3eb9fap+2
38724=0x1.497e30ad44d7ap+1
38736=0x1.6de84521fe06ap-1
38799=0x1.3ea70b95865b2p+2
38880=0x1.fbdc4a3ded283p+0
38914=0x1.80848ec352695p+0
38978=0x1.d4ba9b8945c0fp-1
39004=0x1.099b41e9764ccp+1
39042=0x1.6c1945001b466p+1
39123=0x1.b6f42bcc78559p+2
39257=0x1.3a86ac01077fep+2
39285=0x1.54016afaf7b4p-7
39287=-0x1.051565e2fb1f8p+0
39301=0x1.03a07eed81406p+1
39317=0x1.052c57955a04bp-1
39449=0x1.ce58ab8fdd6p-1
39451=-0x1.a4942f8210903p+0
39463=0x1.09039329a37f4p+1
39479=0x1.91b8ef85dc3c3p-1
39500=0x1.0fc3dab9d6476p-3
39542=0x1.65157bb12d3b5p+2
39554=0x1.478096ed27701p+2
39690=-0x1.11c1b71dbd2b3p-2
39697=0x1.8363464dc26b1p+0
39709=0x1.e7b454743965ep-1
39771=-0x1.0666eb61c2896p-1
39797=0x1.a3ea3402d5c3dp+2
39852=0x1.c0518cf9a177ap+1
39856=-0x1.781fa2fb87aa3p-2
40016=-0x1.a0681535b6c06p-1
40018=-0x1.550edc652bdccp+1
40030=0x1.4439f3fbcec1p+1
40045=0x1.e0fe2d97b8608p-6
40057=0x1.17fdc7cc3698bp+0
40095=0x1.75234d8a80325p-3
40346=0x1.4b11d54d64524p+3
40448=0x1.ac2bfa6c4df87p+1
40529=0x1.dff31985125ddp+0
40851=0x1.ef5cee02b6095p+0
41310=0x1.5d456ca4acbbep-2
41352=-0x1.66292a990d90ep-9
41391=0x1.fd0fe6b7033a6p-2
41418=-0x1.cc1b2c49993c9p-3
41472=0x1.81aa84fe4bb2dp-1
41715=0x1.31893a0683e87p+2
41879=-0x1.98c091ce9effep-4
41881=-0x1.8729ef14a07d8p-2
41892=0x1.1689cdd1a464cp+2
41893=-0x1.c2d96f5e2e365p-1
41949=0x1.5ab6b196fdc7fp+1
41958=0x1.2ae4369f569c5p+2
42039=0x1.88b5626d8efecp-1
42201=-0x1.928271b8b60ddp+0
42215=0x1.8064f3e1beeb7p+0
42225=0x1.69a5579adc2acp+0
42227=0x1.c31ed6c146f84p+1
42300=-0x1.f9c07e4141437p-3
42321=0x1.2fc42825c406ep+1
42380=-0x1.b17392d2d1f0dp-1
42403=0x1.a0baafaf865ecp+0
42444=0x1.dd8dfe6462a68p+2
42606=0x1.f920f1bff2615p+1
42649=0x1.441de3f056ba6p+0
42659=0x1.3f06e70ad6748p+0
42768=0x1.31e05b6f024a9p+2
42769=0x1.9aafae66ec939p-2
42791=0x1.013a9aaddf09dp+1
42817=0x1.e5e30c60f3f7p-2
42849=-0x1.277b66c4bccf3p+0
42877=0x1.034d3dfbdf96fp+3
43011=0x1.29990886986c7p+1
43067=-0x1.2680bae300693p-1
43335=0x1.e07bd01b6b96ep+1
43391=0x1.61b21b64c3d65p+3
43416=-0x1.6e6496e4b4d15p-2
43417=0x1.0eb0debe96e5dp+3
43497=0x1.d6cb35e0c742dp-1
43499=0x1.d4d056dcbad2ep+0
43501=0x1.10f8d9035136bp+0
43502=0x1.1a9238f3a2e8bp+0
43505=0x1.8ebe0f9a4bfd5p-2
43526=0x1.cb6ee2a18b676p-1
43528=0x1.cc41687fb3e16p-5
43539=0x1.526f91d5a893ep+0
43659=0x1.d74f475d1974dp+0
43662=-0x1.22e7aa7baf6afp-2
43665=0x1.2718d123c8dfap-5
43723=0x1.a2a495b746ab3p-2
44064=-0x1.322273f0620fep-4
44070=0x1.1c2202a2d6891p+3
44094=0x1.40222fbe84ebdp+2
44226=0x1.c909a0df345aap+0
44254=0x1.8cec4670b65b6p+0
44561=0x1.e49ff24435018p-6
44660=0x1.3d6756965ca9fp-4
45134=0x1.5237f885e33b4p-1
45198=-0x1.155e80f4f29abp+1
45200=0x1.52f740d7bb527p+2
45202=0x1.6b0d628c5ab91p+2
45214=0x1.6439481337617p+1
45279=-0x1.082bc6bb3e6c2p-1
45287=0x1.28c4961c3882dp+3
45409=0x1.70ddd6842aa18p+0
45441=0x1.0164d8261b422p-1
45551=0x1.c519cf56970dep+0
45788=0x1.656c88a32a74cp+1
45804=0x1.1697445cfdd9ap+1
45848=-0x1.6801fe59dd0e1p-2
45850=0x1.63d774b52d35ap-1
45851=0x1.0458bf4402c49p-5
45852=0x1.14b63b1744f59p-4
45856=-0x1.02a497dd36757p+1
45863=-0x1.4e177e571609cp+0
45864=-0x1.06becf6cf7c8ep+0
45869=0x1.3e01c128d3ccep+0
45885=0x1.3a5dd3ef215b7p+0
45886=0x1.18e6459d54c8cp+1
45888=0x1.8253d7c0e9ea8p+0
45904=0x1.36b77425c65cfp-3
45927=0x1.66f1b7ca4d2abp+1
46008=0x1.1ea603d7f4179p-6
46089=0x1.750f367d71ccp-4
46170=0x1.85d2bc3264cc3p+2
46354=0x1.0118a1dcf131p-4
46428=0x1.cadd20db1edc4p+2
46679=0x1.41bcb9e29c89p+0
46818=0x1.7f9c06fde39a7p+2
46899=0x1.453ba189c084ep-4
47061=0x1.0ef1906ffee0fp+2
47466=0x1.453ba189c084ep-4
47547=0x1.e7c1c8ddc0895p+2
47628=0x1.28748378134bcp+0
47657=0x1.afe469195bee1p+1
47709=0x1.84fec93cb832bp+0
47711=-0x1.5b443158b167fp+0
47731=0x1.c5cf0138b88ffp+0
47790=0x1.6bca2f15df6a3p+0
47808=0x1.8340f63f530dfp+2
47829=0x1.fdc6ea4699ef7p+1
47836=0x1.cf9c3e09d023p+1
47888=0x1.dd10369d0b1f6p+1
47911=0x1.ec214143edf48p+1
47918=0x1.4c2f1bb387213p+1
47952=0x1.298ff71f3cb64p-7
47962=-0x1.2a906f093205cp-2
47994=0x1.5fa66c7db6a8ep-2
48304=0x1.88de20860dadcp+3
48357=0x1.b29d6c0828003p+1
48438=0x1.b21858c9a234dp+0
48440=0x1.82a7e6cc5964p-2
48456=-0x1.3b8f77152c1cdp+1
48477=0x1.3d24db4a4c898p+0
48498=0x1.1f2f232273bdap+1
48519=0x1.4616749c3ac89p+2
48600=0x1.29819bf955cep-2
48609=0x1.f2dbd07c9b4ep-8
48681=0x1.a73c0a15d5a2dp+1
48686=0x1.29cd20190dbc6p+0
48687=0x1.2bbcf826d044cp+0
48689=0x1.70a69d4284083p+0
48690=0x1.472c9ed39d0bp-7
48762=0x1.8e999dfcfe9dbp+1
48924=0x1.5be22d74b31fdp+1
49013=0x1.09a993502a1adp+3
49086=0x1.2aab6f501ecaap-1
49096=-0x1.4674975da9da2p-5
49115=0x1.34bce3f3553c8p+2
49128=0x1.9b0d41db5e863p+0
49194=0x1.4c66bbf859656p-1
49248=0x1.475581a4e05fdp+2
49250=0x1.e6864946e8dp-1
49329=0x1.7ead768c17508p-1
49331=0x1.be837776475c5p+1
49336=0x1.9ecb010b60ef8p-4
49339=0x1.be2ef54ba7f0cp+0
49371=-0x1.cecaa61c8c4a8p-4
49380=0x1.06816d60e7f54p-2
49413=0x1.a4e3006fd56e4p-3
49414=0x1.17108dce541b6p+1
49415=0x1.d3eafa7dc7407p-3
49421=0x1.f188e5a830d42p-1
49424=0x1.c0340695ced8ep-1
49437=-0x1.ecdfc625fe59ap+0
49474=-0x1.3e5e72e3c35a8p-2
49475=0x1.922e4fb476cecp-1
49491=-0x1.ab62dcade895ap-1
49498=0x1.1052e0ef1150ep+1
49501=0x1.2764f1a06120dp+3
49533=0x1.8be0c8ad8ca7ep+2
49540=0x1.5d127c38d9fb6p+1
49653=0x1.af8a19d00bc34p-1
49657=-0x1.e9d66b060b435p-1
49659=0x1.89f7d8514ea22p-2
49664=0x1.08225b19f5e49p+3
49680=0x1.08d6e2227c608p+2
49683=0x1.69b41f584aca5p-3
49815=0x1.16b8e016d8b14p+1
49820=0x1.8b8dac58c1b76p-3
49822=0x1.3038fbf68ef0ap-3
49826=0x1.3de66d03677a1p-1
49866=0x1.20cae92361c22p-4
49977=0x1.bb9757827cab9p+2
50058=0x1.11461fa76deabp+2
50139=0x1.00132bab18f4bp+2
50147=0x1.91ffed723c06p-7
50158=0x1.a02c78b65e29cp+1
50222=0x1.f9dc2b0c11164p-1
50230=0x1.a961e24f83af6p-1
50241=0x1.37b622541ef57p-2
50275=0x1.447e3a60a217fp-2
50301=0x1.e13fef7e478f5p+1
50303=0x1.398c14acf40fep-1
50311=0x1.7ecc228f342fdp-1
50352=0x1.16093788b0ff9p-2
50388=-0x1.fc8ccc8198217p-2
50392=0x1.93a777af05d3cp-2
50393=0x1.93ff51dcb2698p+0
50412=0x1.ad100971b7b1ep-1
50733=0x1.17c751c661f8bp+1
50772=0x1.b15ed2a7d5d86p-1
50873=-0x1.c380200c4ba0ap+0
50923=0x1.f04bc0d27bc31p+0
50949=-0x1.38f78255a1ffap-2
50950=0x1.9e9da386e4ac5p+2
51437=0x1.4599978e594ebp+0
51445=-0x1.bc5465e256e7bp-2
51465=0x1.abe0d9a7ddfdcp+0
51477=0x1.e88fff52f415ap-4
51510=0x1.dc4cb3b13249bp-1
51528=-0x1.2fb4d4484ad8ap-6
51533=0x1.5533b99fe89c2p-1
51543=0x1.3d7c615a49654p-7
51544=0x1.bb790addeaf2ap-1
51556=0x1.be26b1ff895a9p+0
51592=0x1.477eec2cd0b6bp-2
51597=0x1.047a2676fd12p+2
51701=0x1.3b886980b55e2p+1
51727=0x1.6bb1701a2b3ebp-3
51782=0x1.6212c20d75f91p+0
51808=0x1.9df908aaf78dep+1
51840=0x1.3a87ed599a37fp+2
51921=0x1.fd6358d2f67a1p+0
52002=0x1.5e40b0be36a75p+2
52083=0x1.25fdc3a9862bfp+0
52164=0x1.4e1ed03d66e34p+2
52187=0x1.51a0ba721613p-1
52245=0x1.04465729c65d8p+0
52346=0x1.87d21e31b305dp+3
52407=0x1.a7c272750fda3p+0
52409=0x1.71a18447330cfp+1
52488=0x1.d79a5bfd0020dp+0
52490=0x1.15c904a53c8fep-1
52812=-0x1.5b63d06b31317p-1
52834=0x1.14218221b3eeap+1
52844=0x1.1366b71ee0849p+1
52893=0x1.704bedc7d631cp+2
53057=-0x1.d0a51f36a0b4cp+0
53059=0x1.2e0a9726a502ap+2
53071=0x1.e5bea135143d5p+0
53103=0x1.749a202ed7d5bp+0
53217=0x1.cd6e8c2010224p-4
53224=-0x1.9ef4609208abep-3
53227=-0x1.203e3c69178acp+0
53259=0x1.4862bdc2640b5p+1
53271=0x1.3a16e461f21f8p+0
53329=0x1.394153234b515p+1
53541=0x1.1aba79240c7f5p+2
53622=0x1.031f5968b11b9p-1
53703=0x1.140f008868c75p+2
53784=0x1.0110135e7468dp+2
53865=0x1.20be9d452cc34p+0
53948=-0x1.0de6903ba8ef2p-2
53968=0x1.1adfd5ce103bep-2
54027=0x1.32e54d2d4e9abp+2
54080=-0x1.1355e6be05dfdp-2
54270=0x1.c2901bcf8c30ap+2
54353=0x1.210aca63eabc6p-1
54363=0x1.4f14c275d231fp+0
54434=0x1.f5cd8faa8133p+0
54440=0x1.314ccb17e423p-2
54464=0x1.cfdcc385f2189p-4
54522=0x1.b1e19d39f7612p+1
54677=0x1.84049a43d0aeap+0
54767=0x1.4f628a7211596p+1
55011=0x1.c38def11a1224p+2
55086=0x1.4e39f6e8926a9p+1
55100=-0x1.5617e08d9f38fp-2
55113=0x1.8713d6a735834p-3
55161=0x1.2e251b9608e1dp+0
55194=0x1.414d3db7e3724p-2
55253=0x1.514824dcdf22dp+1
55485=0x1.1edc48b6cb9ebp-4
55494=0x1.8d4d8dbc32c6bp+2
55651=-0x1.f71b6c449bcc8p-6
55663=0x1.d3804a574d4d9p+0
55755=0x1.17a71482bdfa7p+0
55988=0x1.8b0f93f3c3242p+0
56060=-0x1.9ecd6da5ae194p-3
56070=0x1.4a34298600688p+2
56091=0x1.e620ed127c2p+1
56150=0x1.8725291087cbcp+1
56231=0x1.8f76d04f08ef8p+1
56254=0x1.f4c133745401cp+0
56376=0x1.06523da625b7dp-5
56538=-0x1.9225ed37de114p-2
56572=0x1.5b889e8b1e79ep+1
56619=0x1.1b724ec10dea7p+0
56653=0x1.b49ee1324541fp+2
56700=0x1.a4e11b6207d59p+0
56734=-0x1.9b04e7eaf677bp-3
56781=0x1.bd77f7719739ep+1
56815=-0x1.a784fbe29251fp-3
56862=0x1.1a72417df6402p+1
57105=0x1.31597d4d0e0edp+1
57267=0x1.9bab612655dep+0
57429=0x1.1dc8262648e47p+2
57602=0x1.dc1de6b327afap+1
57618=0x1.e6cdcb11ece32p+0
57915=0x1.da9bcaf406a86p+0
57996=0x1.a95a285c26092p+1
58077=0x1.dc6c195e17fe7p+0
58178=0x1.900d99603e08bp-2
58239=0x1.861bab4c6ec5dp-1
58328=0x1.51960ff4cc844p+0
58409=0x1.c4362e6b5c708p+1
58644=0x1.345d3f7d9cb3dp+1
58667=0x1.3b256a8149cefp+2
58810=-0x1.fc27817bf6b69p-2
58821=0x1.4d3bac9801e0dp+2
58887=0x1.76022fc3f9821p+2
59049=0x1.f73676ec508bdp-5
59053=-0x1.d113000464a3ap-3
59064=0x1.aa9e07c5d265dp+2
59138=0x1.09c28abb929f7p+3
59211=0x1.f173350b2bc25p+0
59292=0x1.6a5181ca5570ap-1
59454=0x1.ceed09203c583p+1
59464=0x1.123815a60b8dfp+1
59496=0x1.5a0e9cbe8d3dcp+2
59535=-0x1.4a14f07aee1cbp+0
59543=0x1.506f4d9aca5cbp+2
59616=0x1.0dffb53491483p+1
59622=0x1.445028757f736p+0
59624=0x1.8fb91163f0a56p+1
59643=0x1.528980da5e807p+2
60110=0x1.4f306fdaf2535p+0
60345=0x1.f22bedaa9633ep+1
60360=-0x1.72a4e30679061p+0
60599=0x1.f8267dda9700fp-1
60615=-0x1.d8544610eaed4p-2
60625=0x1.538a32554ef8ap+1
60669=-0x1.1dbd3452baa9ep-3
60691=0x1.02d65b376e202p+1
60701=0x1.37b5835915c53p-1
60912=0x1.b4de486a18f6dp+0
61155=-0x1.42a1791937131p-1
61157=-0x1.935e4e873640fp-2
61177=0x1.d82113d3509b9p+0
61187=0x1.56e11e4c31e32p+1
61203=0x1.956e928635a5p+1
61398=0x1.a93d224939145p+2
61571=0x1.b83cc8a881973p+0
61582=0x1.4429a5039dd0ap+0
61641=0x1.08759949f8ad9p+2
61841=0x1.74cfcb501581ep+0
61922=0x1.87c66f9fb6c53p+0
62127=0x1.9a2da9e4eea3p+2
62208=0x1.b0d0fa91d84ebp+1
62289=0x1.1c1d06c4d6f4fp+1
62291=-0x1.a7e453aa5a8b1p-2
62293=-0x1.d6401c8c0a185p-1
62305=0x1.2aabc7435a87bp+1
62370=0x1.ea73622039c35p+1
62451=0x1.7323a96c607edp-1
62894=0x1.765111a6a9ca6p+0
62937=0x1.430c287879921p+1
62941=-0x1.beaa4bbc37c95p-1
63180=-0x1.31d8ca7a98276p-1
63208=0x1.31f0aa0a89e85p+3
63261=0x1.178fd26857d2fp+0
63342=0x1.0a0b413b416p+0
63516=0x1.6d385c8d6d042p+0
63747=0x1.0ed2adc0ecb08p+1
63828=-0x1.5aeb11075c69fp+1
63846=0x1.cc3db25543daap+2
63867=0x1.0eba314b05993p+2
63903=0x1.27934b3e6d2a9p+2
63926=0x1.0a5b447a50eb2p+1
63949=0x1.1b3e3e44592c4p+1
63985=0x1.6123b5fb38ab9p+0
64007=0x1.5c8eea0addb56p+2
64030=0x1.d5da88c00ff4p+1
64066=0x1.ebb249b3acf12p+1
64567=-0x1.3afbe2af9dbbbp-2
64568=0x1.416555399a941p-1
64599=0x1.3e13095752983p-2
64638=0x1.680aa1f60a992p+0
64649=0x1.05b5f007fab0bp-2
64672=0x1.3bac5bba9b35dp+1
64735=0x1.f1c5ba1fb985p-1
64841=0x1.493bde756a8b3p+3
64962=0x1.2ac0cee0f623bp+1
65043=0x1.20b425373626p+2
65124=0x1.f02357e7c361bp-6
65205=0x1.26eeef9058026p-4
65262=0x1.d2f89b2c2807cp+1
65291=-0x1.3888de3b66576p-1
65341=0x1.cfdbd21125725p+0
65373=-0x1.0fd507d4727cap+0
65397=0x1.059a3c76a58e7p+1
65691=0x1.6e53b74972d6dp+1
65959=0x1.63dc627fcc989p+2
66015=0x1.19672b7864a3ap+1
66188=0x1.1e30f515fc4abp-3
66204=-0x1.0fdd385e930c2p-5
66277=0x1.047b239389028p+3
66420=0x1.3f717b34c4d26p+2
66439=-0x1.6b63b8067e68ep-1
66512=0x1.20972901b72d4p+0
66528=0x1.b160c55ffd7ffp-1
66582=0x1.721cc34e08365p+1
66673=-0x1.21fed4f3729bcp-3
66675=-0x1.0a1c4fcc78166p-5
66705=0x1.8f7957c68689dp+1
66726=0x1.4ac6416318cf6p+1
66744=0x1.31300efb37bbfp+1
66748=0x1.f2239da7e0f98p+1
66755=-0x1.bdf3daac9d743p-3
66771=0x1.1fb4712bb740bp+1
66802=0x1.552bb5294c718p-2
66916=0x1.d282d961b555fp+2
66998=0x1.a6a88cb98efd6p+0
67079=0x1.ae3e596e40b2ep+1
67149=0x1.cd27219fdfb41p-1
67253=0x1.74477276a81c1p-1
67311=0x1.ed15aa6d407c1p+1
67319=0x1.13dd11cea4997p-3
67392=0x1.d673d2bdb3431p+0
67586=0x1.2270773c9efb8p+2
67678=0x1.18b5cae19996ap+1
67986=0x1.1f1965ea03cd5p+1
68180=0x1.308f202f3940bp-1
68202=0x1.8a47b068f4a5dp+0
68364=0x1.f842c39bc539p+0
68445=0x1.c9f35e7f3bf7fp+1
68607=0x1.f1cb5fbc00cfcp+0
68688=0x1.dd49b2cfc9891p-1
68769=0x1.69888698ce0d1p-1
68852=-0x1.a790acab53795p-3
68854=0x1.58870c745dbf5p+0
69186=0x1.3e08d09a0b622p+1
69434=0x1.405a20b89bbe7p-2
69457=0x1.934c14731cd0ap-2
69498=0x1.d118fd791f7cap+1
69579=-0x1.73486fc74d7b1p+0
69622=0x1.191de05e88631p+3
69660=0x1.4a4db2dd77a9ap+1
69822=0x1.118c5ac7acfbep+2
70146=-0x1.4c8064db6c25ep+2
70158=0x1.5dbfc769ae606p+2
70163=0x1.3f09bdfa6c68bp+1
70174=0x1.fcec742ac9d09p+1
70186=0x1.db3528991c31ep-2
70227=0x1.25d8e741bf36bp+0
70261=0x1.1211812e4f443p+1
70316=0x1.79183efd2d1eep-1
70389=-0x1.13a6f7105421p-2
70395=0x1.61fe8bb03629bp+2
70419=0x1.011288070f012p+2
70470=0x1.ff174555f7d16p+0
70551=0x1.be3312d2a4453p-2
70724=0x1.d88812b84295p-1
70794=0x1.45c32f09c1e43p+1
71049=0x1.c3a8a9909c799p+1
71525=0x1.4c97a1f396fbep+2
72090=0x1.0cdbff6671711p+2
72171=0x1.dbf8d6f8b91a8p+0
72269=0x1.5e2da4d92350dp+0
72414=0x1.2fdf0fbf2bfbdp-3
72738=0x1.4a58d4be3b46cp-11
72981=0x1.29440fdf8befap+2
72983=-0x1.85804ddde759dp-4
73062=0x1.15894b276c392p+1
73249=0x1.e40867f9ddeefp+1
73629=0x1.cb83a5a5801bcp-1
73633=-0x1.ccc3e34703a02p-2
73710=0x1.cb83a5a5801bcp-1
73714=-0x1.ccc3e34703a02p-2
73970=0x1.7f6a913d91386p+1
73993=0x1.122955ee9d60dp+0
74132=0x1.1c902cdff0262p+1
74202=0x1.fcfbd30f1c07dp+2
74226=0x1.1ee0f42dc50bbp+1
74439=-0x1.a01ec6770dfdfp+0
74450=0x1.dee10a7cbc6e3p+1
74780=0x1.3ecbd9bdef2bcp-9
74803=0x1.b58f204f8199ep+0
74844=0x1.a36132b30af19p+0
75022=0x1.1f72d9135466fp+1
75087=-0x1.07e85f4c76d1fp-5
75088=0x1.215d58951731dp+3
75330=-0x1.6bb6bda4319a8p-2
75334=0x1.c6a70ab9ad31p+1
75346=0x1.d51025c4921f2p+1
76140=-0x1.4d443019c2f51p+0
76148=0x1.8b46257da4dabp+2
76250=0x1.23085fe592e7fp-2
76331=0x1.24d6c9fcbf9ep-1
76412=0x1.229365afc539p-1
76626=0x1.04e2c4cd17484p-4
76635=0x1.6670fee734bc5p+1
76788=0x1.9bb9d5c31783bp-2
76880=0x1.b1a23e57bda3bp-2
77123=0x1.4c74393c4b182p-2
77139=0x1.98b87b9428404p+0
77171=0x1.1f286c4bf8b92p-2
77177=0x1.6f1b66d9c857p+0
77178=0x1.55b43ee4e3d4ap-3
77193=-0x1.ffcb65a8feb36p-4
77197=-0x1.5180edaf478fbp+0
77204=0x1.14dfba07f19c2p+1
77220=0x1.266b77b862c6cp+2
77252=0x1.1d4dae118f692p-2
77534=0x1.cac3529e5c8cap+1
77760=0x1.1eac0d6b13138p+2
77845=0x1.09cd3d064a67p+0
77922=0x1.49ea0bde4009cp+0
78020=0x1.d0a749fd4ac32p-6
78043=0x1.2288807731446p+1
78084=0x1.22a09138a3c1ap-2
78512=0x1.9cfe74ca87c7bp+0
78777=0x1.48bf1fec1d083p+3
78813=0x1.7ade92358bd9cp+0
78981=0x1.94abb2a055c1p-2
78985=0x1.27f39cfbef9f3p+0
78993=0x1.792414e6c5f38p+0
79005=0x1.e47b6ac9386dfp+0
79010=0x1.a200751da0d8p-1
79017=-0x1.a4baba5bea62fp-3
79148=0x1.9fb3396224fep+0
79154=0x1.9f427d0c1344fp+1
79164=-0x1.1e61d2653bf4ap-2
79380=-0x1.e2df68b6e8661p-4
79397=0x1.cc924650cecb4p+1
79420=0x1.7aea901e5a129p+1
79479=0x1.892caba207ea6p+2
79559=0x1.1d5bca70ebf94p+2
79570=0x1.355133ef79231p+0
79640=0x1.1f3d382a3ba59p+1
79704=0x1.fdae1670d21p+0
79733=-0x1.29a1abc935bd1p-2
79804=0x1.27097bb4e16e9p+2
79962=0x1.79ff0b69e9511p+1
80028=0x1.d5945be6bd492p+1
80462=0x1.5bb8560c02745p+0
80928=0x1.9a969d89b1ae1p+2
81162=0x1.b1b182ad8ffcap+0
81324=0x1.14c63eff70acp+1
81428=0x1.1f79b7d1a960bp+3
81582=0x1.e2e3c8f07398cp+1
81666=0x1.bf1b5748966f8p+2
81746=0x1.6c9b6f539f659p+2
81891=0x1.135eabebecc5dp-2
81893=0x1.3bfd3394f9d6p-2
82313=0x1.5ea59a3363aep+1
82458=0x1.250e9496e1782p+1
82462=-0x1.a10d787dca27cp-4
82491=0x1.8796dd5d01babp+2
82620=0x1.836358ea5cf76p-3
82638=-0x1.678f39adfb3f2p-1
82641=-0x1.1056e2d3e37c7p-4
82666=0x1.1ad8011813e01p+1
82691=0x1.81008cef199abp+0
82698=0x1.a412af5b38dddp+0
82706=-0x1.f9f42a90124d9p-1
82708=-0x1.a2084bd74d2ccp+0
82719=-0x1.a7860ba07b7e8p+0
82747=0x1.bedf0f0efdba4p+1
82748=0x1.102a211eead49p+2
82772=0x1.7b59622f2be53p+2
82774=0x1.cf2d7d603231bp+1
82822=-0x1.acc01b8ac5d6cp-3
82829=0x1.eb7a55a1ea198p+1
82858=0x1.6ee6f403d9ca2p+0
82890=0x1.0771766f06386p+0
83196=0x1.4196ef3171647p-4
83268=0x1.eda89843284d1p-2
83441=0x1.3bfe27e510c77p-4
84084=-0x1.e1b51fc88a48cp+0
84108=0x1.07862ed05e1dep+1
84176=0x1.652e02b9be5c6p+0
84199=-0x1.e2ae24ca4dfbap-7
84431=0x1.066ddd9ed7be2p+2
84726=0x1.4890b3f90c873p+0
84807=0x1.757b9f5e447afp+1
84888=0x1.8aa0b4e350ec4p-2
84969=0x1.57420669385f4p+2
85052=0x1.f91709dfafbcdp+1
85131=0x1.99ff836e9a1dp-2
85196=0x1.d6bfc0e6c07e7p+0
85374=0x1.80c77718e4fd7p-3
85860=0x1.3dc4d269f9b87p+1
86103=0x1.967cd05f139d7p-2
86201=0x1.3743a7d92e6d9p+0
86224=0x1.c052ffc537e64p-2
86231=0x1.977d0ad9548e2p+0
86433=0x1.f426844e7482ep+0
86508=0x1.d3cbf00dccaap+1
86589=0x1.1f87f204fafbp-5
86832=0x1.7ed20e4fe177cp+2
86913=0x1.86ebaaebf0bdfp+0
86925=0x1.31bd74b346c0ap+0
86994=0x1.8576122d92e3p-4
86996=0x1.46f1cddf241aap-3
86998=-0x1.2c539329f39a9p-4
86999=0x1.09ec4d931a27cp-1
87000=-0x1.13b35cc4a9ecap-3
87002=0x1.7b3f68239853ap-4
87010=0x1.5e7aabbffd019p+0
87029=0x1.ce4a7cd63b015p+0
87075=-0x1.de8fabce3b555p-1
87077=0x1.57cbbf411be59p+1
87079=0x1.8e69f9fafc5bp+1
87090=0x1.4e887c43df51p+0
87091=0x1.d2e8065d9227ap-1
87241=-0x1.23b4d44efa5dp-3
87285=0x1.12f5d4b354ce8p+1
87318=0x1.38d55e1799034p-2
87329=0x1.19140093af94bp-2
87366=0x1.5cf0bdea5550bp-1
87399=0x1.36b88d97127p+1
87563=-0x1.41ceac00f9e79p-2
87642=0x1.f0e080534b1a2p-4
87691=0x1.df880e39ab181p-1
87723=0x1.494fd8830ec2bp-3
87885=0x1.3fc222f484f48p-9
87904=0x1.0356304d0e4ccp+2
88145=0x1.96f3e9a0f24dbp+0
88307=0x1.1db0d70de47cp+1
88389=0x1.ab6ce04beaa82p+2
88410=0x1.3cb9c6a0dd8c5p+2
88469=0x1.51166017fb0c6p+2
88492=0x1.a97101788e056p+1
88533=0x1.b0e92b5aa8047p+1
88614=-0x1.021e70708655ap+1
88642=0x1.0ebf7ddf82c4ep+3
88745=0x1.4ea2d2348ebe1p+3
88942=-0x1.9e8f2bda85bbbp-1
88986=0x1.be2ed0a220917p+1
89100=-0x1.11c63b57402fdp+2
89151=0x1.0c67bc542f169p+3
89167=0x1.3792be7381e18p+1
89168=0x1.0d241595eac87p+2
89268=0x1.10d9cedc4dadep+0
89343=-0x1.3049f950fe40ep-2
89371=0x1.09527a8986fadp+3
89586=0x1.d1c8985dd0ee4p-2
89667=0x1.426349bebf0acp+2
89962=0x1.e698e6b7b4dfbp+2
89991=0x1.1aeab54a99f1cp+0
90072=0x1.5b92bb5eefbcp+2
90206=0x1.4f77fbccdef11p+2
90247=0x1.fa9f842b80082p+0
90287=0x1.5635ffd260dacp+2
90558=0x1.259d8265b3f31p+1
90650=0x1.ff203df17973bp-1
90666=0x1.1afa69efb4287p+1
90705=0x1.0940393414a1fp+1
90805=0x1.5a80073ba5ab8p-2
90806=-0x1.3277e34249435p-1
90856=0x1.b5ad836d54b42p+0
90963=-0x1.5077eaa25ed05p-1
90976=0x1.735d34b2df18cp+1
91073=0x1.2629b723a3067p-2
91154=0x1.2629b723a3067p-2
91393=0x1.022f2d348f9cbp+2
91530=0x1.16c2e143e7498p+0
91538=0x1.6bd75ce5025d4p-7
91660=0x1.5c4268ae5ef3fp+0
91854=0x1.0862ca873aa39p-1
92340=0x1.eb74987e13838p+1
92421=0x1.ce764e444aae4p-4
92583=-0x1.274aab14a5f77p+1
92585=-0x1.c19c5402b5f9ep-2
92634=0x1.cc3b6e24b3a64p+3
92677=0x1.089d861292e39p+3
92745=0x1.0b13c8dcb1f26p+0
92907=0x1.db7203fe059aap+1
